6.877569999999999517e-02 nan
8.637960999999999556e-02 nan
1.039835209999999954e-01 nan
1.215874309999999958e-01 nan
1.391913409999999962e-01 nan
1.567952509999999966e-01 nan
1.743991619999999965e-01 nan
1.920030719999999969e-01 nan
2.096069819999999972e-01 nan
2.272108929999999971e-01 nan
2.448148029999999975e-01 1.909621579723873452e+01
2.624187130000000256e-01 6.914141984818655828e-03
2.800226230000000260e-01 -5.715290626961966325e+00
2.976265339999999981e-01 -3.705485263890917480e+00
3.152304439999999985e-01 -7.092026450862581655e+00
3.328343539999999989e-01 -1.080373345588523293e+01
3.504382650000000265e-01 -9.218922822868844236e+00
3.680421750000000269e-01 -2.302999145591527963e+00
3.856460850000000273e-01 3.952999619313981583e+00
4.032499950000000277e-01 3.659665923465610149e+00
4.208539059999999998e-01 1.395166368646329147e+00
4.384578160000000002e-01 -9.820858589573226993e-01
4.560617260000000006e-01 -3.043971348728195636e+00
4.736656369999999727e-01 -4.761626410425847666e+00
4.912695469999999731e-01 -5.871586589863881045e+00
5.088734569999999735e-01 -6.196012452690956351e+00
5.264773670000000294e-01 -6.489571563085196004e+00
5.440812779999999460e-01 -6.531394688754975419e+00
5.616851880000000019e-01 -6.331044589322010196e+00
5.792890979999999468e-01 -5.774196030709589422e+00
5.968930089999999744e-01 -4.901070504647659476e+00
6.144969190000000303e-01 -4.113953955327408707e+00
6.321008289999999752e-01 -3.753116739391046508e+00
6.497047390000000311e-01 -3.970193753764450051e+00
6.673086499999999477e-01 -4.316013095525322640e+00
6.849125600000000036e-01 -4.690786380540483691e+00
7.025164699999999485e-01 -4.790209732355879879e+00
7.201203809999999761e-01 -4.485986231490171505e+00
7.377242910000000320e-01 -4.260817349157814959e+00
7.553282009999999769e-01 -4.075912778152154914e+00
7.729321110000000328e-01 -3.749641517449987305e+00
7.905360219999999494e-01 -3.558433140660891780e+00
8.081399320000000053e-01 -3.149607199178511507e+00
8.257438419999999502e-01 -2.847771006573932340e+00
8.433477529999999778e-01 -2.582356217476700522e+00
8.609516630000000337e-01 -2.404469895927636713e+00
8.785555729999999786e-01 -2.365167894825599859e+00
8.961594830000000345e-01 -2.322499291971915625e+00
9.137633939999999511e-01 -2.355063696551884078e+00
9.313673040000000070e-01 -2.279004954700450725e+00
9.489712139999999518e-01 -2.208294138512314930e+00
9.665751249999999795e-01 -2.091481811495267351e+00
9.841790350000000354e-01 -2.044959145039840109e+00
1.001782944999999980e+00 -1.888355914582692918e+00
1.019386855000000036e+00 -1.779911719746220200e+00
1.036990765999999953e+00 -1.775824272760814893e+00
1.054594676000000009e+00 -1.656932107027518697e+00
1.072198586000000065e+00 -1.619790909016437297e+00
1.089802496999999981e+00 -1.529833458997188700e+00
1.107406407000000037e+00 -1.457136547862941001e+00
1.125010317000000093e+00 -1.466825550865834771e+00
1.142614226999999927e+00 -1.475430256164280252e+00
1.160218138000000065e+00 -1.422032269903098722e+00
1.177822047999999899e+00 -1.382954799278564906e+00
1.195425957999999955e+00 -1.254243209322346786e+00
1.213029869000000094e+00 -1.180343491428896385e+00
1.230633778999999928e+00 -1.017611297880705479e+00
1.248237688999999984e+00 -9.784828348808218834e-01
1.265841599000000040e+00 -9.300202771513355060e-01
1.283445509999999956e+00 -8.951128521015476736e-01
1.301049420000000012e+00 -9.114629743154729624e-01
1.318653330000000068e+00 -8.396444558033984151e-01
1.336257240999999985e+00 -7.197425170254057036e-01
1.353861151000000040e+00 -7.336420206745373207e-01
1.371465061000000096e+00 -6.869541502015295009e-01
1.389068970999999930e+00 -6.873549896313839724e-01
1.406672882000000069e+00 -6.264338150731241228e-01
1.424276791999999903e+00 -6.040229974634492294e-01
1.441880701999999959e+00 -5.552117649519026088e-01
1.459484613000000097e+00 -5.218933057602797021e-01
1.477088522999999931e+00 -5.112230480077570860e-01
1.494692432999999987e+00 -5.088919471322093102e-01
1.512296343000000043e+00 -5.907624152230823711e-01
1.529900253999999959e+00 -4.419170066159736621e-01
1.547504164000000015e+00 -4.307227047818109611e-01
1.565108074000000071e+00 -4.016495400021824480e-01
1.582711984999999988e+00 -5.031094265757332096e-01
1.600315895000000044e+00 -4.486461885608648004e-01
1.617919805000000100e+00 -3.641902112649795242e-01
1.635523714999999934e+00 -4.118949245440468587e-01
1.653127626000000072e+00 -4.263620074242453484e-01
1.670731535999999906e+00 -3.631686815802552815e-01
1.688335445999999962e+00 -3.296374851685683893e-01
1.705939357000000101e+00 -2.403772109266277823e-01
1.723543266999999934e+00 -2.725867342937213778e-01
1.741147176999999990e+00 -3.324713392825593417e-01
1.758751087000000046e+00 -2.277365834791069688e-01
1.776354997999999963e+00 -1.747349627875571798e-01
1.793958908000000019e+00 -2.054235562031792028e-01
1.811562818000000075e+00 -2.006080808647539016e-01
1.829166728999999991e+00 -2.463423328629588127e-01
1.846770639000000047e+00 -2.234591218277230951e-01
1.864374549000000103e+00 -2.719558517993263536e-01
1.881978458999999937e+00 -2.644043902336790097e-01
1.899582370000000076e+00 -2.482750210690447545e-01
1.917186279999999909e+00 -1.870976704674482960e-01
1.934790189999999965e+00 -2.023846528354482643e-01
1.952394101000000104e+00 -1.481138834435782314e-01
1.969998010999999938e+00 -2.052193173772636214e-01
1.987601920999999994e+00 -2.326432052629421321e-01
2.005205831000000050e+00 -2.102550592459095924e-01
2.022809742000000188e+00 -1.371914138116245852e-01
2.040413651999999800e+00 -1.166951730713279289e-01
2.058017561999999856e+00 -1.488859160206494892e-01
2.075621472999999995e+00 -2.300478717090115310e-02
2.093225383000000051e+00 -1.026360393125003156e-01
2.110829293000000106e+00 -5.124183464052123327e-02
2.128433203000000162e+00 5.162992594069848451e-02
2.146037113999999857e+00 5.043733090958824050e-02
2.163641023999999913e+00 -4.455743442750303984e-02
2.181244933999999969e+00 -1.531302587485683375e-02
2.198848845000000107e+00 -6.831751698995347510e-02
2.216452755000000163e+00 -7.247183283048741487e-02
2.234056665000000219e+00 -9.125264194899784798e-03
2.251660574999999831e+00 -2.988569025117016054e-03
2.269264485999999970e+00 4.110728356820558815e-02
2.286868396000000025e+00 1.039502521687651893e-02
2.304472306000000081e+00 6.170678617099412122e-02
2.322076217000000220e+00 2.169189707413110568e-02
2.339680126999999832e+00 3.605340811681401192e-02
2.357284036999999888e+00 7.124089840614544755e-02
2.374887946999999944e+00 3.086704369127701852e-02
2.392491858000000082e+00 1.458948446859160697e-01
2.410095768000000138e+00 6.574040742066955545e-02
2.427699678000000194e+00 7.339017414381743265e-02
2.445303588999999889e+00 1.516808039263537466e-01
2.462907498999999945e+00 4.488427782570525437e-02
2.480511409000000000e+00 1.093996700093953223e-01
2.498115319000000056e+00 3.656408950956446802e-02
2.515719230000000195e+00 8.944836561447999657e-02
2.533323139999999807e+00 5.886375043922598138e-02
2.550927049999999863e+00 4.236361481287076458e-02
2.568530961000000001e+00 2.247931562234128933e-03
2.586134871000000057e+00 8.954427229781103392e-02
2.603738781000000113e+00 3.129238266170020211e-02
2.621342691000000169e+00 6.185474216249531310e-02
2.638946601999999864e+00 1.586780004231513885e-03
2.656550511999999920e+00 -2.947102762473718940e-02
2.674154421999999975e+00 -1.480217011939899407e-02
2.691758333000000114e+00 -7.781226596728174627e-02
2.709362243000000170e+00 -5.056726735510608250e-02
2.726966152999999782e+00 -9.892088543984201010e-02
2.744570062999999838e+00 -1.063158902044953891e-01
2.762173973999999976e+00 -9.650422756851284589e-02
2.779777884000000032e+00 -8.680197469751860240e-02
2.797381794000000088e+00 3.366295230196669763e-02
2.814985704999999783e+00 1.461493778300848589e-03
2.832589614999999839e+00 -3.945350837739880490e-02
2.850193524999999894e+00 -1.347575933996409958e-01
2.867797434999999950e+00 -1.271228183798456257e-01
2.885401346000000089e+00 5.026020704818066065e-01
2.903005256000000145e+00 1.767867314429317105e+00
2.920609166000000201e+00 3.932115314313456622e+00
2.938213076999999895e+00 8.013985861063780192e+00
2.955816986999999951e+00 1.786314798748669119e+01
2.973420897000000007e+00 3.694218537498531418e+01
2.991024807000000063e+00 nan
3.008628718000000202e+00 nan
3.026232627999999814e+00 nan
3.043836537999999869e+00 nan
3.061440449000000008e+00 nan
3.079044359000000064e+00 nan
3.096648269000000120e+00 nan
3.114252179000000176e+00 nan
3.131856089999999870e+00 nan
3.149459999999999926e+00 nan
