6.877569999999999517e-02 nan
8.637960999999999556e-02 nan
1.039835209999999954e-01 nan
1.215874309999999958e-01 nan
1.391913409999999962e-01 nan
1.567952509999999966e-01 nan
1.743991619999999965e-01 nan
1.920030719999999969e-01 nan
2.096069819999999972e-01 nan
2.272108929999999971e-01 nan
2.448148029999999975e-01 1.706680508345443670e+01
2.624187130000000256e-01 -1.728454594388797005e+00
2.800226230000000260e-01 -7.284742638489884570e+00
2.976265339999999981e-01 -5.224339200045829301e+00
3.152304439999999985e-01 -8.167751144441925959e+00
3.328343539999999989e-01 -1.192674951752505841e+01
3.504382650000000265e-01 -1.031059276521715873e+01
3.680421750000000269e-01 -3.314722906881765851e+00
3.856460850000000273e-01 2.856364351906613308e+00
4.032499950000000277e-01 2.584910318635948556e+00
4.208539059999999998e-01 3.011850139776939272e-01
4.384578160000000002e-01 -2.120398275598009974e+00
4.560617260000000006e-01 -4.158145569001522546e+00
4.736656369999999727e-01 -5.886281728159138638e+00
4.912695469999999731e-01 -6.939294752020133572e+00
5.088734569999999735e-01 -7.227279211121752311e+00
5.264773670000000294e-01 -7.510817553257716384e+00
5.440812779999999460e-01 -7.532531394101882327e+00
5.616851880000000019e-01 -7.317077590129201781e+00
5.792890979999999468e-01 -6.669010465263642828e+00
5.968930089999999744e-01 -5.791942697131839068e+00
6.144969190000000303e-01 -4.961059498980418425e+00
6.321008289999999752e-01 -4.581256818143298659e+00
6.497047390000000311e-01 -4.677985827841386168e+00
6.673086499999999477e-01 -4.989292017534873835e+00
6.849125600000000036e-01 -5.335307983296058154e+00
7.025164699999999485e-01 -5.370317815759603874e+00
7.201203809999999761e-01 -5.133522365318919256e+00
7.377242910000000320e-01 -4.964638575976890067e+00
7.553282009999999769e-01 -4.801558231517057962e+00
7.729321110000000328e-01 -4.455366099937540625e+00
7.905360219999999494e-01 -4.311857579794999396e+00
8.081399320000000053e-01 -3.779328942372032429e+00
8.257438419999999502e-01 -3.526314620742152073e+00
8.433477529999999778e-01 -3.283256959604223368e+00
8.609516630000000337e-01 -3.011956279994045360e+00
8.785555729999999786e-01 -3.008985384914442562e+00
8.961594830000000345e-01 -2.936537506395012542e+00
9.137633939999999511e-01 -2.965575508393690995e+00
9.313673040000000070e-01 -2.964362315616835275e+00
9.489712139999999518e-01 -2.870536756723335969e+00
9.665751249999999795e-01 -2.706362025518359360e+00
9.841790350000000354e-01 -2.670413052739057491e+00
1.001782944999999980e+00 -2.526769475138888055e+00
1.019386855000000036e+00 -2.314327083392235807e+00
1.036990765999999953e+00 -2.443817555953362586e+00
1.054594676000000009e+00 -2.254214708105610754e+00
1.072198586000000065e+00 -2.177813454897538747e+00
1.089802496999999981e+00 -2.016509842794881990e+00
1.107406407000000037e+00 -1.809259610744781810e+00
1.125010317000000093e+00 -1.863573435940132583e+00
1.142614226999999927e+00 -1.760486897904502968e+00
1.160218138000000065e+00 -1.729021015971088815e+00
1.177822047999999899e+00 -1.718605997236402061e+00
1.195425957999999955e+00 -1.595407434589564133e+00
1.213029869000000094e+00 -1.601189272251470896e+00
1.230633778999999928e+00 -1.418477073778031894e+00
1.248237688999999984e+00 -1.437149669194280222e+00
1.265841599000000040e+00 -1.299897684189797786e+00
1.283445509999999956e+00 -1.328478462377596259e+00
1.301049420000000012e+00 -1.331023768604644886e+00
1.318653330000000068e+00 -1.212980601455967644e+00
1.336257240999999985e+00 -1.067640319101649027e+00
1.353861151000000040e+00 -1.080863902534563437e+00
1.371465061000000096e+00 -9.377844226816947071e-01
1.389068970999999930e+00 -9.204028139155830956e-01
1.406672882000000069e+00 -8.373616608148672924e-01
1.424276791999999903e+00 -7.594244692863831858e-01
1.441880701999999959e+00 -7.570706595789609139e-01
1.459484613000000097e+00 -7.099414405840889231e-01
1.477088522999999931e+00 -6.719331718625909389e-01
1.494692432999999987e+00 -6.027661573942708628e-01
1.512296343000000043e+00 -7.010454072817609017e-01
1.529900253999999959e+00 -5.368376383388664408e-01
1.547504164000000015e+00 -5.117703926905399214e-01
1.565108074000000071e+00 -4.478897204562635181e-01
1.582711984999999988e+00 -5.085448881071101823e-01
1.600315895000000044e+00 -3.548056025319787921e-01
1.617919805000000100e+00 -2.581960449682441094e-01
1.635523714999999934e+00 -3.719552380517718859e-01
1.653127626000000072e+00 -2.733750123834539636e-01
1.670731535999999906e+00 -2.420692352753519572e-01
1.688335445999999962e+00 -1.775013245145053986e-01
1.705939357000000101e+00 -2.116622915512067493e-01
1.723543266999999934e+00 -1.549229239625766752e-01
1.741147176999999990e+00 -3.233217187748920196e-01
1.758751087000000046e+00 -1.515830093276555601e-01
1.776354997999999963e+00 -1.936271439607430978e-01
1.793958908000000019e+00 -2.913274745663336773e-01
1.811562818000000075e+00 -1.906692467129893487e-01
1.829166728999999991e+00 -2.835747478996530901e-01
1.846770639000000047e+00 -1.222319233115136683e-01
1.864374549000000103e+00 -2.909403833400183714e-01
1.881978458999999937e+00 -2.610457326666804079e-01
1.899582370000000076e+00 -1.677034966815753592e-01
1.917186279999999909e+00 -1.457177990482279029e-01
1.934790189999999965e+00 -1.896691815205180376e-01
1.952394101000000104e+00 -1.797217899287630871e-01
1.969998010999999938e+00 -1.488884226527069643e-01
1.987601920999999994e+00 -1.782752868649239986e-01
2.005205831000000050e+00 -2.192344782581976403e-01
2.022809742000000188e+00 -1.130306101261062679e-01
2.040413651999999800e+00 -1.511898062807972565e-01
2.058017561999999856e+00 -1.580989886045571780e-01
2.075621472999999995e+00 2.689129260766520702e-02
2.093225383000000051e+00 -6.581168925504599088e-02
2.110829293000000106e+00 5.426891187307703035e-02
2.128433203000000162e+00 1.414087225244138324e-01
2.146037113999999857e+00 1.789996226674865909e-01
2.163641023999999913e+00 4.437849644923730352e-02
2.181244933999999969e+00 9.176930513547176815e-03
2.198848845000000107e+00 -4.926225507991688346e-02
2.216452755000000163e+00 -1.152829225900475763e-02
2.234056665000000219e+00 -7.095350677968070841e-02
2.251660574999999831e+00 -1.024859188350610850e-01
2.269264485999999970e+00 -5.564129749697244165e-02
2.286868396000000025e+00 -2.609319034197099541e-02
2.304472306000000081e+00 1.773860800333793009e-02
2.322076217000000220e+00 1.142530571632605074e-01
2.339680126999999832e+00 -4.892613612524954192e-02
2.357284036999999888e+00 6.032693481823869774e-02
2.374887946999999944e+00 2.247305747748029603e-02
2.392491858000000082e+00 1.559073376642210462e-01
2.410095768000000138e+00 1.048954735258433857e-02
2.427699678000000194e+00 -5.060638766088487728e-02
2.445303588999999889e+00 1.135905686604274933e-01
2.462907498999999945e+00 -6.756630908359539944e-03
2.480511409000000000e+00 1.167537281264721116e-01
2.498115319000000056e+00 6.296237211035204950e-02
2.515719230000000195e+00 7.211739746398038164e-02
2.533323139999999807e+00 3.217741201306267840e-02
2.550927049999999863e+00 1.015821142855379833e-01
2.568530961000000001e+00 1.203116568447484269e-01
2.586134871000000057e+00 2.549803874322691399e-01
2.603738781000000113e+00 2.058850899226882802e-01
2.621342691000000169e+00 2.995583463801416713e-01
2.638946601999999864e+00 2.535446978464790391e-01
2.656550511999999920e+00 2.598461858109075706e-01
2.674154421999999975e+00 2.285517330831332572e-01
2.691758333000000114e+00 1.902161673474154213e-01
2.709362243000000170e+00 2.295009570090904560e-01
2.726966152999999782e+00 2.354813193775804336e-01
2.744570062999999838e+00 9.945640375281428192e-02
2.762173973999999976e+00 1.938279275171161942e-01
2.779777884000000032e+00 5.865024443358990425e-02
2.797381794000000088e+00 1.943871906480403311e-01
2.814985704999999783e+00 7.266593137870813734e-02
2.832589614999999839e+00 6.597579026725952644e-02
2.850193524999999894e+00 -4.710462117012781391e-02
2.867797434999999950e+00 4.682924838305879689e-02
2.885401346000000089e+00 8.314872048622632406e-01
2.903005256000000145e+00 2.071715941490719359e+00
2.920609166000000201e+00 4.344106760162773639e+00
2.938213076999999895e+00 8.383143072825298248e+00
2.955816986999999951e+00 1.792349418422206142e+01
2.973420897000000007e+00 3.666724349509470926e+01
2.991024807000000063e+00 nan
3.008628718000000202e+00 nan
3.026232627999999814e+00 nan
3.043836537999999869e+00 nan
3.061440449000000008e+00 nan
3.079044359000000064e+00 nan
3.096648269000000120e+00 nan
3.114252179000000176e+00 nan
3.131856089999999870e+00 nan
3.149459999999999926e+00 nan
