6.877569999999999517e-02 nan
8.637960999999999556e-02 nan
1.039835209999999954e-01 nan
1.215874309999999958e-01 nan
1.391913409999999962e-01 nan
1.567952509999999966e-01 nan
1.743991619999999965e-01 nan
1.920030719999999969e-01 nan
2.096069819999999972e-01 nan
2.272108929999999971e-01 nan
2.448148029999999975e-01 1.826191637663115941e+01
2.624187130000000256e-01 -1.134950749966215255e+00
2.800226230000000260e-01 -6.986392474720206636e+00
2.976265339999999981e-01 -4.788903252049863113e+00
3.152304439999999985e-01 -7.884099686343420288e+00
3.328343539999999989e-01 -1.143493105782520658e+01
3.504382650000000265e-01 -9.656629578752040644e+00
3.680421750000000269e-01 -2.648711865359388185e+00
3.856460850000000273e-01 3.701851734653658355e+00
4.032499950000000277e-01 3.516817850553714209e+00
4.208539059999999998e-01 1.186496304474268015e+00
4.384578160000000002e-01 -1.194766153946694942e+00
4.560617260000000006e-01 -3.312706523716769880e+00
4.736656369999999727e-01 -4.984229377250930071e+00
4.912695469999999731e-01 -6.058263189722744357e+00
5.088734569999999735e-01 -6.438615543311595246e+00
5.264773670000000294e-01 -6.624067208182571775e+00
5.440812779999999460e-01 -6.627450338939354424e+00
5.616851880000000019e-01 -6.393110083620605621e+00
5.792890979999999468e-01 -5.728847420766349785e+00
5.968930089999999744e-01 -4.871547127404429745e+00
6.144969190000000303e-01 -4.043854653116031983e+00
6.321008289999999752e-01 -3.742208513168154838e+00
6.497047390000000311e-01 -3.923201402565545948e+00
6.673086499999999477e-01 -4.305552070033861867e+00
6.849125600000000036e-01 -4.672321245904329956e+00
7.025164699999999485e-01 -4.795325790616836059e+00
7.201203809999999761e-01 -4.474602246736699485e+00
7.377242910000000320e-01 -4.307952164390338012e+00
7.553282009999999769e-01 -4.118137715603577220e+00
7.729321110000000328e-01 -3.848560352253272754e+00
7.905360219999999494e-01 -3.650029398675066261e+00
8.081399320000000053e-01 -3.266057944841499250e+00
8.257438419999999502e-01 -2.971650199818508753e+00
8.433477529999999778e-01 -2.735789731202142860e+00
8.609516630000000337e-01 -2.565943911381989295e+00
8.785555729999999786e-01 -2.578336728648281451e+00
8.961594830000000345e-01 -2.529530855697171177e+00
9.137633939999999511e-01 -2.508004653322050359e+00
9.313673040000000070e-01 -2.440021377606687025e+00
9.489712139999999518e-01 -2.374517069814316983e+00
9.665751249999999795e-01 -2.265812408402997136e+00
9.841790350000000354e-01 -2.226612695515587603e+00
1.001782944999999980e+00 -2.066463659241385642e+00
1.019386855000000036e+00 -1.923810219593121928e+00
1.036990765999999953e+00 -1.872142297613748951e+00
1.054594676000000009e+00 -1.708115185049965845e+00
1.072198586000000065e+00 -1.643704843077941291e+00
1.089802496999999981e+00 -1.562141124314528895e+00
1.107406407000000037e+00 -1.471364699520300690e+00
1.125010317000000093e+00 -1.451034004196419147e+00
1.142614226999999927e+00 -1.439054143652551687e+00
1.160218138000000065e+00 -1.380239954567116456e+00
1.177822047999999899e+00 -1.310258592487091533e+00
1.195425957999999955e+00 -1.191083472134181420e+00
1.213029869000000094e+00 -1.164573667291424641e+00
1.230633778999999928e+00 -1.015931834811667045e+00
1.248237688999999984e+00 -9.683900362459354483e-01
1.265841599000000040e+00 -9.092028064174435542e-01
1.283445509999999956e+00 -9.201571854637009551e-01
1.301049420000000012e+00 -8.990999061542375159e-01
1.318653330000000068e+00 -8.839061115616573261e-01
1.336257240999999985e+00 -7.793018168567300563e-01
1.353861151000000040e+00 -8.275100692808798897e-01
1.371465061000000096e+00 -8.119488965515486711e-01
1.389068970999999930e+00 -7.654556275244708274e-01
1.406672882000000069e+00 -7.753787348339926666e-01
1.424276791999999903e+00 -7.700810110338593972e-01
1.441880701999999959e+00 -7.223409437632177799e-01
1.459484613000000097e+00 -6.716121854033261229e-01
1.477088522999999931e+00 -6.912630342513956805e-01
1.494692432999999987e+00 -6.303406125714019481e-01
1.512296343000000043e+00 -6.725190851721087881e-01
1.529900253999999959e+00 -6.141893715096742312e-01
1.547504164000000015e+00 -5.830638919910740015e-01
1.565108074000000071e+00 -5.385011426363490727e-01
1.582711984999999988e+00 -6.065183674078724607e-01
1.600315895000000044e+00 -5.786365355135671962e-01
1.617919805000000100e+00 -4.784304776806713733e-01
1.635523714999999934e+00 -4.862088295159558982e-01
1.653127626000000072e+00 -4.591486467093730539e-01
1.670731535999999906e+00 -4.510625975497717377e-01
1.688335445999999962e+00 -3.760758145210694181e-01
1.705939357000000101e+00 -3.871729267290398013e-01
1.723543266999999934e+00 -3.680754629871856309e-01
1.741147176999999990e+00 -3.816807113687232800e-01
1.758751087000000046e+00 -3.272150149804495811e-01
1.776354997999999963e+00 -2.790538917015723541e-01
1.793958908000000019e+00 -2.569972151178880893e-01
1.811562818000000075e+00 -2.009098297034803693e-01
1.829166728999999991e+00 -2.060381641012440923e-01
1.846770639000000047e+00 -1.438359667903270633e-01
1.864374549000000103e+00 -1.694405309502187151e-01
1.881978458999999937e+00 -1.059883267823487074e-01
1.899582370000000076e+00 -9.461429519074116001e-02
1.917186279999999909e+00 -6.467690211657384225e-03
1.934790189999999965e+00 -1.916860967360278778e-02
1.952394101000000104e+00 -1.521076384449315810e-02
1.969998010999999938e+00 -8.542569097091856634e-02
1.987601920999999994e+00 -7.080717967325966811e-02
2.005205831000000050e+00 -7.512038742250837231e-02
2.022809742000000188e+00 -1.750702079370114461e-03
2.040413651999999800e+00 -1.663915642458491106e-02
2.058017561999999856e+00 -1.635422473691861001e-02
2.075621472999999995e+00 3.190926458091070117e-02
2.093225383000000051e+00 -4.621522633734542751e-02
2.110829293000000106e+00 -2.427288243780623134e-02
2.128433203000000162e+00 5.170392861507977500e-02
2.146037113999999857e+00 5.322461998893857071e-03
2.163641023999999913e+00 -2.580035789796397694e-02
2.181244933999999969e+00 -3.562465542216841641e-03
2.198848845000000107e+00 3.803029586986639288e-03
2.216452755000000163e+00 -3.894145270102455925e-04
2.234056665000000219e+00 3.117145147064803723e-02
2.251660574999999831e+00 4.372638022043773276e-02
2.269264485999999970e+00 -7.982431622522767611e-03
2.286868396000000025e+00 1.382068259838220570e-02
2.304472306000000081e+00 4.905518785659879200e-02
2.322076217000000220e+00 4.890192459970776895e-02
2.339680126999999832e+00 2.173296909623445572e-02
2.357284036999999888e+00 3.078730889304992502e-02
2.374887946999999944e+00 -1.053259174035758861e-03
2.392491858000000082e+00 3.152318384373131721e-02
2.410095768000000138e+00 -1.863303472532962246e-02
2.427699678000000194e+00 -3.563446442335305164e-02
2.445303588999999889e+00 3.119416319153600625e-02
2.462907498999999945e+00 -6.708882997906684409e-02
2.480511409000000000e+00 -3.099948831499332869e-02
2.498115319000000056e+00 -2.315561090719597814e-02
2.515719230000000195e+00 4.309201937186912801e-02
2.533323139999999807e+00 1.722556693590959753e-02
2.550927049999999863e+00 5.154895607774179211e-02
2.568530961000000001e+00 1.045765499621609251e-02
2.586134871000000057e+00 9.831062760299502656e-02
2.603738781000000113e+00 7.824465562131877050e-02
2.621342691000000169e+00 8.995923371167435789e-02
2.638946601999999864e+00 8.084232641518340756e-02
2.656550511999999920e+00 4.319321731688674504e-02
2.674154421999999975e+00 5.537112755234829820e-02
2.691758333000000114e+00 3.877504607038773088e-02
2.709362243000000170e+00 -4.954727651050205850e-03
2.726966152999999782e+00 3.123811984841395883e-02
2.744570062999999838e+00 -3.466969757961635423e-02
2.762173973999999976e+00 -3.453500292353339773e-02
2.779777884000000032e+00 1.251969296439270352e-02
2.797381794000000088e+00 9.269841821393498549e-02
2.814985704999999783e+00 1.137521952139586290e-01
2.832589614999999839e+00 7.412581160125952806e-02
2.850193524999999894e+00 1.071925511731564029e-02
2.867797434999999950e+00 -6.974303609787568803e-03
2.885401346000000089e+00 5.608641300037504607e-01
2.903005256000000145e+00 1.789445213262471412e+00
2.920609166000000201e+00 3.981418215378837999e+00
2.938213076999999895e+00 8.153331966839051148e+00
2.955816986999999951e+00 1.817499178404392168e+01
2.973420897000000007e+00 3.759716344256450782e+01
2.991024807000000063e+00 nan
3.008628718000000202e+00 nan
3.026232627999999814e+00 nan
3.043836537999999869e+00 nan
3.061440449000000008e+00 nan
3.079044359000000064e+00 nan
3.096648269000000120e+00 nan
3.114252179000000176e+00 nan
3.131856089999999870e+00 nan
3.149459999999999926e+00 nan
