6.877569999999999517e-02 nan
8.637960999999999556e-02 nan
1.039835209999999954e-01 nan
1.215874309999999958e-01 nan
1.391913409999999962e-01 nan
1.567952509999999966e-01 nan
1.743991619999999965e-01 nan
1.920030719999999969e-01 nan
2.096069819999999972e-01 nan
2.272108929999999971e-01 nan
2.448148029999999975e-01 1.853778745870958744e+01
2.624187130000000256e-01 -8.999736036936063499e-01
2.800226230000000260e-01 -6.797133638935429545e+00
2.976265339999999981e-01 -4.676748587648395628e+00
3.152304439999999985e-01 -7.882972039803769704e+00
3.328343539999999989e-01 -1.149014931023620534e+01
3.504382650000000265e-01 -9.756428383867023157e+00
3.680421750000000269e-01 -2.775142562060288753e+00
3.856460850000000273e-01 3.575633393900332635e+00
4.032499950000000277e-01 3.395857297972874278e+00
4.208539059999999998e-01 1.076171292813736358e+00
4.384578160000000002e-01 -1.322315516097013699e+00
4.560617260000000006e-01 -3.439039312270512738e+00
4.736656369999999727e-01 -5.120983258042821618e+00
4.912695469999999731e-01 -6.209408289322713159e+00
5.088734569999999735e-01 -6.596425319253079067e+00
5.264773670000000294e-01 -6.766540462424293523e+00
5.440812779999999460e-01 -6.761540331899769996e+00
5.616851880000000019e-01 -6.506394085368976121e+00
5.792890979999999468e-01 -5.855226432962348682e+00
5.968930089999999744e-01 -4.993058589084292009e+00
6.144969190000000303e-01 -4.163726242112968379e+00
6.321008289999999752e-01 -3.857469906396236325e+00
6.497047390000000311e-01 -4.039006595237786712e+00
6.673086499999999477e-01 -4.428471289907911057e+00
6.849125600000000036e-01 -4.805108481522163189e+00
7.025164699999999485e-01 -4.923206723122349970e+00
7.201203809999999761e-01 -4.618888034224038819e+00
7.377242910000000320e-01 -4.449032180028815731e+00
7.553282009999999769e-01 -4.254713392021169938e+00
7.729321110000000328e-01 -3.970028937630232235e+00
7.905360219999999494e-01 -3.750133855602040711e+00
8.081399320000000053e-01 -3.371950973732399603e+00
8.257438419999999502e-01 -3.040453536538819890e+00
8.433477529999999778e-01 -2.809729262196889010e+00
8.609516630000000337e-01 -2.635674566567466570e+00
8.785555729999999786e-01 -2.636285231238172599e+00
8.961594830000000345e-01 -2.598273783253777225e+00
9.137633939999999511e-01 -2.572387510965636892e+00
9.313673040000000070e-01 -2.507827372713848035e+00
9.489712139999999518e-01 -2.440480414109003959e+00
9.665751249999999795e-01 -2.338598677215117050e+00
9.841790350000000354e-01 -2.306585314028048117e+00
1.001782944999999980e+00 -2.147750581522082314e+00
1.019386855000000036e+00 -2.004871054744189252e+00
1.036990765999999953e+00 -1.955311494416719142e+00
1.054594676000000009e+00 -1.780752928887217479e+00
1.072198586000000065e+00 -1.727295098341805613e+00
1.089802496999999981e+00 -1.641456230293556473e+00
1.107406407000000037e+00 -1.520207724793408488e+00
1.125010317000000093e+00 -1.536526312690558171e+00
1.142614226999999927e+00 -1.500545124527970842e+00
1.160218138000000065e+00 -1.454440813791109122e+00
1.177822047999999899e+00 -1.382919947683106443e+00
1.195425957999999955e+00 -1.269913927590035740e+00
1.213029869000000094e+00 -1.259737744971147322e+00
1.230633778999999928e+00 -1.135619448075072313e+00
1.248237688999999984e+00 -1.065626497505963499e+00
1.265841599000000040e+00 -1.011242048216679734e+00
1.283445509999999956e+00 -1.045920806372553358e+00
1.301049420000000012e+00 -1.026403590512234842e+00
1.318653330000000068e+00 -1.010010726718665097e+00
1.336257240999999985e+00 -9.004169939460027194e-01
1.353861151000000040e+00 -9.308838490223259043e-01
1.371465061000000096e+00 -8.864179084453702728e-01
1.389068970999999930e+00 -8.441992906771282890e-01
1.406672882000000069e+00 -8.542625735567952461e-01
1.424276791999999903e+00 -8.408005840527401631e-01
1.441880701999999959e+00 -7.803062690477560182e-01
1.459484613000000097e+00 -7.374151463413873842e-01
1.477088522999999931e+00 -7.376527512403541209e-01
1.494692432999999987e+00 -6.667950885484472678e-01
1.512296343000000043e+00 -6.928156460230461278e-01
1.529900253999999959e+00 -6.389375359554776423e-01
1.547504164000000015e+00 -5.941192078448480629e-01
1.565108074000000071e+00 -5.665168014674080155e-01
1.582711984999999988e+00 -6.363393481475938529e-01
1.600315895000000044e+00 -6.165788170124244516e-01
1.617919805000000100e+00 -5.321485117208659688e-01
1.635523714999999934e+00 -5.206529449177814683e-01
1.653127626000000072e+00 -5.065852324333590673e-01
1.670731535999999906e+00 -4.835370290368850021e-01
1.688335445999999962e+00 -4.180236684436664518e-01
1.705939357000000101e+00 -4.132619906570873525e-01
1.723543266999999934e+00 -3.869101404679184952e-01
1.741147176999999990e+00 -4.137584637210274252e-01
1.758751087000000046e+00 -3.614144870035538304e-01
1.776354997999999963e+00 -3.147043540273841700e-01
1.793958908000000019e+00 -2.934005783570547976e-01
1.811562818000000075e+00 -2.259835820502971160e-01
1.829166728999999991e+00 -2.316656622753434647e-01
1.846770639000000047e+00 -1.678205637987346677e-01
1.864374549000000103e+00 -2.010261704177729314e-01
1.881978458999999937e+00 -1.240803971654074189e-01
1.899582370000000076e+00 -1.029525905996493407e-01
1.917186279999999909e+00 -2.207554498748720562e-02
1.934790189999999965e+00 -4.896113331520268730e-02
1.952394101000000104e+00 -3.872605227683578732e-02
1.969998010999999938e+00 -9.604250130979252731e-02
1.987601920999999994e+00 -7.514922768912768447e-02
2.005205831000000050e+00 -8.477281712226769628e-02
2.022809742000000188e+00 -3.834776714101550965e-02
2.040413651999999800e+00 -5.360293020725492852e-02
2.058017561999999856e+00 -4.619272907363836111e-02
2.075621472999999995e+00 -2.479454404423364622e-02
2.093225383000000051e+00 -7.011386464338897895e-02
2.110829293000000106e+00 -5.950877626938222420e-02
2.128433203000000162e+00 5.328507970158824492e-03
2.146037113999999857e+00 -4.308190593362937193e-02
2.163641023999999913e+00 -5.773376039083899514e-02
2.181244933999999969e+00 -4.495583338268716034e-02
2.198848845000000107e+00 -4.828797393096095902e-02
2.216452755000000163e+00 -3.221796053663084081e-02
2.234056665000000219e+00 -1.211070753595677729e-02
2.251660574999999831e+00 1.466939066231631728e-02
2.269264485999999970e+00 -1.642262466684485389e-02
2.286868396000000025e+00 9.931926311850247657e-04
2.304472306000000081e+00 4.606739856795272203e-02
2.322076217000000220e+00 6.293174050383854023e-02
2.339680126999999832e+00 4.570200056949502709e-02
2.357284036999999888e+00 4.556419673199840759e-02
2.374887946999999944e+00 3.756707637663936339e-02
2.392491858000000082e+00 9.279701898083558831e-02
2.410095768000000138e+00 3.340622154713202008e-02
2.427699678000000194e+00 4.928663805488042726e-02
2.445303588999999889e+00 1.048686411332901969e-01
2.462907498999999945e+00 6.055387538456358243e-03
2.480511409000000000e+00 3.371113224732624758e-02
2.498115319000000056e+00 5.319565136320747456e-02
2.515719230000000195e+00 1.077338039687880666e-01
2.533323139999999807e+00 8.489155661446190493e-02
2.550927049999999863e+00 1.175721556928870370e-01
2.568530961000000001e+00 8.322750824755686949e-02
2.586134871000000057e+00 1.497935864104000814e-01
2.603738781000000113e+00 1.179465178733778430e-01
2.621342691000000169e+00 1.402781954854823709e-01
2.638946601999999864e+00 1.155453124413767796e-01
2.656550511999999920e+00 1.185936990222700160e-01
2.674154421999999975e+00 1.072990627438343836e-01
2.691758333000000114e+00 9.564961548400319202e-02
2.709362243000000170e+00 4.748842692484345207e-02
2.726966152999999782e+00 1.009681958311929861e-01
2.744570062999999838e+00 4.481191818203811295e-02
2.762173973999999976e+00 6.163671288802063941e-02
2.779777884000000032e+00 1.119183404372954271e-01
2.797381794000000088e+00 1.840176312684320692e-01
2.814985704999999783e+00 1.979337561635503562e-01
2.832589614999999839e+00 1.630397386902409096e-01
2.850193524999999894e+00 8.432773807909654806e-02
2.867797434999999950e+00 3.884799264399418917e-02
2.885401346000000089e+00 5.692779794825959527e-01
2.903005256000000145e+00 1.817213445257351623e+00
2.920609166000000201e+00 4.004172012027368055e+00
2.938213076999999895e+00 8.193085747323067380e+00
2.955816986999999951e+00 1.825960629815763525e+01
2.973420897000000007e+00 3.778258845443898650e+01
2.991024807000000063e+00 nan
3.008628718000000202e+00 nan
3.026232627999999814e+00 nan
3.043836537999999869e+00 nan
3.061440449000000008e+00 nan
3.079044359000000064e+00 nan
3.096648269000000120e+00 nan
3.114252179000000176e+00 nan
3.131856089999999870e+00 nan
3.149459999999999926e+00 nan
