6.877569999999999517e-02 nan
8.637960999999999556e-02 nan
1.039835209999999954e-01 nan
1.215874309999999958e-01 nan
1.391913409999999962e-01 nan
1.567952509999999966e-01 nan
1.743991619999999965e-01 nan
1.920030719999999969e-01 nan
2.096069819999999972e-01 nan
2.272108929999999971e-01 nan
2.448148029999999975e-01 1.871223379208095494e+01
2.624187130000000256e-01 -7.512550651631819676e-01
2.800226230000000260e-01 -6.660789004284172421e+00
2.976265339999999981e-01 -4.544908204272028129e+00
3.152304439999999985e-01 -7.732243298258689279e+00
3.328343539999999989e-01 -1.130858182213929908e+01
3.504382650000000265e-01 -9.561865335088937101e+00
3.680421750000000269e-01 -2.574091614003421569e+00
3.856460850000000273e-01 3.837938755092185517e+00
4.032499950000000277e-01 3.734212545428015062e+00
4.208539059999999998e-01 1.431197462265291875e+00
4.384578160000000002e-01 -9.601841115454590181e-01
4.560617260000000006e-01 -3.081665520666838631e+00
4.736656369999999727e-01 -4.781921303243027666e+00
4.912695469999999731e-01 -5.880192512168568086e+00
5.088734569999999735e-01 -6.279719709333388522e+00
5.264773670000000294e-01 -6.460832165768524149e+00
5.440812779999999460e-01 -6.473260646632081006e+00
5.616851880000000019e-01 -6.214857773086341908e+00
5.792890979999999468e-01 -5.555020525133048892e+00
5.968930089999999744e-01 -4.680331214016607788e+00
6.144969190000000303e-01 -3.827710848816970213e+00
6.321008289999999752e-01 -3.524825755691708196e+00
6.497047390000000311e-01 -3.699552893573624601e+00
6.673086499999999477e-01 -4.084768491900298670e+00
6.849125600000000036e-01 -4.471395827733694261e+00
7.025164699999999485e-01 -4.597822271318536380e+00
7.201203809999999761e-01 -4.327660252026049648e+00
7.377242910000000320e-01 -4.177220265778874619e+00
7.553282009999999769e-01 -3.989294020552222264e+00
7.729321110000000328e-01 -3.734976121219066414e+00
7.905360219999999494e-01 -3.520675436725689167e+00
8.081399320000000053e-01 -3.179858667976485975e+00
8.257438419999999502e-01 -2.838445853079985426e+00
8.433477529999999778e-01 -2.623151833189108828e+00
8.609516630000000337e-01 -2.445338923210947257e+00
8.785555729999999786e-01 -2.456501561748780205e+00
8.961594830000000345e-01 -2.432087812075330646e+00
9.137633939999999511e-01 -2.414458941389217017e+00
9.313673040000000070e-01 -2.346733658501378272e+00
9.489712139999999518e-01 -2.294776006178093297e+00
9.665751249999999795e-01 -2.207992409650568533e+00
9.841790350000000354e-01 -2.153421575521665687e+00
1.001782944999999980e+00 -2.022614449439139150e+00
1.019386855000000036e+00 -1.880407937654666739e+00
1.036990765999999953e+00 -1.836008838749730643e+00
1.054594676000000009e+00 -1.668507636308870445e+00
1.072198586000000065e+00 -1.616539605378481070e+00
1.089802496999999981e+00 -1.558264553696297128e+00
1.107406407000000037e+00 -1.432415995882589499e+00
1.125010317000000093e+00 -1.457964665549038585e+00
1.142614226999999927e+00 -1.442057073441599613e+00
1.160218138000000065e+00 -1.385913411629939418e+00
1.177822047999999899e+00 -1.341105037231336894e+00
1.195425957999999955e+00 -1.242766927484733941e+00
1.213029869000000094e+00 -1.235421603279753811e+00
1.230633778999999928e+00 -1.111986803667821988e+00
1.248237688999999984e+00 -1.057184182823462493e+00
1.265841599000000040e+00 -9.949181823710055994e-01
1.283445509999999956e+00 -1.032378754693162648e+00
1.301049420000000012e+00 -1.018859575493017644e+00
1.318653330000000068e+00 -1.005240252375980248e+00
1.336257240999999985e+00 -8.987637696524437558e-01
1.353861151000000040e+00 -9.188973014114303339e-01
1.371465061000000096e+00 -8.651004928468779553e-01
1.389068970999999930e+00 -8.446628335774235552e-01
1.406672882000000069e+00 -8.602290910823882086e-01
1.424276791999999903e+00 -8.534307328748091948e-01
1.441880701999999959e+00 -7.803180279847907741e-01
1.459484613000000097e+00 -7.539265881034751260e-01
1.477088522999999931e+00 -7.510283999069464755e-01
1.494692432999999987e+00 -7.055398300150308444e-01
1.512296343000000043e+00 -7.211243793197894547e-01
1.529900253999999959e+00 -6.807955149466948797e-01
1.547504164000000015e+00 -6.159476311063443177e-01
1.565108074000000071e+00 -5.632123927192971280e-01
1.582711984999999988e+00 -6.194060448503400096e-01
1.600315895000000044e+00 -6.001766665947343427e-01
1.617919805000000100e+00 -5.155636405391668120e-01
1.635523714999999934e+00 -4.971906365354072932e-01
1.653127626000000072e+00 -4.802192916835572589e-01
1.670731535999999906e+00 -4.462835229822879057e-01
1.688335445999999962e+00 -3.993118698818456380e-01
1.705939357000000101e+00 -4.150701332305253288e-01
1.723543266999999934e+00 -3.765111187389678093e-01
1.741147176999999990e+00 -4.293965865349171906e-01
1.758751087000000046e+00 -3.863123316383365591e-01
1.776354997999999963e+00 -3.324334657512899582e-01
1.793958908000000019e+00 -3.153772615937349144e-01
1.811562818000000075e+00 -2.589650475327722745e-01
1.829166728999999991e+00 -2.681154866664066105e-01
1.846770639000000047e+00 -2.198014462586463935e-01
1.864374549000000103e+00 -2.204265538303502581e-01
1.881978458999999937e+00 -1.443214876444010031e-01
1.899582370000000076e+00 -1.256111469848200102e-01
1.917186279999999909e+00 -3.580987598092022495e-02
1.934790189999999965e+00 -5.723244686219430832e-02
1.952394101000000104e+00 -2.794037676164151662e-02
1.969998010999999938e+00 -6.306597461141905114e-02
1.987601920999999994e+00 -3.450232152472665348e-02
2.005205831000000050e+00 -4.138210488183702296e-02
2.022809742000000188e+00 2.648284561815472671e-02
2.040413651999999800e+00 1.736805333733926204e-02
2.058017561999999856e+00 1.954845109304770290e-02
2.075621472999999995e+00 5.375127160139214766e-02
2.093225383000000051e+00 1.948922733085112213e-03
2.110829293000000106e+00 -5.817634841143615176e-03
2.128433203000000162e+00 5.404159319427392916e-02
2.146037113999999857e+00 -6.033783908243606220e-04
2.163641023999999913e+00 -2.816817526049320008e-02
2.181244933999999969e+00 -1.079542462471039244e-02
2.198848845000000107e+00 -3.424217987384636785e-02
2.216452755000000163e+00 -3.121413100660674900e-02
2.234056665000000219e+00 -1.116283862355160750e-02
2.251660574999999831e+00 -2.160656508220171190e-03
2.269264485999999970e+00 -4.753222242818111454e-02
2.286868396000000025e+00 -4.469482428670801255e-02
2.304472306000000081e+00 -9.019382634885886318e-03
2.322076217000000220e+00 9.381950404801386867e-03
2.339680126999999832e+00 -4.813474587596289211e-03
2.357284036999999888e+00 -1.976680687335274911e-02
2.374887946999999944e+00 -2.418665546186815618e-02
2.392491858000000082e+00 4.136470890589905025e-02
2.410095768000000138e+00 -6.570123159477248009e-03
2.427699678000000194e+00 1.754197440007487785e-02
2.445303588999999889e+00 5.823520816350225004e-02
2.462907498999999945e+00 -4.483942667880214117e-02
2.480511409000000000e+00 1.801875388266438449e-02
2.498115319000000056e+00 4.928570678787025372e-02
2.515719230000000195e+00 8.845250758778888667e-02
2.533323139999999807e+00 7.944509315620962298e-02
2.550927049999999863e+00 1.279407153943310504e-01
2.568530961000000001e+00 8.667570867801899226e-02
2.586134871000000057e+00 1.313085757982683788e-01
2.603738781000000113e+00 1.319513616400165290e-01
2.621342691000000169e+00 1.460341034363743518e-01
2.638946601999999864e+00 1.205962936924791506e-01
2.656550511999999920e+00 1.346179183963300829e-01
2.674154421999999975e+00 1.494740689629345809e-01
2.691758333000000114e+00 1.271898117233689618e-01
2.709362243000000170e+00 1.114963617099569149e-01
2.726966152999999782e+00 1.654699258139160634e-01
2.744570062999999838e+00 1.096687772958269136e-01
2.762173973999999976e+00 1.363181877297741096e-01
2.779777884000000032e+00 1.798491684835070714e-01
2.797381794000000088e+00 2.305548254283067422e-01
2.814985704999999783e+00 2.872295212285820298e-01
2.832589614999999839e+00 2.559578616305238086e-01
2.850193524999999894e+00 1.979888325050005449e-01
2.867797434999999950e+00 1.590107111038747689e-01
2.885401346000000089e+00 7.538207876227041027e-01
2.903005256000000145e+00 1.981373101043036655e+00
2.920609166000000201e+00 4.187940302713965224e+00
2.938213076999999895e+00 8.414981743276204185e+00
2.955816986999999951e+00 1.853330680463173152e+01
2.973420897000000007e+00 3.807052462261813730e+01
2.991024807000000063e+00 nan
3.008628718000000202e+00 nan
3.026232627999999814e+00 nan
3.043836537999999869e+00 nan
3.061440449000000008e+00 nan
3.079044359000000064e+00 nan
3.096648269000000120e+00 nan
3.114252179000000176e+00 nan
3.131856089999999870e+00 nan
3.149459999999999926e+00 nan
