6.786459999999999715e-02 nan
8.547377400000000236e-02 nan
1.030829469999999942e-01 nan
1.206921209999999994e-01 nan
1.383012949999999908e-01 nan
1.559104689999999960e-01 nan
1.735196420000000017e-01 nan
1.911288160000000069e-01 nan
2.087379900000000121e-01 nan
2.263471629999999901e-01 nan
2.439563369999999953e-01 2.193476096641806095e+01
2.615655109999999728e-01 -7.633990642449838049e+00
2.791746849999999780e-01 -1.849722779782503324e+01
2.967838580000000115e-01 -1.458501525099790186e+01
3.143930320000000167e-01 -1.408635910182805695e+01
3.320022060000000219e-01 -1.937426943704320692e+01
3.496113789999999999e-01 -1.859739928555602617e+01
3.672205530000000051e-01 -1.041584371037018641e+01
3.848297270000000103e-01 6.154987700679406259e-01
4.024389010000000155e-01 3.743892303294785506e+00
4.200480739999999935e-01 9.963426723440740318e-01
4.376572479999999987e-01 -2.272509529046033094e+00
4.552664220000000039e-01 -5.572599513031860852e+00
4.728755949999999819e-01 -7.788260227889129084e+00
4.904847689999999871e-01 -9.075094481371404953e+00
5.080939429999999923e-01 -9.431640339267122641e+00
5.257031170000000531e-01 -9.097140922405436925e+00
5.433122900000000310e-01 -8.569017066613298539e+00
5.609214639999999807e-01 -8.155496468773854701e+00
5.785306380000000415e-01 -7.484346933633926113e+00
5.961398110000000194e-01 -6.343493903151173896e+00
6.137489849999999691e-01 -5.147434201309547319e+00
6.313581590000000299e-01 -4.468105606744401825e+00
6.489673329999999796e-01 -4.577276151594702469e+00
6.665765059999999576e-01 -4.921010487326416438e+00
6.841856800000000183e-01 -5.426639055754161944e+00
7.017948539999999680e-01 -5.712618852785276147e+00
7.194040269999999460e-01 -5.479352161494325912e+00
7.370132010000000067e-01 -5.343309193511721844e+00
7.546223749999999564e-01 -5.128539386198955441e+00
7.722315490000000171e-01 -4.778977718840817346e+00
7.898407219999999951e-01 -4.378155019836647455e+00
8.074498959999999448e-01 -3.966236773865023935e+00
8.250590700000000055e-01 -3.498390315475308654e+00
8.426682429999999835e-01 -3.140553906641518012e+00
8.602774170000000442e-01 -2.912085486527942635e+00
8.778865909999999939e-01 -2.851352624111488154e+00
8.954957650000000546e-01 -2.830626018789782705e+00
9.131049380000000326e-01 -2.833646966382485033e+00
9.307141119999999823e-01 -2.797855325848765062e+00
9.483232860000000430e-01 -2.746727294589391022e+00
9.659324590000000210e-01 -2.665478267689572078e+00
9.835416329999999707e-01 -2.503046200152613920e+00
1.001150806999999920e+00 -2.354045684950822448e+00
1.018759981000000092e+00 -2.247657461177311689e+00
1.036369153999999959e+00 -2.085492179107006905e+00
1.053978327999999909e+00 -1.944830401876540549e+00
1.071587502000000081e+00 -1.836118743023448019e+00
1.089196674999999948e+00 -1.816948621991691937e+00
1.106805848999999897e+00 -1.703820622996605749e+00
1.124415023000000069e+00 -1.684229979634586982e+00
1.142024197000000019e+00 -1.570864872830544101e+00
1.159633370000000108e+00 -1.529781226575192221e+00
1.177242544000000057e+00 -1.542296545947671405e+00
1.194851718000000007e+00 -1.432026590311984648e+00
1.212460891000000096e+00 -1.372227553314928628e+00
1.230070065000000046e+00 -1.314440518745598752e+00
1.247679238999999995e+00 -1.193314897506937200e+00
1.265288412999999945e+00 -1.203444739354178949e+00
1.282897586000000034e+00 -1.060754662092037393e+00
1.300506759999999984e+00 -1.061536534862721481e+00
1.318115933999999934e+00 -1.005377711088598858e+00
1.335725107000000023e+00 -9.376106853649517348e-01
1.353334280999999972e+00 -8.944269968656044512e-01
1.370943454999999922e+00 -9.368497788601821696e-01
1.388552629000000094e+00 -9.420821298102843855e-01
1.406161801999999961e+00 -8.679488467272982177e-01
1.423770975999999910e+00 -9.063637192409572663e-01
1.441380150000000082e+00 -8.928548040477402026e-01
1.458989322999999949e+00 -8.206867194022535728e-01
1.476598496999999899e+00 -7.702696031449605130e-01
1.494207671000000071e+00 -8.355918331357585771e-01
1.511816845000000020e+00 -7.192720081372456775e-01
1.529426018000000109e+00 -7.908876959713033727e-01
1.547035192000000059e+00 -6.928556545438091518e-01
1.564644366000000009e+00 -6.866154973347242674e-01
1.582253539000000098e+00 -6.176779463564834316e-01
1.599862713000000047e+00 -6.128576475869849105e-01
1.617471886999999997e+00 -5.524743242388510112e-01
1.635081060999999947e+00 -5.382793903543827696e-01
1.652690234000000036e+00 -5.049983190439917280e-01
1.670299407999999985e+00 -4.110887374661622573e-01
1.687908581999999935e+00 -4.001914168849651787e-01
1.705517755000000024e+00 -3.714711291681567218e-01
1.723126928999999974e+00 -3.665888685201927899e-01
1.740736102999999924e+00 -3.282698296930028903e-01
1.758345277000000095e+00 -3.216836322739702325e-01
1.775954449999999962e+00 -2.766252605729313530e-01
1.793563623999999912e+00 -2.527921956897216660e-01
1.811172798000000084e+00 -3.071557887601876757e-01
1.828781970999999951e+00 -2.621616746143118348e-01
1.846391144999999900e+00 -2.342749088256148582e-01
1.864000319000000072e+00 -2.359849356399514875e-01
1.881609493000000022e+00 -1.454477203485318171e-01
1.899218666000000111e+00 -2.419375067232643062e-01
1.916827840000000061e+00 -2.093336488766333048e-01
1.934437014000000010e+00 -2.083652045544432951e-01
1.952046187000000099e+00 -2.085390891901006682e-01
1.969655361000000049e+00 -3.102524561890689370e-01
1.987264534999999999e+00 -1.942900872124759815e-01
2.004873708999999948e+00 -2.008115612470469102e-01
2.022482881999999815e+00 -2.035431614464933148e-01
2.040092056000000209e+00 -1.947013853688659424e-01
2.057701230000000159e+00 -1.807406307104137966e-01
2.075310403000000026e+00 -1.615095938877111337e-01
2.092919576999999975e+00 -8.063159431878119676e-02
2.110528750999999925e+00 -3.588736236115863676e-02
2.128137924999999875e+00 2.176122897174792570e-02
2.145747098000000186e+00 2.386767332711769996e-02
2.163356272000000136e+00 8.873689906703674524e-03
2.180965446000000085e+00 1.630318646109785163e-02
2.198574618999999952e+00 -3.177397275074156369e-03
2.216183792999999902e+00 -1.349712263537483636e-02
2.233792966999999852e+00 9.382500840695229272e-02
2.251402140999999801e+00 8.502350020740578884e-02
2.269011314000000112e+00 6.279810862840307095e-02
2.286620488000000062e+00 2.508918619399125305e-02
2.304229662000000012e+00 3.022945426985756967e-02
2.321838834999999879e+00 1.385370850401557163e-02
2.339448008999999828e+00 -2.006790972977512411e-02
2.357057182999999778e+00 1.055437220607444715e-01
2.374666357000000172e+00 9.331195410326742490e-02
2.392275530000000039e+00 5.476195657768911929e-02
2.409884703999999989e+00 8.804352276745674999e-02
2.427493877999999938e+00 1.090317550748594044e-01
2.445103050999999805e+00 9.515117535559625139e-02
2.462712225000000199e+00 4.199494904842282494e-02
2.480321399000000149e+00 8.980536139682726571e-02
2.497930573000000098e+00 3.529857771854594262e-02
2.515539745999999965e+00 2.715574815493937422e-02
2.533148919999999915e+00 -2.884982395762847318e-03
2.550758093999999865e+00 1.140226049207626602e-02
2.568367267000000176e+00 -2.284767507286389332e-02
2.585976441000000126e+00 -7.338356006506785434e-03
2.603585615000000075e+00 -2.558615844774791981e-02
2.621194789000000025e+00 -7.640215981659892464e-02
2.638803961999999892e+00 -9.608102029641685249e-03
2.656413135999999842e+00 -7.493509734430858771e-03
2.674022309999999791e+00 -4.431003053319670926e-03
2.691631483000000102e+00 5.776072034329260418e-02
2.709240657000000052e+00 5.879046537772936176e-02
2.726849831000000002e+00 3.575004114178881309e-02
2.744459004999999951e+00 1.648868492427624233e-03
2.762068177999999818e+00 -5.985125350654030285e-02
2.779677352000000212e+00 -9.795975131340384223e-02
2.797286526000000162e+00 -3.833195018517088215e-02
2.814895699000000029e+00 -1.506090115561775633e-02
2.832504872999999979e+00 -2.213273038118757086e-02
2.850114046999999928e+00 -2.321457536994095960e-01
2.867723220999999878e+00 -2.066199184160524283e-01
2.885332394000000189e+00 2.906641593596432926e-01
2.902941568000000139e+00 1.445837530519742842e+00
2.920550742000000088e+00 3.701951434105929195e+00
2.938159914999999955e+00 7.863193520878695608e+00
2.955769088999999905e+00 1.808113883911607900e+01
2.973378262999999855e+00 3.784901511958788944e+01
2.990987436999999804e+00 nan
3.008596610000000116e+00 nan
3.026205784000000065e+00 nan
3.043814958000000015e+00 nan
3.061424130999999882e+00 nan
3.079033304999999832e+00 nan
3.096642478999999781e+00 nan
3.114251653000000175e+00 nan
3.131860826000000042e+00 nan
3.149469999999999992e+00 nan
