6.786459999999999715e-02 nan
8.547377400000000236e-02 nan
1.030829469999999942e-01 nan
1.206921209999999994e-01 nan
1.383012949999999908e-01 nan
1.559104689999999960e-01 nan
1.735196420000000017e-01 nan
1.911288160000000069e-01 nan
2.087379900000000121e-01 nan
2.263471629999999901e-01 nan
2.439563369999999953e-01 2.321934577092799046e+01
2.615655109999999728e-01 -5.754118810049913435e+00
2.791746849999999780e-01 -1.613342846842327916e+01
2.967838580000000115e-01 -1.214592921330473807e+01
3.143930320000000167e-01 -1.294287762822195020e+01
3.320022060000000219e-01 -1.865705969282858234e+01
3.496113789999999999e-01 -1.824440600202686724e+01
3.672205530000000051e-01 -1.033113394082553249e+01
3.848297270000000103e-01 5.732326348302585473e-01
4.024389010000000155e-01 3.666148342337923083e+00
4.200480739999999935e-01 9.533879110634195797e-01
4.376572479999999987e-01 -2.307217352524816079e+00
4.552664220000000039e-01 -5.660232393020976360e+00
4.728755949999999819e-01 -7.905043303152762491e+00
4.904847689999999871e-01 -9.228240478893908971e+00
5.080939429999999923e-01 -9.630177735187487542e+00
5.257031170000000531e-01 -9.339440975892278729e+00
5.433122900000000310e-01 -8.831346571108607435e+00
5.609214639999999807e-01 -8.350596652146741405e+00
5.785306380000000415e-01 -7.680242208261045533e+00
5.961398110000000194e-01 -6.510741833823384894e+00
6.137489849999999691e-01 -5.402783245110587274e+00
6.313581590000000299e-01 -4.757835000082497601e+00
6.489673329999999796e-01 -4.845513760708584527e+00
6.665765059999999576e-01 -5.275694444220906831e+00
6.841856800000000183e-01 -5.814262153446694725e+00
7.017948539999999680e-01 -6.076610558608230406e+00
7.194040269999999460e-01 -5.888859966356843501e+00
7.370132010000000067e-01 -5.777032725247412515e+00
7.546223749999999564e-01 -5.556809270670882484e+00
7.722315490000000171e-01 -5.145151381233500132e+00
7.898407219999999951e-01 -4.742138020355938011e+00
8.074498959999999448e-01 -4.331747955354245505e+00
8.250590700000000055e-01 -3.855103115708807593e+00
8.426682429999999835e-01 -3.461877273780004316e+00
8.602774170000000442e-01 -3.230124192989499932e+00
8.778865909999999939e-01 -3.131865832599984856e+00
8.954957650000000546e-01 -3.140823551029804150e+00
9.131049380000000326e-01 -3.058344919185305599e+00
9.307141119999999823e-01 -3.013987428321911466e+00
9.483232860000000430e-01 -2.945580287357323357e+00
9.659324590000000210e-01 -2.886910257978488659e+00
9.835416329999999707e-01 -2.775358852465487303e+00
1.001150806999999920e+00 -2.594441560720362361e+00
1.018759981000000092e+00 -2.493766529419414013e+00
1.036369153999999959e+00 -2.308673018584627812e+00
1.053978327999999909e+00 -2.152494589579596607e+00
1.071587502000000081e+00 -2.021977109326297040e+00
1.089196674999999948e+00 -1.970136818375792132e+00
1.106805848999999897e+00 -1.837629775894818351e+00
1.124415023000000069e+00 -1.895615313112067213e+00
1.142024197000000019e+00 -1.669750916219872039e+00
1.159633370000000108e+00 -1.672193034044877180e+00
1.177242544000000057e+00 -1.668394135458822092e+00
1.194851718000000007e+00 -1.514598062786195243e+00
1.212460891000000096e+00 -1.428100429048758002e+00
1.230070065000000046e+00 -1.432044752842024593e+00
1.247679238999999995e+00 -1.241566474211996507e+00
1.265288412999999945e+00 -1.274007803532825278e+00
1.282897586000000034e+00 -1.093409163405375750e+00
1.300506759999999984e+00 -1.115250812457993845e+00
1.318115933999999934e+00 -1.160131438952074490e+00
1.335725107000000023e+00 -1.053953418956279364e+00
1.353334280999999972e+00 -1.022185117291321887e+00
1.370943454999999922e+00 -1.001890500459499123e+00
1.388552629000000094e+00 -1.093886003117848560e+00
1.406161801999999961e+00 -8.912385077245836840e-01
1.423770975999999910e+00 -9.934531753989652714e-01
1.441380150000000082e+00 -8.997022531150697944e-01
1.458989322999999949e+00 -8.766672929655889845e-01
1.476598496999999899e+00 -7.703886618480169091e-01
1.494207671000000071e+00 -7.994585736240829021e-01
1.511816845000000020e+00 -7.842812923364022026e-01
1.529426018000000109e+00 -7.780012251775971777e-01
1.547035192000000059e+00 -6.733274463189147241e-01
1.564644366000000009e+00 -7.979438630291717516e-01
1.582253539000000098e+00 -6.271937967378278245e-01
1.599862713000000047e+00 -6.146453578989330424e-01
1.617471886999999997e+00 -6.632190718223682779e-01
1.635081060999999947e+00 -5.754408074925656535e-01
1.652690234000000036e+00 -5.403369967626439063e-01
1.670299407999999985e+00 -4.962804591468312765e-01
1.687908581999999935e+00 -4.089757104444835534e-01
1.705517755000000024e+00 -3.123407742119468367e-01
1.723126928999999974e+00 -3.687579405777725583e-01
1.740736102999999924e+00 -3.251557864569605272e-01
1.758345277000000095e+00 -3.344918865176254030e-01
1.775954449999999962e+00 -2.949925365851413517e-01
1.793563623999999912e+00 -3.211324150955121581e-01
1.811172798000000084e+00 -3.455838522668592816e-01
1.828781970999999951e+00 -2.689014170481875965e-01
1.846391144999999900e+00 -2.419291511937906591e-01
1.864000319000000072e+00 -2.282860364528751518e-01
1.881609493000000022e+00 -1.659464788898787901e-01
1.899218666000000111e+00 -2.046866297784077915e-01
1.916827840000000061e+00 -1.874692320003745749e-01
1.934437014000000010e+00 -1.788639786875130255e-01
1.952046187000000099e+00 -1.651118663359945060e-01
1.969655361000000049e+00 -3.075707799190752212e-01
1.987264534999999999e+00 -2.113695598295599609e-01
2.004873708999999948e+00 -1.749609349534431146e-01
2.022482881999999815e+00 -1.140083185760438766e-01
2.040092056000000209e+00 -2.079248014234096331e-01
2.057701230000000159e+00 -1.494377234498500684e-01
2.075310403000000026e+00 -1.971453835351653083e-01
2.092919576999999975e+00 -1.355070844240486849e-01
2.110528750999999925e+00 -1.491650069615921836e-01
2.128137924999999875e+00 -1.578911311472026568e-01
2.145747098000000186e+00 -1.087571237873348196e-01
2.163356272000000136e+00 -1.162030759977170646e-01
2.180965446000000085e+00 -1.639177144917951523e-01
2.198574618999999952e+00 -1.292163296428121555e-01
2.216183792999999902e+00 -6.052343979384033901e-02
2.233792966999999852e+00 -1.287871472445090149e-02
2.251402140999999801e+00 1.268104406725640843e-01
2.269011314000000112e+00 3.223811262505194009e-02
2.286620488000000062e+00 3.595703822793083759e-02
2.304229662000000012e+00 1.056747813649394629e-01
2.321838834999999879e+00 1.816098515362192245e-01
2.339448008999999828e+00 -4.157408968017861639e-02
2.357057182999999778e+00 2.847642015168005969e-01
2.374666357000000172e+00 1.852264500166924677e-01
2.392275530000000039e+00 1.065702661848533239e-01
2.409884703999999989e+00 1.398103520797455701e-01
2.427493877999999938e+00 1.281646668632028252e-01
2.445103050999999805e+00 1.366731121151936179e-01
2.462712225000000199e+00 1.270420541654075919e-01
2.480321399000000149e+00 1.880835046123614518e-01
2.497930573000000098e+00 1.404860406078718427e-01
2.515539745999999965e+00 1.859602506282840295e-01
2.533148919999999915e+00 2.065529366889684582e-01
2.550758093999999865e+00 2.134418382970864059e-01
2.568367267000000176e+00 1.387633032121442511e-01
2.585976441000000126e+00 2.425837595805724334e-01
2.603585615000000075e+00 1.315796070559720476e-01
2.621194789000000025e+00 6.753050792320891560e-02
2.638803961999999892e+00 1.297416639268327287e-01
2.656413135999999842e+00 1.211314498723901067e-01
2.674022309999999791e+00 1.668828113723428430e-01
2.691631483000000102e+00 2.440803857269884247e-01
2.709240657000000052e+00 1.895403242571305213e-01
2.726849831000000002e+00 2.602192168214898516e-01
2.744459004999999951e+00 1.689440706771527800e-01
2.762068177999999818e+00 1.174895840484140308e-01
2.779677352000000212e+00 1.791300047868915613e-01
2.797286526000000162e+00 2.271528323692884044e-01
2.814895699000000029e+00 1.988915183635953099e-01
2.832504872999999979e+00 1.504931333240264735e-01
2.850114046999999928e+00 -3.029204577107691421e-02
2.867723220999999878e+00 -1.856699835279584931e-03
2.885332394000000189e+00 6.102624269857059858e-01
2.902941568000000139e+00 1.791873566302431442e+00
2.920550742000000088e+00 4.169949535336279212e+00
2.938159914999999955e+00 8.224145448060436792e+00
2.955769088999999905e+00 1.812837744578385824e+01
2.973378262999999855e+00 3.706961206882547799e+01
2.990987436999999804e+00 nan
3.008596610000000116e+00 nan
3.026205784000000065e+00 nan
3.043814958000000015e+00 nan
3.061424130999999882e+00 nan
3.079033304999999832e+00 nan
3.096642478999999781e+00 nan
3.114251653000000175e+00 nan
3.131860826000000042e+00 nan
3.149469999999999992e+00 nan
