6.786459999999999715e-02 nan
8.547377400000000236e-02 nan
1.030829469999999942e-01 nan
1.206921209999999994e-01 nan
1.383012949999999908e-01 nan
1.559104689999999960e-01 nan
1.735196420000000017e-01 nan
1.911288160000000069e-01 nan
2.087379900000000121e-01 nan
2.263471629999999901e-01 nan
2.439563369999999953e-01 2.222379988132067297e+01
2.615655109999999728e-01 -6.663919088545899427e+00
2.791746849999999780e-01 -1.697049539461502121e+01
2.967838580000000115e-01 -1.296407041428143536e+01
3.143930320000000167e-01 -1.362749826052405666e+01
3.320022060000000219e-01 -1.925751308217170177e+01
3.496113789999999999e-01 -1.882714334794814803e+01
3.672205530000000051e-01 -1.087353063192809977e+01
3.848297270000000103e-01 5.285233286912927042e-02
4.024389010000000155e-01 3.156503205268801793e+00
4.200480739999999935e-01 4.643575653971758754e-01
4.376572479999999987e-01 -2.770169489426294263e+00
4.552664220000000039e-01 -6.076772130253473847e+00
4.728755949999999819e-01 -8.283225093047448695e+00
4.904847689999999871e-01 -9.600266084722457904e+00
5.080939429999999923e-01 -9.978914858184189995e+00
5.257031170000000531e-01 -9.677592658141161763e+00
5.433122900000000310e-01 -9.166993533418590800e+00
5.609214639999999807e-01 -8.676596880330624373e+00
5.785306380000000415e-01 -7.980693332167078324e+00
5.961398110000000194e-01 -6.820420155393087214e+00
6.137489849999999691e-01 -5.722712491354311481e+00
6.313581590000000299e-01 -5.066625626988081166e+00
6.489673329999999796e-01 -5.117839437118760770e+00
6.665765059999999576e-01 -5.497547979077666014e+00
6.841856800000000183e-01 -6.049317246525600211e+00
7.017948539999999680e-01 -6.290670146864041357e+00
7.194040269999999460e-01 -6.036923223326571275e+00
7.370132010000000067e-01 -5.875277290731268920e+00
7.546223749999999564e-01 -5.655252161791416654e+00
7.722315490000000171e-01 -5.189668712005499174e+00
7.898407219999999951e-01 -4.776820535237796150e+00
8.074498959999999448e-01 -4.364859045222384992e+00
8.250590700000000055e-01 -3.829212645563021766e+00
8.426682429999999835e-01 -3.457867032949231145e+00
8.602774170000000442e-01 -3.222852088589192476e+00
8.778865909999999939e-01 -3.162925505523364933e+00
8.954957650000000546e-01 -3.157959618190883333e+00
9.131049380000000326e-01 -3.034767060891997659e+00
9.307141119999999823e-01 -3.035436734824862981e+00
9.483232860000000430e-01 -2.975452155744992666e+00
9.659324590000000210e-01 -2.910183525143164474e+00
9.835416329999999707e-01 -2.768348914695035745e+00
1.001150806999999920e+00 -2.596760475888132191e+00
1.018759981000000092e+00 -2.484682929646684357e+00
1.036369153999999959e+00 -2.283587432828916519e+00
1.053978327999999909e+00 -2.134868328569147877e+00
1.071587502000000081e+00 -2.044306428814969934e+00
1.089196674999999948e+00 -2.000210048217947900e+00
1.106805848999999897e+00 -1.873034084321574255e+00
1.124415023000000069e+00 -1.967797709392780092e+00
1.142024197000000019e+00 -1.708731984971176843e+00
1.159633370000000108e+00 -1.649807775440088164e+00
1.177242544000000057e+00 -1.617219884533408703e+00
1.194851718000000007e+00 -1.435343393800501133e+00
1.212460891000000096e+00 -1.351357635470318286e+00
1.230070065000000046e+00 -1.350606209716474382e+00
1.247679238999999995e+00 -1.128792822188067646e+00
1.265288412999999945e+00 -1.159282382888633833e+00
1.282897586000000034e+00 -9.334765439358463368e-01
1.300506759999999984e+00 -1.008605510489690715e+00
1.318115933999999934e+00 -1.046238217416455285e+00
1.335725107000000023e+00 -9.343063438347058991e-01
1.353334280999999972e+00 -9.008968756699538005e-01
1.370943454999999922e+00 -8.688097051495056178e-01
1.388552629000000094e+00 -9.570942094048682236e-01
1.406161801999999961e+00 -7.397144868897029824e-01
1.423770975999999910e+00 -7.889790514891323880e-01
1.441380150000000082e+00 -7.121964831334395285e-01
1.458989322999999949e+00 -6.174464804303489984e-01
1.476598496999999899e+00 -5.273726612794860102e-01
1.494207671000000071e+00 -5.420523428433448032e-01
1.511816845000000020e+00 -5.454749913605070333e-01
1.529426018000000109e+00 -5.413407520043911347e-01
1.547035192000000059e+00 -4.141281253867639123e-01
1.564644366000000009e+00 -5.712314098171660248e-01
1.582253539000000098e+00 -4.542764793478006879e-01
1.599862713000000047e+00 -4.062709429466337951e-01
1.617471886999999997e+00 -5.116811807811707524e-01
1.635081060999999947e+00 -4.481439480299655997e-01
1.652690234000000036e+00 -4.044507234185736877e-01
1.670299407999999985e+00 -4.179070462740597236e-01
1.687908581999999935e+00 -3.322761022990832203e-01
1.705517755000000024e+00 -2.810886083341550545e-01
1.723126928999999974e+00 -3.130552081887252314e-01
1.740736102999999924e+00 -3.106501475096621334e-01
1.758345277000000095e+00 -3.962520897158938737e-01
1.775954449999999962e+00 -3.128260366699215922e-01
1.793563623999999912e+00 -3.615723993318198382e-01
1.811172798000000084e+00 -3.386899685845143892e-01
1.828781970999999951e+00 -2.736097773165830915e-01
1.846391144999999900e+00 -2.352254876696768804e-01
1.864000319000000072e+00 -2.236442665216422654e-01
1.881609493000000022e+00 -1.203137548358306219e-01
1.899218666000000111e+00 -1.638739592012754542e-01
1.916827840000000061e+00 -1.386960117158650974e-01
1.934437014000000010e+00 -9.301296207883424927e-02
1.952046187000000099e+00 -1.277416396149924083e-01
1.969655361000000049e+00 -3.002130533256242018e-01
1.987264534999999999e+00 -1.764013952886962500e-01
2.004873708999999948e+00 -1.560213767861888812e-01
2.022482881999999815e+00 -1.034515408459633079e-01
2.040092056000000209e+00 -2.180530278549674961e-01
2.057701230000000159e+00 -1.729978854991713888e-01
2.075310403000000026e+00 -1.582198567402812728e-01
2.092919576999999975e+00 -9.422919502997473273e-02
2.110528750999999925e+00 -1.113885298043086891e-01
2.128137924999999875e+00 -1.127631465192706628e-01
2.145747098000000186e+00 -1.212694680159742688e-01
2.163356272000000136e+00 -1.219975102117487609e-01
2.180965446000000085e+00 -1.893792710603001694e-01
2.198574618999999952e+00 -8.082462923291089396e-02
2.216183792999999902e+00 -6.876806328682505409e-02
2.233792966999999852e+00 3.739732865514611149e-02
2.251402140999999801e+00 1.826263824707581307e-01
2.269011314000000112e+00 6.174216598842008352e-02
2.286620488000000062e+00 2.488499538413080359e-02
2.304229662000000012e+00 7.091001847979683248e-02
2.321838834999999879e+00 1.351013558023659300e-01
2.339448008999999828e+00 -1.162078269210020665e-01
2.357057182999999778e+00 1.943039412600668925e-01
2.374666357000000172e+00 1.375138056307179113e-01
2.392275530000000039e+00 8.377456496987534251e-02
2.409884703999999989e+00 1.376846776481563950e-01
2.427493877999999938e+00 1.170182542477711252e-01
2.445103050999999805e+00 1.346550195175808540e-01
2.462712225000000199e+00 1.491808477538683064e-01
2.480321399000000149e+00 2.267963881314116747e-01
2.497930573000000098e+00 1.319815818687111175e-01
2.515539745999999965e+00 1.181692656671415875e-01
2.533148919999999915e+00 1.961732135236644581e-01
2.550758093999999865e+00 1.418954078665919383e-01
2.568367267000000176e+00 1.004961262921177934e-01
2.585976441000000126e+00 1.736808790782582435e-01
2.603585615000000075e+00 1.244432631670377987e-01
2.621194789000000025e+00 7.120127463423031600e-02
2.638803961999999892e+00 1.783792573261706593e-01
2.656413135999999842e+00 9.828762533260970713e-02
2.674022309999999791e+00 1.876255886317395039e-01
2.691631483000000102e+00 2.395846204843472549e-01
2.709240657000000052e+00 1.930706351583104663e-01
2.726849831000000002e+00 2.637095118594672272e-01
2.744459004999999951e+00 1.898855660113305532e-01
2.762068177999999818e+00 2.296235779138697808e-01
2.779677352000000212e+00 2.526607611159370492e-01
2.797286526000000162e+00 3.327569210630088037e-01
2.814895699000000029e+00 3.251786371457363600e-01
2.832504872999999979e+00 1.906429594071603617e-01
2.850114046999999928e+00 5.663048137897064294e-02
2.867723220999999878e+00 1.224027515713430603e-01
2.885332394000000189e+00 7.540577152507026426e-01
2.902941568000000139e+00 1.922576876730541784e+00
2.920550742000000088e+00 4.309022237304098724e+00
2.938159914999999955e+00 8.290140293902332758e+00
2.955769088999999905e+00 1.809752702196979612e+01
2.973378262999999855e+00 3.687326976988035909e+01
2.990987436999999804e+00 nan
3.008596610000000116e+00 nan
3.026205784000000065e+00 nan
3.043814958000000015e+00 nan
3.061424130999999882e+00 nan
3.079033304999999832e+00 nan
3.096642478999999781e+00 nan
3.114251653000000175e+00 nan
3.131860826000000042e+00 nan
3.149469999999999992e+00 nan
