6.786459999999999715e-02 nan
8.547377400000000236e-02 nan
1.030829469999999942e-01 nan
1.206921209999999994e-01 nan
1.383012949999999908e-01 nan
1.559104689999999960e-01 nan
1.735196420000000017e-01 nan
1.911288160000000069e-01 nan
2.087379900000000121e-01 nan
2.263471629999999901e-01 nan
2.439563369999999953e-01 2.210166081509514768e+01
2.615655109999999728e-01 -7.319783729415050288e+00
2.791746849999999780e-01 -1.809874379633825825e+01
2.967838580000000115e-01 -1.420542370224577766e+01
3.143930320000000167e-01 -1.392363937954289277e+01
3.320022060000000219e-01 -1.932173935456767921e+01
3.496113789999999999e-01 -1.861910061026699026e+01
3.672205530000000051e-01 -1.051720797578699695e+01
3.848297270000000103e-01 4.715201666126738189e-01
4.024389010000000155e-01 3.633409692719411055e+00
4.200480739999999935e-01 9.026584559244028583e-01
4.376572479999999987e-01 -2.345743598023418031e+00
4.552664220000000039e-01 -5.653762050788671445e+00
4.728755949999999819e-01 -7.848349079235081405e+00
4.904847689999999871e-01 -9.145386528989771335e+00
5.080939429999999923e-01 -9.494461755068890341e+00
5.257031170000000531e-01 -9.160871238045853460e+00
5.433122900000000310e-01 -8.639523856019280856e+00
5.609214639999999807e-01 -8.211448986428845132e+00
5.785306380000000415e-01 -7.542539944399614171e+00
5.961398110000000194e-01 -6.408884909751371595e+00
6.137489849999999691e-01 -5.225528684046981454e+00
6.313581590000000299e-01 -4.570688153375126461e+00
6.489673329999999796e-01 -4.663891843517344427e+00
6.665765059999999576e-01 -5.040982155421687594e+00
6.841856800000000183e-01 -5.559940555712639565e+00
7.017948539999999680e-01 -5.877094169985277006e+00
7.194040269999999460e-01 -5.639990737212009719e+00
7.370132010000000067e-01 -5.516787614628491099e+00
7.546223749999999564e-01 -5.298543588387651937e+00
7.722315490000000171e-01 -4.924569074208328345e+00
7.898407219999999951e-01 -4.541206353163502740e+00
8.074498959999999448e-01 -4.132458569142070104e+00
8.250590700000000055e-01 -3.691581498840267983e+00
8.426682429999999835e-01 -3.305744393942543269e+00
8.602774170000000442e-01 -3.109184927584035307e+00
8.778865909999999939e-01 -3.056291756006594085e+00
8.954957650000000546e-01 -3.046058169548050643e+00
9.131049380000000326e-01 -3.046726081649005380e+00
9.307141119999999823e-01 -3.017206742072914949e+00
9.483232860000000430e-01 -2.973640780735770761e+00
9.659324590000000210e-01 -2.882803495926708592e+00
9.835416329999999707e-01 -2.735841274686549696e+00
1.001150806999999920e+00 -2.586362779394100642e+00
1.018759981000000092e+00 -2.463302447673033413e+00
1.036369153999999959e+00 -2.282035910295064696e+00
1.053978327999999909e+00 -2.137036596775136132e+00
1.071587502000000081e+00 -2.042062544288267389e+00
1.089196674999999948e+00 -2.009942846141441919e+00
1.106805848999999897e+00 -1.873495098488096033e+00
1.124415023000000069e+00 -1.871873488472505898e+00
1.142024197000000019e+00 -1.750381594820016318e+00
1.159633370000000108e+00 -1.726055990223013481e+00
1.177242544000000057e+00 -1.754203497522862421e+00
1.194851718000000007e+00 -1.654669838296548789e+00
1.212460891000000096e+00 -1.614414894923072552e+00
1.230070065000000046e+00 -1.568940641825388838e+00
1.247679238999999995e+00 -1.464436680553983905e+00
1.265288412999999945e+00 -1.476850298148285390e+00
1.282897586000000034e+00 -1.339595524461124398e+00
1.300506759999999984e+00 -1.312623746873139652e+00
1.318115933999999934e+00 -1.278455846420335718e+00
1.335725107000000023e+00 -1.216870030269905811e+00
1.353334280999999972e+00 -1.160102499003478727e+00
1.370943454999999922e+00 -1.212790764991712678e+00
1.388552629000000094e+00 -1.240679452178024889e+00
1.406161801999999961e+00 -1.125880561138547620e+00
1.423770975999999910e+00 -1.184332162358508356e+00
1.441380150000000082e+00 -1.154881353924142928e+00
1.458989322999999949e+00 -1.091470470388443914e+00
1.476598496999999899e+00 -1.010102031156385749e+00
1.494207671000000071e+00 -1.067346508183018017e+00
1.511816845000000020e+00 -9.301992196861625928e-01
1.529426018000000109e+00 -9.974541893117887525e-01
1.547035192000000059e+00 -9.108767102409629501e-01
1.564644366000000009e+00 -8.994366440144752062e-01
1.582253539000000098e+00 -8.374224499443130298e-01
1.599862713000000047e+00 -8.052730564937427005e-01
1.617471886999999997e+00 -7.694720747007366413e-01
1.635081060999999947e+00 -7.510035151967286993e-01
1.652690234000000036e+00 -7.197540465569289836e-01
1.670299407999999985e+00 -6.578090803565324052e-01
1.687908581999999935e+00 -6.587141220963133037e-01
1.705517755000000024e+00 -6.013161422209343243e-01
1.723126928999999974e+00 -6.254167107591328545e-01
1.740736102999999924e+00 -6.107570136433650987e-01
1.758345277000000095e+00 -5.741264970459702965e-01
1.775954449999999962e+00 -5.693274579455689377e-01
1.793563623999999912e+00 -5.521554391411811480e-01
1.811172798000000084e+00 -6.023428786072564378e-01
1.828781970999999951e+00 -5.306357424282417412e-01
1.846391144999999900e+00 -4.858971952551840445e-01
1.864000319000000072e+00 -4.648587202076868152e-01
1.881609493000000022e+00 -3.565443411604469759e-01
1.899218666000000111e+00 -4.164725935089208519e-01
1.916827840000000061e+00 -3.489018234335290458e-01
1.934437014000000010e+00 -3.239040209855090779e-01
1.952046187000000099e+00 -2.604110662996745873e-01
1.969655361000000049e+00 -3.643264297210819791e-01
1.987264534999999999e+00 -2.283438584326802356e-01
2.004873708999999948e+00 -2.196578526116752528e-01
2.022482881999999815e+00 -2.218124985540370631e-01
2.040092056000000209e+00 -2.152956636741016894e-01
2.057701230000000159e+00 -1.705181374299016284e-01
2.075310403000000026e+00 -1.748213136444718430e-01
2.092919576999999975e+00 -9.664482397631246613e-02
2.110528750999999925e+00 -5.217254534491999607e-02
2.128137924999999875e+00 7.586395810886159552e-03
2.145747098000000186e+00 1.659827010268344338e-03
2.163356272000000136e+00 -1.412300602528659965e-02
2.180965446000000085e+00 1.425182148900816514e-02
2.198574618999999952e+00 -3.262238189303801050e-02
2.216183792999999902e+00 6.170986241016862550e-03
2.233792966999999852e+00 1.112872971473990447e-01
2.251402140999999801e+00 1.006179828770861207e-01
2.269011314000000112e+00 6.676084371578028254e-02
2.286620488000000062e+00 3.681600762687864403e-02
2.304229662000000012e+00 4.499899067922186191e-02
2.321838834999999879e+00 4.216277992899364335e-02
2.339448008999999828e+00 -4.641475120291715939e-02
2.357057182999999778e+00 1.043557881321213188e-01
2.374666357000000172e+00 9.486194313691598268e-02
2.392275530000000039e+00 6.670763008623836754e-02
2.409884703999999989e+00 1.068546903990430508e-01
2.427493877999999938e+00 1.147867113615816947e-01
2.445103050999999805e+00 7.926247948331166526e-02
2.462712225000000199e+00 7.060262348062096294e-02
2.480321399000000149e+00 9.804073989569062064e-02
2.497930573000000098e+00 7.629743585458115263e-02
2.515539745999999965e+00 7.742918954010491461e-02
2.533148919999999915e+00 4.072344386128179394e-02
2.550758093999999865e+00 4.982469363353203562e-02
2.568367267000000176e+00 -8.087216941383701396e-04
2.585976441000000126e+00 5.421431707028290248e-02
2.603585615000000075e+00 -4.339083394516052294e-03
2.621194789000000025e+00 -3.320634333473293509e-02
2.638803961999999892e+00 2.716327846360044873e-02
2.656413135999999842e+00 3.587646308369585313e-02
2.674022309999999791e+00 9.028818878066147136e-02
2.691631483000000102e+00 1.361950982178292691e-01
2.709240657000000052e+00 9.726241267265223200e-02
2.726849831000000002e+00 1.231248309970602861e-01
2.744459004999999951e+00 7.895995530356358927e-02
2.762068177999999818e+00 3.816886503342331594e-02
2.779677352000000212e+00 -1.389976566027328886e-02
2.797286526000000162e+00 5.541335040949846302e-02
2.814895699000000029e+00 5.069302235354200548e-02
2.832504872999999979e+00 -5.770490699951835722e-03
2.850114046999999928e+00 -1.925102349386307310e-01
2.867723220999999878e+00 -2.088844132516918251e-01
2.885332394000000189e+00 3.227860446457633259e-01
2.902941568000000139e+00 1.451496866726877499e+00
2.920550742000000088e+00 3.716719927518738587e+00
2.938159914999999955e+00 7.875334445401161787e+00
2.955769088999999905e+00 1.801959900950332738e+01
2.973378262999999855e+00 3.761871282791368287e+01
2.990987436999999804e+00 nan
3.008596610000000116e+00 nan
3.026205784000000065e+00 nan
3.043814958000000015e+00 nan
3.061424130999999882e+00 nan
3.079033304999999832e+00 nan
3.096642478999999781e+00 nan
3.114251653000000175e+00 nan
3.131860826000000042e+00 nan
3.149469999999999992e+00 nan
