6.786459999999999715e-02 nan
8.547377400000000236e-02 nan
1.030829469999999942e-01 nan
1.206921209999999994e-01 nan
1.383012949999999908e-01 nan
1.559104689999999960e-01 nan
1.735196420000000017e-01 nan
1.911288160000000069e-01 nan
2.087379900000000121e-01 nan
2.263471629999999901e-01 nan
2.439563369999999953e-01 2.213992767716269228e+01
2.615655109999999728e-01 -7.446077616591214365e+00
2.791746849999999780e-01 -1.850239953340888022e+01
2.967838580000000115e-01 -1.470459961872190391e+01
3.143930320000000167e-01 -1.414198323467387297e+01
3.320022060000000219e-01 -1.955198280991124449e+01
3.496113789999999999e-01 -1.885038581348131714e+01
3.672205530000000051e-01 -1.074191868286986207e+01
3.848297270000000103e-01 3.078440916376585790e-01
4.024389010000000155e-01 3.575710650884769137e+00
4.200480739999999935e-01 8.500460769074180689e-01
4.376572479999999987e-01 -2.427786680199652380e+00
4.552664220000000039e-01 -5.655744187573887416e+00
4.728755949999999819e-01 -7.888632066097866158e+00
4.904847689999999871e-01 -9.161673114151536623e+00
5.080939429999999923e-01 -9.542319784874411681e+00
5.257031170000000531e-01 -9.204764135014080750e+00
5.433122900000000310e-01 -8.714682975526482522e+00
5.609214639999999807e-01 -8.295707658071929558e+00
5.785306380000000415e-01 -7.627554030883459291e+00
5.961398110000000194e-01 -6.512463476205187618e+00
6.137489849999999691e-01 -5.305773285273996720e+00
6.313581590000000299e-01 -4.660185132620885184e+00
6.489673329999999796e-01 -4.745396611170562551e+00
6.665765059999999576e-01 -5.117808901795864784e+00
6.841856800000000183e-01 -5.626322143740587478e+00
7.017948539999999680e-01 -5.914086276318954560e+00
7.194040269999999460e-01 -5.686776291307186426e+00
7.370132010000000067e-01 -5.534004731100282015e+00
7.546223749999999564e-01 -5.331657316711478245e+00
7.722315490000000171e-01 -4.993442953245683213e+00
7.898407219999999951e-01 -4.582966489096197193e+00
8.074498959999999448e-01 -4.183994833230698873e+00
8.250590700000000055e-01 -3.719321579490380003e+00
8.426682429999999835e-01 -3.362928489086826289e+00
8.602774170000000442e-01 -3.172186738025615682e+00
8.778865909999999939e-01 -3.118845571607554490e+00
8.954957650000000546e-01 -3.084170660219122340e+00
9.131049380000000326e-01 -3.067408286643416915e+00
9.307141119999999823e-01 -3.060101631138646638e+00
9.483232860000000430e-01 -2.992974084029846438e+00
9.659324590000000210e-01 -2.881789388362218318e+00
9.835416329999999707e-01 -2.745480943621998904e+00
1.001150806999999920e+00 -2.617161025469268765e+00
1.018759981000000092e+00 -2.493202345345267190e+00
1.036369153999999959e+00 -2.330120210497078403e+00
1.053978327999999909e+00 -2.192145291512670013e+00
1.071587502000000081e+00 -2.124836446271938684e+00
1.089196674999999948e+00 -2.082644428944671944e+00
1.106805848999999897e+00 -1.994220633679390176e+00
1.124415023000000069e+00 -1.980596184984275254e+00
1.142024197000000019e+00 -1.888562882463556747e+00
1.159633370000000108e+00 -1.866107020428909635e+00
1.177242544000000057e+00 -1.874038567939194877e+00
1.194851718000000007e+00 -1.779931602903335630e+00
1.212460891000000096e+00 -1.732870171610155552e+00
1.230070065000000046e+00 -1.681287093128005949e+00
1.247679238999999995e+00 -1.568600959300589182e+00
1.265288412999999945e+00 -1.542664881035594959e+00
1.282897586000000034e+00 -1.442329819430721471e+00
1.300506759999999984e+00 -1.405935227970029899e+00
1.318115933999999934e+00 -1.330991957302149586e+00
1.335725107000000023e+00 -1.244130815485291919e+00
1.353334280999999972e+00 -1.181481535391863957e+00
1.370943454999999922e+00 -1.185327119801723228e+00
1.388552629000000094e+00 -1.198878436321056284e+00
1.406161801999999961e+00 -1.101275771498119838e+00
1.423770975999999910e+00 -1.126691532770671245e+00
1.441380150000000082e+00 -1.075754542583908346e+00
1.458989322999999949e+00 -1.018968242545636116e+00
1.476598496999999899e+00 -9.749072685154303031e-01
1.494207671000000071e+00 -1.007473226393681642e+00
1.511816845000000020e+00 -9.305287413918286177e-01
1.529426018000000109e+00 -9.746114747762923969e-01
1.547035192000000059e+00 -8.864169559247798702e-01
1.564644366000000009e+00 -8.475520432976395568e-01
1.582253539000000098e+00 -7.956889971775567005e-01
1.599862713000000047e+00 -7.858267468289561464e-01
1.617471886999999997e+00 -7.542434170169762808e-01
1.635081060999999947e+00 -7.307682848479011284e-01
1.652690234000000036e+00 -7.168472089766879662e-01
1.670299407999999985e+00 -6.342528863187695265e-01
1.687908581999999935e+00 -6.127441137183637920e-01
1.705517755000000024e+00 -6.051543253466675765e-01
1.723126928999999974e+00 -5.857060455039331259e-01
1.740736102999999924e+00 -5.632879808047910331e-01
1.758345277000000095e+00 -5.713165304298897240e-01
1.775954449999999962e+00 -4.787840883756615540e-01
1.793563623999999912e+00 -4.884445732010966879e-01
1.811172798000000084e+00 -5.006977438164881278e-01
1.828781970999999951e+00 -4.261298106089768112e-01
1.846391144999999900e+00 -3.695470302839716226e-01
1.864000319000000072e+00 -3.647356960097951628e-01
1.881609493000000022e+00 -2.688491738023088828e-01
1.899218666000000111e+00 -3.600167900119828346e-01
1.916827840000000061e+00 -3.187949848053968083e-01
1.934437014000000010e+00 -2.804492383575976078e-01
1.952046187000000099e+00 -2.979941564089294559e-01
1.969655361000000049e+00 -3.151500468228043417e-01
1.987264534999999999e+00 -2.597198123984689744e-01
2.004873708999999948e+00 -2.481803821562316159e-01
2.022482881999999815e+00 -2.172326075798700629e-01
2.040092056000000209e+00 -2.005949915974234443e-01
2.057701230000000159e+00 -1.987545272386839201e-01
2.075310403000000026e+00 -1.609192433329589278e-01
2.092919576999999975e+00 -9.125265026091611276e-02
2.110528750999999925e+00 -7.409059988414767872e-02
2.128137924999999875e+00 -1.870500900781379983e-02
2.145747098000000186e+00 -5.673225263151948639e-03
2.163356272000000136e+00 -1.503911169398719494e-02
2.180965446000000085e+00 -2.130298533971952679e-02
2.198574618999999952e+00 -5.213933977714901857e-02
2.216183792999999902e+00 -6.772478053694186428e-02
2.233792966999999852e+00 5.419742989742459827e-02
2.251402140999999801e+00 5.432533886441959226e-02
2.269011314000000112e+00 2.991754200136398367e-02
2.286620488000000062e+00 1.818476946024816243e-02
2.304229662000000012e+00 3.795411752600941213e-02
2.321838834999999879e+00 3.097929277960176364e-02
2.339448008999999828e+00 3.406919278183551114e-02
2.357057182999999778e+00 1.204895487930954801e-01
2.374666357000000172e+00 1.211120118369493071e-01
2.392275530000000039e+00 1.039768658971169657e-01
2.409884703999999989e+00 1.287207149478852841e-01
2.427493877999999938e+00 1.560250136749417038e-01
2.445103050999999805e+00 1.240432322254427788e-01
2.462712225000000199e+00 9.157342917034227980e-02
2.480321399000000149e+00 1.403090092561996016e-01
2.497930573000000098e+00 1.257319445560796112e-01
2.515539745999999965e+00 1.282318486169344851e-01
2.533148919999999915e+00 1.277402883997957872e-01
2.550758093999999865e+00 1.146765550723785054e-01
2.568367267000000176e+00 9.407267608394676017e-02
2.585976441000000126e+00 1.327759761462523613e-01
2.603585615000000075e+00 1.302010415926666553e-01
2.621194789000000025e+00 7.844302931445668037e-02
2.638803961999999892e+00 1.640272116948331416e-01
2.656413135999999842e+00 1.490672782502180382e-01
2.674022309999999791e+00 1.377988854323852763e-01
2.691631483000000102e+00 1.715862126539917654e-01
2.709240657000000052e+00 1.493791730313418498e-01
2.726849831000000002e+00 1.424785441635556538e-01
2.744459004999999951e+00 1.052759211972080777e-01
2.762068177999999818e+00 5.047917525523715199e-02
2.779677352000000212e+00 7.692502677253187926e-02
2.797286526000000162e+00 1.125525448695157138e-01
2.814895699000000029e+00 1.909645615670747532e-01
2.832504872999999979e+00 2.210183635144851166e-01
2.850114046999999928e+00 8.729048816128681665e-03
2.867723220999999878e+00 5.997530414750329442e-02
2.885332394000000189e+00 5.494287979363896568e-01
2.902941568000000139e+00 1.687038850102883458e+00
2.920550742000000088e+00 3.961920591097140232e+00
2.938159914999999955e+00 8.153915845175543353e+00
2.955769088999999905e+00 1.850072146023490305e+01
2.973378262999999855e+00 3.829483948179741049e+01
2.990987436999999804e+00 nan
3.008596610000000116e+00 nan
3.026205784000000065e+00 nan
3.043814958000000015e+00 nan
3.061424130999999882e+00 nan
3.079033304999999832e+00 nan
3.096642478999999781e+00 nan
3.114251653000000175e+00 nan
3.131860826000000042e+00 nan
3.149469999999999992e+00 nan
