6.786459999999999715e-02 nan
8.547377400000000236e-02 nan
1.030829469999999942e-01 nan
1.206921209999999994e-01 nan
1.383012949999999908e-01 nan
1.559104689999999960e-01 nan
1.735196420000000017e-01 nan
1.911288160000000069e-01 nan
2.087379900000000121e-01 nan
2.263471629999999901e-01 nan
2.439563369999999953e-01 2.149695211196195643e+01
2.615655109999999728e-01 -7.997751204095671085e+00
2.791746849999999780e-01 -1.894153898773036104e+01
2.967838580000000115e-01 -1.506158289976047726e+01
3.143930320000000167e-01 -1.452515225463654858e+01
3.320022060000000219e-01 -1.979884185181514766e+01
3.496113789999999999e-01 -1.901708224395450131e+01
3.672205530000000051e-01 -1.081855155817151015e+01
3.848297270000000103e-01 2.514741398225766034e-01
4.024389010000000155e-01 3.486480595939571714e+00
4.200480739999999935e-01 7.625245932701290030e-01
4.376572479999999987e-01 -2.483044324385971890e+00
4.552664220000000039e-01 -5.720047447720492784e+00
4.728755949999999819e-01 -7.925859148032067480e+00
4.904847689999999871e-01 -9.196953620733921753e+00
5.080939429999999923e-01 -9.564056211303110899e+00
5.257031170000000531e-01 -9.231818656730876427e+00
5.433122900000000310e-01 -8.709295162669096868e+00
5.609214639999999807e-01 -8.293553144657415999e+00
5.785306380000000415e-01 -7.625550452583784278e+00
5.961398110000000194e-01 -6.483659263565929365e+00
6.137489849999999691e-01 -5.277118280639296444e+00
6.313581590000000299e-01 -4.611837018078578154e+00
6.489673329999999796e-01 -4.683368832080418542e+00
6.665765059999999576e-01 -5.031083041474325057e+00
6.841856800000000183e-01 -5.523387183016563284e+00
7.017948539999999680e-01 -5.798215134742022769e+00
7.194040269999999460e-01 -5.556944571531939658e+00
7.370132010000000067e-01 -5.407574537063343456e+00
7.546223749999999564e-01 -5.190617452465481563e+00
7.722315490000000171e-01 -4.850876097942080634e+00
7.898407219999999951e-01 -4.450083049721005324e+00
8.074498959999999448e-01 -4.044838670683507331e+00
8.250590700000000055e-01 -3.573199490108248000e+00
8.426682429999999835e-01 -3.209844557107409457e+00
8.602774170000000442e-01 -2.998221115939532666e+00
8.778865909999999939e-01 -2.939410609256825069e+00
8.954957650000000546e-01 -2.929714888128557959e+00
9.131049380000000326e-01 -2.938023379818041292e+00
9.307141119999999823e-01 -2.920497657391901924e+00
9.483232860000000430e-01 -2.869159780033093909e+00
9.659324590000000210e-01 -2.782554172803109793e+00
9.835416329999999707e-01 -2.644422169635866737e+00
1.001150806999999920e+00 -2.488174601052129731e+00
1.018759981000000092e+00 -2.385152888694520357e+00
1.036369153999999959e+00 -2.209118911145921516e+00
1.053978327999999909e+00 -2.080060724958286755e+00
1.071587502000000081e+00 -1.984706801541566534e+00
1.089196674999999948e+00 -1.959747708784334463e+00
1.106805848999999897e+00 -1.851590424910810384e+00
1.124415023000000069e+00 -1.845680138265567649e+00
1.142024197000000019e+00 -1.723640261450018585e+00
1.159633370000000108e+00 -1.668276923367276510e+00
1.177242544000000057e+00 -1.691136016558921540e+00
1.194851718000000007e+00 -1.554780624403505840e+00
1.212460891000000096e+00 -1.506574595451652954e+00
1.230070065000000046e+00 -1.431051377629728449e+00
1.247679238999999995e+00 -1.309994463230008677e+00
1.265288412999999945e+00 -1.287443545994520377e+00
1.282897586000000034e+00 -1.160575658721189285e+00
1.300506759999999984e+00 -1.117673794847387825e+00
1.318115933999999934e+00 -1.056456632748052016e+00
1.335725107000000023e+00 -9.903171116717608413e-01
1.353334280999999972e+00 -9.440267698334636748e-01
1.370943454999999922e+00 -9.643888337447883430e-01
1.388552629000000094e+00 -9.801398935441305582e-01
1.406161801999999961e+00 -9.126109903315970939e-01
1.423770975999999910e+00 -9.214313956987858489e-01
1.441380150000000082e+00 -9.134583867863383944e-01
1.458989322999999949e+00 -8.277950401811615677e-01
1.476598496999999899e+00 -7.760008188655760364e-01
1.494207671000000071e+00 -8.059236453414690970e-01
1.511816845000000020e+00 -6.949166570406362098e-01
1.529426018000000109e+00 -7.605393740128718605e-01
1.547035192000000059e+00 -6.716086239582814699e-01
1.564644366000000009e+00 -6.498385813696643254e-01
1.582253539000000098e+00 -5.754715422498506427e-01
1.599862713000000047e+00 -5.757179141787531762e-01
1.617471886999999997e+00 -5.195549545614497333e-01
1.635081060999999947e+00 -4.942841287395012273e-01
1.652690234000000036e+00 -4.594192178482359168e-01
1.670299407999999985e+00 -3.888836164283553387e-01
1.687908581999999935e+00 -3.858589322965606527e-01
1.705517755000000024e+00 -3.720160017120157647e-01
1.723126928999999974e+00 -3.724003850726695930e-01
1.740736102999999924e+00 -3.452707804328376540e-01
1.758345277000000095e+00 -3.329968688057114434e-01
1.775954449999999962e+00 -2.889358314017655971e-01
1.793563623999999912e+00 -2.736214221364789978e-01
1.811172798000000084e+00 -3.191607451812430440e-01
1.828781970999999951e+00 -2.681306701251493507e-01
1.846391144999999900e+00 -2.261306897985555509e-01
1.864000319000000072e+00 -2.409187913259565050e-01
1.881609493000000022e+00 -1.491336535814475894e-01
1.899218666000000111e+00 -2.554513201373325160e-01
1.916827840000000061e+00 -2.378806306163170348e-01
1.934437014000000010e+00 -2.245100493216831694e-01
1.952046187000000099e+00 -2.167226619139945853e-01
1.969655361000000049e+00 -3.126835785121535594e-01
1.987264534999999999e+00 -2.131192324592809939e-01
2.004873708999999948e+00 -2.074427814678188042e-01
2.022482881999999815e+00 -1.921794656797217726e-01
2.040092056000000209e+00 -1.859796335324119809e-01
2.057701230000000159e+00 -1.875541815385268762e-01
2.075310403000000026e+00 -1.531821175909406918e-01
2.092919576999999975e+00 -7.615797020178405319e-02
2.110528750999999925e+00 -4.531695541946945127e-02
2.128137924999999875e+00 2.444927583091782708e-03
2.145747098000000186e+00 1.499522652693485725e-03
2.163356272000000136e+00 1.057356992174973698e-02
2.180965446000000085e+00 1.814575298550735738e-02
2.198574618999999952e+00 -1.201508714643750864e-02
2.216183792999999902e+00 -4.946967099506238696e-02
2.233792966999999852e+00 7.021920053882979573e-02
2.251402140999999801e+00 6.679224686460472071e-02
2.269011314000000112e+00 3.152334672169843088e-02
2.286620488000000062e+00 3.308193459133690340e-03
2.304229662000000012e+00 2.891308485136434570e-02
2.321838834999999879e+00 2.296237531299283319e-02
2.339448008999999828e+00 -1.533947451779482662e-03
2.357057182999999778e+00 1.057628357065212299e-01
2.374666357000000172e+00 1.159212450578195330e-01
2.392275530000000039e+00 8.964347152183904655e-02
2.409884703999999989e+00 1.063323867476384521e-01
2.427493877999999938e+00 1.374222863475367262e-01
2.445103050999999805e+00 1.113572794563495449e-01
2.462712225000000199e+00 4.110055493153907946e-02
2.480321399000000149e+00 1.010028986404840623e-01
2.497930573000000098e+00 4.590663172257336555e-02
2.515539745999999965e+00 4.752177504602883573e-02
2.533148919999999915e+00 3.388661677846371845e-02
2.550758093999999865e+00 4.873592559537343050e-02
2.568367267000000176e+00 1.942186539031709458e-02
2.585976441000000126e+00 4.690788892992259207e-02
2.603585615000000075e+00 4.598505241149197786e-02
2.621194789000000025e+00 -1.910900078491195586e-02
2.638803961999999892e+00 5.793535826676432521e-02
2.656413135999999842e+00 5.247408108888151901e-02
2.674022309999999791e+00 4.807147258183874783e-02
2.691631483000000102e+00 1.140445035207235946e-01
2.709240657000000052e+00 7.897335985930098445e-02
2.726849831000000002e+00 6.983233135578004180e-02
2.744459004999999951e+00 2.969534552124386551e-02
2.762068177999999818e+00 -2.793024943444066821e-02
2.779677352000000212e+00 -4.115742117785003984e-02
2.797286526000000162e+00 1.660626119707941939e-02
2.814895699000000029e+00 6.679984541471739590e-02
2.832504872999999979e+00 8.359551212636517903e-02
2.850114046999999928e+00 -1.232657858696448727e-01
2.867723220999999878e+00 -4.634776256543915451e-02
2.885332394000000189e+00 4.661517332654554480e-01
2.902941568000000139e+00 1.661696285929568973e+00
2.920550742000000088e+00 3.943685074277080815e+00
2.938159914999999955e+00 8.148214528211877195e+00
2.955769088999999905e+00 1.839473366769437845e+01
2.973378262999999855e+00 3.825450479146094551e+01
2.990987436999999804e+00 nan
3.008596610000000116e+00 nan
3.026205784000000065e+00 nan
3.043814958000000015e+00 nan
3.061424130999999882e+00 nan
3.079033304999999832e+00 nan
3.096642478999999781e+00 nan
3.114251653000000175e+00 nan
3.131860826000000042e+00 nan
3.149469999999999992e+00 nan
