6.786459999999999715e-02 nan
8.547377400000000236e-02 nan
1.030829469999999942e-01 nan
1.206921209999999994e-01 nan
1.383012949999999908e-01 nan
1.559104689999999960e-01 nan
1.735196420000000017e-01 nan
1.911288160000000069e-01 nan
2.087379900000000121e-01 nan
2.263471629999999901e-01 nan
2.439563369999999953e-01 2.389713968760739604e+01
2.615655109999999728e-01 -6.524763809137510862e+00
2.791746849999999780e-01 -1.615892428445880569e+01
2.967838580000000115e-01 -1.167165153139734102e+01
3.143930320000000167e-01 -1.277554042182995531e+01
3.320022060000000219e-01 -1.882506800856739204e+01
3.496113789999999999e-01 -1.838749776209034081e+01
3.672205530000000051e-01 -1.050876239310401417e+01
3.848297270000000103e-01 6.339395718819176295e-01
4.024389010000000155e-01 3.154525269202103743e+00
4.200480739999999935e-01 6.033604216120842523e-01
4.376572479999999987e-01 -2.667220590954272552e+00
4.552664220000000039e-01 -5.924793690804939672e+00
4.728755949999999819e-01 -7.928780439339785602e+00
4.904847689999999871e-01 -9.411768505997741840e+00
5.080939429999999923e-01 -9.985219632977880622e+00
5.257031170000000531e-01 -9.546640982526394481e+00
5.433122900000000310e-01 -9.102526009134603413e+00
5.609214639999999807e-01 -8.425793832727734411e+00
5.785306380000000415e-01 -7.705788016240912697e+00
5.961398110000000194e-01 -6.552118383222762077e+00
6.137489849999999691e-01 -5.489496346332867205e+00
6.313581590000000299e-01 -4.749364593414323821e+00
6.489673329999999796e-01 -4.992135361562990425e+00
6.665765059999999576e-01 -5.538795033847883076e+00
6.841856800000000183e-01 -6.180608962551481511e+00
7.017948539999999680e-01 -6.599929185259636455e+00
7.194040269999999460e-01 -6.372394924697793783e+00
7.370132010000000067e-01 -6.229102585282671356e+00
7.546223749999999564e-01 -6.010980151941588190e+00
7.722315490000000171e-01 -5.437713021962068183e+00
7.898407219999999951e-01 -4.825899537509531712e+00
8.074498959999999448e-01 -4.270775849838045701e+00
8.250590700000000055e-01 -3.901004870934535518e+00
8.426682429999999835e-01 -3.223007352453915786e+00
8.602774170000000442e-01 -3.018759550063712993e+00
8.778865909999999939e-01 -3.132530454668383868e+00
8.954957650000000546e-01 -3.003929253655382325e+00
9.131049380000000326e-01 -2.654228620970322083e+00
9.307141119999999823e-01 -2.907382309067852333e+00
9.483232860000000430e-01 -2.586285071546054581e+00
9.659324590000000210e-01 -2.499522823761758161e+00
9.835416329999999707e-01 -2.340446936423823843e+00
1.001150806999999920e+00 -2.304941291754559529e+00
1.018759981000000092e+00 -2.292329892167519034e+00
1.036369153999999959e+00 -1.840790817325924422e+00
1.053978327999999909e+00 -1.701390791282324955e+00
1.071587502000000081e+00 -1.670906880604473344e+00
1.089196674999999948e+00 -1.376394562783222142e+00
1.106805848999999897e+00 -1.897862454476715754e+00
1.124415023000000069e+00 -1.913615263878760686e+00
1.142024197000000019e+00 -1.560675347604735919e+00
1.159633370000000108e+00 -1.811529971198794442e+00
1.177242544000000057e+00 -1.640227257934306238e+00
1.194851718000000007e+00 -1.648742455581970745e+00
1.212460891000000096e+00 -1.446910058227945939e+00
1.230070065000000046e+00 -1.480478342725835006e+00
1.247679238999999995e+00 -1.326985730939551189e+00
1.265288412999999945e+00 -1.199266209340667189e+00
1.282897586000000034e+00 -1.356874743802883643e+00
1.300506759999999984e+00 -1.331010606332451829e+00
1.318115933999999934e+00 -1.371182871901325484e+00
1.335725107000000023e+00 -1.252349143432493150e+00
1.353334280999999972e+00 -1.150863813562430948e+00
1.370943454999999922e+00 -6.839077192911950931e-01
1.388552629000000094e+00 -7.819582470920494188e-01
1.406161801999999961e+00 -5.283046821909103130e-01
1.423770975999999910e+00 -7.416014548325762235e-01
1.441380150000000082e+00 -7.738782487660174070e-01
1.458989322999999949e+00 -9.067066021657481656e-01
1.476598496999999899e+00 -5.477130799853249243e-01
1.494207671000000071e+00 -6.968652546813309812e-01
1.511816845000000020e+00 -8.854589110044130962e-01
1.529426018000000109e+00 -1.026585141635717235e+00
1.547035192000000059e+00 -5.006421134045808685e-01
1.564644366000000009e+00 -5.477484338807343534e-01
1.582253539000000098e+00 -3.798758986339620947e-01
1.599862713000000047e+00 2.788530359327978658e-02
1.617471886999999997e+00 -5.294024567783388591e-01
1.635081060999999947e+00 -2.274865600300586266e-01
1.652690234000000036e+00 -4.999104561503955324e-01
1.670299407999999985e+00 -1.974342156994879360e-01
1.687908581999999935e+00 -1.588774646751289765e-01
1.705517755000000024e+00 9.427732297849544807e-02
1.723126928999999974e+00 8.905734469942672149e-02
1.740736102999999924e+00 -2.957703283607919786e-01
1.758345277000000095e+00 -5.433443157786541633e-01
1.775954449999999962e+00 -5.259128468999669792e-01
1.793563623999999912e+00 -2.414334515062712683e-01
1.811172798000000084e+00 -3.881406356636496469e-01
1.828781970999999951e+00 -9.706584452383992812e-02
1.846391144999999900e+00 -3.872601672501083669e-01
1.864000319000000072e+00 -1.564547966303635462e-01
1.881609493000000022e+00 -1.158964259872341529e-01
1.899218666000000111e+00 -1.475648936324063243e-01
1.916827840000000061e+00 -3.162781187592145216e-01
1.934437014000000010e+00 -6.218230459665718968e-02
1.952046187000000099e+00 1.370762356623806966e-01
1.969655361000000049e+00 -4.684352167318905913e-02
1.987264534999999999e+00 2.296117715263363834e-01
2.004873708999999948e+00 3.297362486099331136e-02
2.022482881999999815e+00 1.143859345776832015e-01
2.040092056000000209e+00 -1.411159853135082187e-01
2.057701230000000159e+00 -1.997922771968951849e-01
2.075310403000000026e+00 -7.047132838352965223e-02
2.092919576999999975e+00 7.032444418788585949e-02
2.110528750999999925e+00 -6.175259257573983973e-02
2.128137924999999875e+00 -1.384153860339196740e-01
2.145747098000000186e+00 9.545810962428902258e-02
2.163356272000000136e+00 4.441440723622385178e-01
2.180965446000000085e+00 -1.639446715387364861e-01
2.198574618999999952e+00 2.180692120965304071e-01
2.216183792999999902e+00 -1.226528659862253789e-01
2.233792966999999852e+00 2.610000641666481158e-01
2.251402140999999801e+00 2.087823690790564513e-01
2.269011314000000112e+00 8.609556810928253867e-02
2.286620488000000062e+00 5.388703340191369762e-03
2.304229662000000012e+00 2.538333361802429522e-01
2.321838834999999879e+00 1.463919598563201419e-01
2.339448008999999828e+00 -9.486030078293694601e-02
2.357057182999999778e+00 3.443697131605034656e-01
2.374666357000000172e+00 -2.529737517897707733e-01
2.392275530000000039e+00 -4.471611524289897943e-02
2.409884703999999989e+00 -1.898610536997935583e-01
2.427493877999999938e+00 7.629016633991625440e-03
2.445103050999999805e+00 -2.671033563178895065e-01
2.462712225000000199e+00 -1.416943855128067753e-01
2.480321399000000149e+00 -2.986087309856664262e-01
2.497930573000000098e+00 -1.008833268755893187e-01
2.515539745999999965e+00 -2.447111405566460007e-01
2.533148919999999915e+00 -3.572742963868407173e-01
2.550758093999999865e+00 -2.875045539949496742e-01
2.568367267000000176e+00 -4.696085473281996769e-01
2.585976441000000126e+00 -3.876616451075314274e-01
2.603585615000000075e+00 -3.790026772151193768e-01
2.621194789000000025e+00 -6.821589274941537440e-01
2.638803961999999892e+00 -3.528354640126067920e-01
2.656413135999999842e+00 -5.432787759834170060e-01
2.674022309999999791e+00 -4.947284230661885829e-01
2.691631483000000102e+00 -6.132217497964553843e-01
2.709240657000000052e+00 -6.314846969527714293e-01
2.726849831000000002e+00 -3.255205471690025831e-01
2.744459004999999951e+00 -5.902531073465731026e-01
2.762068177999999818e+00 -6.107170385658022838e-01
2.779677352000000212e+00 -6.040622878261814321e-01
2.797286526000000162e+00 -1.988545145457827346e-01
2.814895699000000029e+00 -3.767853923969752827e-01
2.832504872999999979e+00 -6.180079905261912643e-01
2.850114046999999928e+00 -7.239554398317515904e-01
2.867723220999999878e+00 -4.998826047655597904e-01
2.885332394000000189e+00 -1.543747825352426162e-01
2.902941568000000139e+00 1.331749793351463040e+00
2.920550742000000088e+00 3.651195671818172173e+00
2.938159914999999955e+00 7.825197576227377994e+00
2.955769088999999905e+00 1.718632871388372862e+01
2.973378262999999855e+00 3.691980123163925498e+01
2.990987436999999804e+00 nan
3.008596610000000116e+00 nan
3.026205784000000065e+00 nan
3.043814958000000015e+00 nan
3.061424130999999882e+00 nan
3.079033304999999832e+00 nan
3.096642478999999781e+00 nan
3.114251653000000175e+00 nan
3.131860826000000042e+00 nan
3.149469999999999992e+00 nan
