6.786459999999999715e-02 nan
8.547377400000000236e-02 nan
1.030829469999999942e-01 nan
1.206921209999999994e-01 nan
1.383012949999999908e-01 nan
1.559104689999999960e-01 nan
1.735196420000000017e-01 nan
1.911288160000000069e-01 nan
2.087379900000000121e-01 nan
2.263471629999999901e-01 nan
2.439563369999999953e-01 2.227091676714452717e+01
2.615655109999999728e-01 -6.557504452784904458e+00
2.791746849999999780e-01 -1.698597261869086594e+01
2.967838580000000115e-01 -1.299372455825356987e+01
3.143930320000000167e-01 -1.350386837769232784e+01
3.320022060000000219e-01 -1.908969918186310011e+01
3.496113789999999999e-01 -1.856477127084071554e+01
3.672205530000000051e-01 -1.057584133228233547e+01
3.848297270000000103e-01 4.326951249084203255e-01
4.024389010000000155e-01 3.732389280073913795e+00
4.200480739999999935e-01 1.095502029317533044e+00
4.376572479999999987e-01 -2.133214627377736150e+00
4.552664220000000039e-01 -5.467439047631522442e+00
4.728755949999999819e-01 -7.684254252662963580e+00
4.904847689999999871e-01 -9.011204849907848313e+00
5.080939429999999923e-01 -9.400465367247093695e+00
5.257031170000000531e-01 -9.105565215540650570e+00
5.433122900000000310e-01 -8.568720751329902185e+00
5.609214639999999807e-01 -8.100883921248414055e+00
5.785306380000000415e-01 -7.404015668253524751e+00
5.961398110000000194e-01 -6.224510146264307764e+00
6.137489849999999691e-01 -5.100519091727008458e+00
6.313581590000000299e-01 -4.447313357345819895e+00
6.489673329999999796e-01 -4.546476866574529652e+00
6.665765059999999576e-01 -5.003098794456814602e+00
6.841856800000000183e-01 -5.541322823351780613e+00
7.017948539999999680e-01 -5.815308719725880593e+00
7.194040269999999460e-01 -5.640351652595725795e+00
7.370132010000000067e-01 -5.537141657068683998e+00
7.546223749999999564e-01 -5.347538368337541925e+00
7.722315490000000171e-01 -4.960978374190741391e+00
7.898407219999999951e-01 -4.585688844678447396e+00
8.074498959999999448e-01 -4.156989652088729059e+00
8.250590700000000055e-01 -3.700046809496409850e+00
8.426682429999999835e-01 -3.326740807822702095e+00
8.602774170000000442e-01 -3.108088501491923950e+00
8.778865909999999939e-01 -3.042207118765976048e+00
8.954957650000000546e-01 -3.073577908801340186e+00
9.131049380000000326e-01 -3.002577202640512866e+00
9.307141119999999823e-01 -2.978529746204401363e+00
9.483232860000000430e-01 -2.922210231465005137e+00
9.659324590000000210e-01 -2.897594001405327191e+00
9.835416329999999707e-01 -2.760296893183983968e+00
1.001150806999999920e+00 -2.591007132567696658e+00
1.018759981000000092e+00 -2.471120188764285075e+00
1.036369153999999959e+00 -2.294111466955971679e+00
1.053978327999999909e+00 -2.163298684253920356e+00
1.071587502000000081e+00 -2.035757686238873987e+00
1.089196674999999948e+00 -2.006171512822401581e+00
1.106805848999999897e+00 -1.888180636178571348e+00
1.124415023000000069e+00 -1.964988335669364261e+00
1.142024197000000019e+00 -1.749324102600507302e+00
1.159633370000000108e+00 -1.771487370075810475e+00
1.177242544000000057e+00 -1.789257299299308102e+00
1.194851718000000007e+00 -1.631117219999900669e+00
1.212460891000000096e+00 -1.532892960283675166e+00
1.230070065000000046e+00 -1.522894408276510347e+00
1.247679238999999995e+00 -1.335499711953609392e+00
1.265288412999999945e+00 -1.344373093236800543e+00
1.282897586000000034e+00 -1.165168374128672468e+00
1.300506759999999984e+00 -1.140449939796059908e+00
1.318115933999999934e+00 -1.185397860549457505e+00
1.335725107000000023e+00 -1.098610334506606279e+00
1.353334280999999972e+00 -1.056982253299530328e+00
1.370943454999999922e+00 -1.051103681482125296e+00
1.388552629000000094e+00 -1.154422125008263578e+00
1.406161801999999961e+00 -9.935594159678835524e-01
1.423770975999999910e+00 -1.079083650904482994e+00
1.441380150000000082e+00 -1.046144893420724031e+00
1.458989322999999949e+00 -1.021294360555902614e+00
1.476598496999999899e+00 -9.422153355871394353e-01
1.494207671000000071e+00 -9.782732077615641231e-01
1.511816845000000020e+00 -9.364143768676456148e-01
1.529426018000000109e+00 -9.704926777491529322e-01
1.547035192000000059e+00 -8.648106833591668874e-01
1.564644366000000009e+00 -9.470909821349557944e-01
1.582253539000000098e+00 -7.958811887195871293e-01
1.599862713000000047e+00 -7.909048431693648240e-01
1.617471886999999997e+00 -8.221457304859605131e-01
1.635081060999999947e+00 -7.424382275461773872e-01
1.652690234000000036e+00 -6.939345177944566956e-01
1.670299407999999985e+00 -6.670057574819665547e-01
1.687908581999999935e+00 -5.948492335559691924e-01
1.705517755000000024e+00 -5.011302505717551981e-01
1.723126928999999974e+00 -5.482169951398105923e-01
1.740736102999999924e+00 -5.212289095891264878e-01
1.758345277000000095e+00 -5.118756600927696354e-01
1.775954449999999962e+00 -4.520253203065607295e-01
1.793563623999999912e+00 -4.929023277430566452e-01
1.811172798000000084e+00 -5.298844198827943330e-01
1.828781970999999951e+00 -4.608546086626610361e-01
1.846391144999999900e+00 -4.195798377020025782e-01
1.864000319000000072e+00 -4.021677400529775070e-01
1.881609493000000022e+00 -3.274827530298551892e-01
1.899218666000000111e+00 -3.752912033750845922e-01
1.916827840000000061e+00 -3.119848112073064783e-01
1.934437014000000010e+00 -2.951647232069127824e-01
1.952046187000000099e+00 -2.659659209844669192e-01
1.969655361000000049e+00 -3.847708143591290764e-01
1.987264534999999999e+00 -2.508565696618809682e-01
2.004873708999999948e+00 -2.260992724376365004e-01
2.022482881999999815e+00 -1.660636939285282665e-01
2.040092056000000209e+00 -2.205815784659534984e-01
2.057701230000000159e+00 -1.509325739779718845e-01
2.075310403000000026e+00 -1.959490797132765749e-01
2.092919576999999975e+00 -1.066758029729371060e-01
2.110528750999999925e+00 -9.221145449357592838e-02
2.128137924999999875e+00 -8.199742349649952189e-02
2.145747098000000186e+00 -2.058050815188749993e-02
2.163356272000000136e+00 -3.298180511973924922e-02
2.180965446000000085e+00 -4.489582519530443960e-02
2.198574618999999952e+00 -2.235922772580778428e-03
2.216183792999999902e+00 5.093586138525907359e-02
2.233792966999999852e+00 9.373395060329414719e-02
2.251402140999999801e+00 2.027310063052247813e-01
2.269011314000000112e+00 1.004035583285585176e-01
2.286620488000000062e+00 7.226128323596370251e-02
2.304229662000000012e+00 1.097104898935619133e-01
2.321838834999999879e+00 1.408020035826034189e-01
2.339448008999999828e+00 -6.636406865080601847e-02
2.357057182999999778e+00 2.205179692486431975e-01
2.374666357000000172e+00 1.355380322509525115e-01
2.392275530000000039e+00 6.637558856878911229e-02
2.409884703999999989e+00 9.471961407977502745e-02
2.427493877999999938e+00 6.661536861091121864e-02
2.445103050999999805e+00 4.916336711441715579e-02
2.462712225000000199e+00 -2.406088381402327059e-03
2.480321399000000149e+00 1.440901136085770418e-02
2.497930573000000098e+00 -7.942006810772284098e-03
2.515539745999999965e+00 3.921632122736085080e-02
2.533148919999999915e+00 4.819092274082947824e-02
2.550758093999999865e+00 4.706399402321181924e-02
2.568367267000000176e+00 -1.329848229133645532e-02
2.585976441000000126e+00 5.009395837391394934e-02
2.603585615000000075e+00 -3.480921614069742986e-02
2.621194789000000025e+00 -1.053786183283555999e-01
2.638803961999999892e+00 -1.761763962472784328e-02
2.656413135999999842e+00 -2.458557145073214656e-02
2.674022309999999791e+00 -2.008243941226339757e-03
2.691631483000000102e+00 1.010035707958962803e-01
2.709240657000000052e+00 5.276340424118686201e-02
2.726849831000000002e+00 9.603008407040292127e-02
2.744459004999999951e+00 1.285133600777754737e-03
2.762068177999999818e+00 -3.687823483980068318e-02
2.779677352000000212e+00 2.282484236280168943e-02
2.797286526000000162e+00 8.345569769985416997e-02
2.814895699000000029e+00 4.823132114682238125e-02
2.832504872999999979e+00 1.657297030227766754e-02
2.850114046999999928e+00 -1.644161170967564090e-01
2.867723220999999878e+00 -1.793561166071881985e-01
2.885332394000000189e+00 4.423211887785853946e-01
2.902941568000000139e+00 1.636220033733810197e+00
2.920550742000000088e+00 3.979927438260716599e+00
2.938159914999999955e+00 8.051629374718686449e+00
2.955769088999999905e+00 1.795673626321222116e+01
2.973378262999999855e+00 3.697846795071957615e+01
2.990987436999999804e+00 nan
3.008596610000000116e+00 nan
3.026205784000000065e+00 nan
3.043814958000000015e+00 nan
3.061424130999999882e+00 nan
3.079033304999999832e+00 nan
3.096642478999999781e+00 nan
3.114251653000000175e+00 nan
3.131860826000000042e+00 nan
3.149469999999999992e+00 nan
