6.786459999999999715e-02 nan
8.547377400000000236e-02 nan
1.030829469999999942e-01 nan
1.206921209999999994e-01 nan
1.383012949999999908e-01 nan
1.559104689999999960e-01 nan
1.735196420000000017e-01 nan
1.911288160000000069e-01 nan
2.087379900000000121e-01 nan
2.263471629999999901e-01 nan
2.439563369999999953e-01 2.321529210181930125e+01
2.615655109999999728e-01 -5.860934711756755178e+00
2.791746849999999780e-01 -1.604755385280088831e+01
2.967838580000000115e-01 -1.208768929383457724e+01
3.143930320000000167e-01 -1.280924669390560844e+01
3.320022060000000219e-01 -1.856388920043347923e+01
3.496113789999999999e-01 -1.820451856922030132e+01
3.672205530000000051e-01 -1.032170755403521945e+01
3.848297270000000103e-01 5.053314223181075704e-01
4.024389010000000155e-01 3.697961701625455788e+00
4.200480739999999935e-01 1.023922220280081063e+00
4.376572479999999987e-01 -2.235983836018174742e+00
4.552664220000000039e-01 -5.541708850204930314e+00
4.728755949999999819e-01 -7.761528380552949358e+00
4.904847689999999871e-01 -9.073246467589063613e+00
5.080939429999999923e-01 -9.483532421988000394e+00
5.257031170000000531e-01 -9.190791317681132000e+00
5.433122900000000310e-01 -8.689573648278773987e+00
5.609214639999999807e-01 -8.216615021537656105e+00
5.785306380000000415e-01 -7.519116888127701515e+00
5.961398110000000194e-01 -6.370352245579976369e+00
6.137489849999999691e-01 -5.320268867575894234e+00
6.313581590000000299e-01 -4.685639396206305207e+00
6.489673329999999796e-01 -4.799360186774691783e+00
6.665765059999999576e-01 -5.166552352227132161e+00
6.841856800000000183e-01 -5.753588925537293619e+00
7.017948539999999680e-01 -6.037462516234121779e+00
7.194040269999999460e-01 -5.770366832315907857e+00
7.370132010000000067e-01 -5.581005436765099859e+00
7.546223749999999564e-01 -5.376897838197432833e+00
7.722315490000000171e-01 -4.903585999208043944e+00
7.898407219999999951e-01 -4.492313588345638209e+00
8.074498959999999448e-01 -4.087500123940515095e+00
8.250590700000000055e-01 -3.555649691144729729e+00
8.426682429999999835e-01 -3.219439370521524069e+00
8.602774170000000442e-01 -2.958807421506943314e+00
8.778865909999999939e-01 -2.880957855336287565e+00
8.954957650000000546e-01 -2.924499941158654082e+00
9.131049380000000326e-01 -2.765730855772101648e+00
9.307141119999999823e-01 -2.730692763019373359e+00
9.483232860000000430e-01 -2.667197054491310837e+00
9.659324590000000210e-01 -2.576371372866855580e+00
9.835416329999999707e-01 -2.422665460215288391e+00
1.001150806999999920e+00 -2.277705329511366728e+00
1.018759981000000092e+00 -2.116323173622227216e+00
1.036369153999999959e+00 -1.968893970183195563e+00
1.053978327999999909e+00 -1.712983531226157652e+00
1.071587502000000081e+00 -1.635160463163721545e+00
1.089196674999999948e+00 -1.601211739940474388e+00
1.106805848999999897e+00 -1.497188172198541167e+00
1.124415023000000069e+00 -1.615921171467114448e+00
1.142024197000000019e+00 -1.310180410905022796e+00
1.159633370000000108e+00 -1.306962900842691511e+00
1.177242544000000057e+00 -1.267564046789537713e+00
1.194851718000000007e+00 -1.097140387000184347e+00
1.212460891000000096e+00 -1.052000499410969070e+00
1.230070065000000046e+00 -1.120485730920876222e+00
1.247679238999999995e+00 -8.890632925109223095e-01
1.265288412999999945e+00 -8.762869327078028903e-01
1.282897586000000034e+00 -7.411036833073794128e-01
1.300506759999999984e+00 -8.204270465620169261e-01
1.318115933999999934e+00 -8.622710250320508862e-01
1.335725107000000023e+00 -7.570430347107404145e-01
1.353334280999999972e+00 -7.798180995368966251e-01
1.370943454999999922e+00 -6.981546573788186549e-01
1.388552629000000094e+00 -7.795381174274957914e-01
1.406161801999999961e+00 -6.244901236708351178e-01
1.423770975999999910e+00 -6.106692969424081241e-01
1.441380150000000082e+00 -5.897402524301789128e-01
1.458989322999999949e+00 -4.573974916790994882e-01
1.476598496999999899e+00 -3.686792679108634729e-01
1.494207671000000071e+00 -4.238289791358056391e-01
1.511816845000000020e+00 -4.092656413540503024e-01
1.529426018000000109e+00 -3.690386792360413892e-01
1.547035192000000059e+00 -2.514208938776043567e-01
1.564644366000000009e+00 -4.083913423116101171e-01
1.582253539000000098e+00 -2.889681445030980456e-01
1.599862713000000047e+00 -2.623543937545882443e-01
1.617471886999999997e+00 -3.342680787801590725e-01
1.635081060999999947e+00 -3.404585223619029932e-01
1.652690234000000036e+00 -2.755494200781321013e-01
1.670299407999999985e+00 -2.763895761963048869e-01
1.687908581999999935e+00 -2.050354041556197160e-01
1.705517755000000024e+00 -1.079917146180946474e-01
1.723126928999999974e+00 -1.535539055128012365e-01
1.740736102999999924e+00 -1.795819014443864603e-01
1.758345277000000095e+00 -2.540240034947416348e-01
1.775954449999999962e+00 -1.542978395793497270e-01
1.793563623999999912e+00 -2.539572425429241775e-01
1.811172798000000084e+00 -2.457768333848662223e-01
1.828781970999999951e+00 -1.307481626342088532e-01
1.846391144999999900e+00 -1.682099496252611459e-01
1.864000319000000072e+00 -1.528313273033496955e-01
1.881609493000000022e+00 -8.948995446582586055e-02
1.899218666000000111e+00 -1.326155883703314942e-01
1.916827840000000061e+00 -1.518863452580205831e-01
1.934437014000000010e+00 -7.480799468909893335e-02
1.952046187000000099e+00 -8.984908237157185340e-02
1.969655361000000049e+00 -2.784908423445706660e-01
1.987264534999999999e+00 -2.014173446090978814e-01
2.004873708999999948e+00 -2.314195044899314269e-01
2.022482881999999815e+00 -1.270399253570566600e-01
2.040092056000000209e+00 -2.616221798966726908e-01
2.057701230000000159e+00 -2.252330870940113527e-01
2.075310403000000026e+00 -2.246251439375015480e-01
2.092919576999999975e+00 -1.519678411317997302e-01
2.110528750999999925e+00 -1.316173093324906063e-01
2.128137924999999875e+00 -1.495694225652464127e-01
2.145747098000000186e+00 -1.660985807393728919e-01
2.163356272000000136e+00 -1.067907906149123676e-01
2.180965446000000085e+00 -1.444017177077547842e-01
2.198574618999999952e+00 -1.353710265416196989e-02
2.216183792999999902e+00 -3.270348380300447388e-02
2.233792966999999852e+00 1.449323379423823610e-01
2.251402140999999801e+00 2.734091967193208461e-01
2.269011314000000112e+00 2.173671355386197490e-01
2.286620488000000062e+00 1.145013323610761802e-01
2.304229662000000012e+00 1.574506489817188992e-01
2.321838834999999879e+00 1.744261357390683997e-01
2.339448008999999828e+00 -1.324521559314923991e-01
2.357057182999999778e+00 2.272603510757669198e-01
2.374666357000000172e+00 1.172727455241151517e-01
2.392275530000000039e+00 8.747056429078625683e-02
2.409884703999999989e+00 9.146872732972965991e-02
2.427493877999999938e+00 9.707268932980994691e-02
2.445103050999999805e+00 1.032645059975187962e-01
2.462712225000000199e+00 6.919788911793745001e-02
2.480321399000000149e+00 1.460957097113606551e-01
2.497930573000000098e+00 7.788827559620159491e-02
2.515539745999999965e+00 4.456963627656307381e-02
2.533148919999999915e+00 1.200454881418302477e-01
2.550758093999999865e+00 7.491470720924908733e-02
2.568367267000000176e+00 3.473523510379550316e-03
2.585976441000000126e+00 1.206201342012640509e-01
2.603585615000000075e+00 6.063441044823747461e-02
2.621194789000000025e+00 7.882843011547890910e-02
2.638803961999999892e+00 1.989958134884943775e-01
2.656413135999999842e+00 8.251643511418293997e-02
2.674022309999999791e+00 1.986744622191167764e-01
2.691631483000000102e+00 2.657550607135057419e-01
2.709240657000000052e+00 2.323140305109134829e-01
2.726849831000000002e+00 3.530606261879292163e-01
2.744459004999999951e+00 2.240525579583270144e-01
2.762068177999999818e+00 2.817217777719349669e-01
2.779677352000000212e+00 3.308475083844513165e-01
2.797286526000000162e+00 4.290315469165371098e-01
2.814895699000000029e+00 3.885163917876539585e-01
2.832504872999999979e+00 3.037867102554798748e-01
2.850114046999999928e+00 1.944933004891247208e-01
2.867723220999999878e+00 2.679567931858706231e-01
2.885332394000000189e+00 9.458530276561560868e-01
2.902941568000000139e+00 2.216226439189114217e+00
2.920550742000000088e+00 4.609481103079698272e+00
2.938159914999999955e+00 8.586706246512697760e+00
2.955769088999999905e+00 1.827605932383379184e+01
2.973378262999999855e+00 3.694901756431132611e+01
2.990987436999999804e+00 nan
3.008596610000000116e+00 nan
3.026205784000000065e+00 nan
3.043814958000000015e+00 nan
3.061424130999999882e+00 nan
3.079033304999999832e+00 nan
3.096642478999999781e+00 nan
3.114251653000000175e+00 nan
3.131860826000000042e+00 nan
3.149469999999999992e+00 nan
