6.786459999999999715e-02 nan
8.547377400000000236e-02 nan
1.030829469999999942e-01 nan
1.206921209999999994e-01 nan
1.383012949999999908e-01 nan
1.559104689999999960e-01 nan
1.735196420000000017e-01 nan
1.911288160000000069e-01 nan
2.087379900000000121e-01 nan
2.263471629999999901e-01 nan
2.439563369999999953e-01 2.252677050601912967e+01
2.615655109999999728e-01 -6.492907801615210417e+00
2.791746849999999780e-01 -1.643039132307384165e+01
2.967838580000000115e-01 -1.193134271374825417e+01
3.143930320000000167e-01 -1.326824206498245573e+01
3.320022060000000219e-01 -1.916368721983201695e+01
3.496113789999999999e-01 -1.872098327723464095e+01
3.672205530000000051e-01 -1.092274208086171505e+01
3.848297270000000103e-01 -9.991798665650719613e-02
4.024389010000000155e-01 2.720561515534217989e+00
4.200480739999999935e-01 1.483962908218892096e-01
4.376572479999999987e-01 -3.022558651179807043e+00
4.552664220000000039e-01 -6.222774881949181491e+00
4.728755949999999819e-01 -8.521076155860527024e+00
4.904847689999999871e-01 -9.851257010011030602e+00
5.080939429999999923e-01 -1.026096166068926152e+01
5.257031170000000531e-01 -9.850096284695098348e+00
5.433122900000000310e-01 -9.312711809985557920e+00
5.609214639999999807e-01 -8.932141044285081932e+00
5.785306380000000415e-01 -8.114208118069676345e+00
5.961398110000000194e-01 -6.983640703872261213e+00
6.137489849999999691e-01 -6.010972119791723856e+00
6.313581590000000299e-01 -5.424480675329213852e+00
6.489673329999999796e-01 -5.553067254300735556e+00
6.665765059999999576e-01 -6.006740096637091852e+00
6.841856800000000183e-01 -6.622478867766680821e+00
7.017948539999999680e-01 -6.888279583331783584e+00
7.194040269999999460e-01 -6.508988607017194283e+00
7.370132010000000067e-01 -6.379195177170569053e+00
7.546223749999999564e-01 -6.236760481767674946e+00
7.722315490000000171e-01 -5.569768006627519696e+00
7.898407219999999951e-01 -5.203302830292550141e+00
8.074498959999999448e-01 -4.699673512251653307e+00
8.250590700000000055e-01 -4.223333881540437318e+00
8.426682429999999835e-01 -3.797609443122919259e+00
8.602774170000000442e-01 -3.695362761313628397e+00
8.778865909999999939e-01 -3.412374155790395491e+00
8.954957650000000546e-01 -3.480603288293686148e+00
9.131049380000000326e-01 -3.250068541052403503e+00
9.307141119999999823e-01 -3.197192448278084242e+00
9.483232860000000430e-01 -3.093179993586616661e+00
9.659324590000000210e-01 -3.000616463811265788e+00
9.835416329999999707e-01 -2.922750129461338275e+00
1.001150806999999920e+00 -2.619384869364825619e+00
1.018759981000000092e+00 -2.581581656954721637e+00
1.036369153999999959e+00 -2.261492065740842605e+00
1.053978327999999909e+00 -2.005555363022843096e+00
1.071587502000000081e+00 -1.789477395220874456e+00
1.089196674999999948e+00 -1.733220342456284868e+00
1.106805848999999897e+00 -1.774261346117807392e+00
1.124415023000000069e+00 -1.843323714376584377e+00
1.142024197000000019e+00 -1.489914954187572249e+00
1.159633370000000108e+00 -1.744018374398677906e+00
1.177242544000000057e+00 -1.477971842667500368e+00
1.194851718000000007e+00 -1.325184570250293348e+00
1.212460891000000096e+00 -1.261187488364814868e+00
1.230070065000000046e+00 -1.219552637188588307e+00
1.247679238999999995e+00 -1.142873534449762474e+00
1.265288412999999945e+00 -1.017597469753507511e+00
1.282897586000000034e+00 -1.063823107311382188e+00
1.300506759999999984e+00 -1.064077716406082175e+00
1.318115933999999934e+00 -1.268763626663876209e+00
1.335725107000000023e+00 -9.580053809894621963e-01
1.353334280999999972e+00 -9.268472860003136304e-01
1.370943454999999922e+00 -8.053336229748495612e-01
1.388552629000000094e+00 -7.238724523252351162e-01
1.406161801999999961e+00 -6.773184218415053692e-01
1.423770975999999910e+00 -7.340306427179896787e-01
1.441380150000000082e+00 -7.112571412395354287e-01
1.458989322999999949e+00 -7.174158909566870079e-01
1.476598496999999899e+00 -2.892945408458977852e-01
1.494207671000000071e+00 -5.615767024114823869e-01
1.511816845000000020e+00 -6.050482497424418682e-01
1.529426018000000109e+00 -5.914927573393242710e-01
1.547035192000000059e+00 -2.917425729540212842e-01
1.564644366000000009e+00 -3.737582507495389450e-01
1.582253539000000098e+00 -2.966072394089600550e-01
1.599862713000000047e+00 -1.122091371347622157e-02
1.617471886999999997e+00 -3.294220933829805631e-01
1.635081060999999947e+00 -3.326217235625712476e-01
1.652690234000000036e+00 -3.438803466967570444e-01
1.670299407999999985e+00 -9.404667592460214109e-02
1.687908581999999935e+00 -1.801262783472168394e-01
1.705517755000000024e+00 7.850969334907276220e-02
1.723126928999999974e+00 1.031638595694346350e-01
1.740736102999999924e+00 -7.933559362407294202e-02
1.758345277000000095e+00 -2.160338334748459488e-01
1.775954449999999962e+00 -1.534151324643993064e-01
1.793563623999999912e+00 -6.076657486083192339e-02
1.811172798000000084e+00 -1.001230174474940782e-01
1.828781970999999951e+00 7.186063171298329166e-02
1.846391144999999900e+00 -1.458737698153456108e-02
1.864000319000000072e+00 1.408124207696843655e-01
1.881609493000000022e+00 2.688310360776320351e-01
1.899218666000000111e+00 1.499604212002161319e-01
1.916827840000000061e+00 1.671308008198444384e-01
1.934437014000000010e+00 3.353711307239244377e-01
1.952046187000000099e+00 3.936944717913526404e-01
1.969655361000000049e+00 1.650585057198981076e-01
1.987264534999999999e+00 4.317456193484012772e-01
2.004873708999999948e+00 2.513505100998543185e-01
2.022482881999999815e+00 3.980744188590037425e-01
2.040092056000000209e+00 8.848590065515438141e-02
2.057701230000000159e+00 4.510937751887666991e-02
2.075310403000000026e+00 1.270830004505505428e-01
2.092919576999999975e+00 1.232138699974676399e-01
2.110528750999999925e+00 1.083832184050805836e-01
2.128137924999999875e+00 -4.710296435387562042e-02
2.145747098000000186e+00 8.773022447551781511e-02
2.163356272000000136e+00 2.154971807998116162e-01
2.180965446000000085e+00 -1.425269575279912715e-01
2.198574618999999952e+00 2.224214614813568858e-01
2.216183792999999902e+00 -1.313678902843768981e-01
2.233792966999999852e+00 5.373357387590260714e-02
2.251402140999999801e+00 4.339283607937716170e-02
2.269011314000000112e+00 1.326935985477817326e-02
2.286620488000000062e+00 -1.547866455766424565e-01
2.304229662000000012e+00 -2.102036401045026537e-02
2.321838834999999879e+00 8.293523239657929480e-03
2.339448008999999828e+00 -2.857431778086869656e-01
2.357057182999999778e+00 1.735758527853228372e-01
2.374666357000000172e+00 -1.748742335992226060e-01
2.392275530000000039e+00 -1.201262368894440158e-01
2.409884703999999989e+00 -6.037358201493248089e-02
2.427493877999999938e+00 -2.795955287187013028e-02
2.445103050999999805e+00 -1.949098889629823361e-01
2.462712225000000199e+00 -1.539171836340571531e-01
2.480321399000000149e+00 -3.242312598931427203e-01
2.497930573000000098e+00 -1.206743711500024574e-01
2.515539745999999965e+00 -2.279429521841329631e-01
2.533148919999999915e+00 -2.813066229011447206e-01
2.550758093999999865e+00 -6.810880246041506325e-02
2.568367267000000176e+00 -2.351429136709626277e-01
2.585976441000000126e+00 -8.726871254557266866e-02
2.603585615000000075e+00 -7.541712655903154428e-02
2.621194789000000025e+00 -3.541589876177084761e-01
2.638803961999999892e+00 5.610931042724232043e-02
2.656413135999999842e+00 -1.268968647432444641e-01
2.674022309999999791e+00 1.580936298298141196e-02
2.691631483000000102e+00 -1.120747438364517734e-01
2.709240657000000052e+00 -1.458127528668775597e-01
2.726849831000000002e+00 1.218806424830987112e-02
2.744459004999999951e+00 -1.609972225250722033e-01
2.762068177999999818e+00 -1.217764841085902106e-01
2.779677352000000212e+00 -6.955849859998508578e-02
2.797286526000000162e+00 2.876624384017425484e-01
2.814895699000000029e+00 1.192458625694712282e-01
2.832504872999999979e+00 -1.196414681955104697e-02
2.850114046999999928e+00 -3.194344960033745906e-02
2.867723220999999878e+00 4.548379799266299983e-02
2.885332394000000189e+00 6.913807322179295056e-01
2.902941568000000139e+00 2.162661804132387289e+00
2.920550742000000088e+00 4.361800270112659916e+00
2.938159914999999955e+00 8.583255185141585031e+00
2.955769088999999905e+00 1.809482155756118615e+01
2.973378262999999855e+00 3.772554246659690591e+01
2.990987436999999804e+00 nan
3.008596610000000116e+00 nan
3.026205784000000065e+00 nan
3.043814958000000015e+00 nan
3.061424130999999882e+00 nan
3.079033304999999832e+00 nan
3.096642478999999781e+00 nan
3.114251653000000175e+00 nan
3.131860826000000042e+00 nan
3.149469999999999992e+00 nan
