6.786459999999999715e-02 nan
8.547377400000000236e-02 nan
1.030829469999999942e-01 nan
1.206921209999999994e-01 nan
1.383012949999999908e-01 nan
1.559104689999999960e-01 nan
1.735196420000000017e-01 nan
1.911288160000000069e-01 nan
2.087379900000000121e-01 nan
2.263471629999999901e-01 nan
2.439563369999999953e-01 2.269089525844228206e+01
2.615655109999999728e-01 -6.668274816850441766e+00
2.791746849999999780e-01 -1.736424165254449292e+01
2.967838580000000115e-01 -1.346713974800897340e+01
3.143930320000000167e-01 -1.342049955793154759e+01
3.320022060000000219e-01 -1.894467425269228755e+01
3.496113789999999999e-01 -1.830841950892090964e+01
3.672205530000000051e-01 -1.023316311272889578e+01
3.848297270000000103e-01 8.133843251978376543e-01
4.024389010000000155e-01 4.112831252494217438e+00
4.200480739999999935e-01 1.431222307617812106e+00
4.376572479999999987e-01 -1.815349782477330365e+00
4.552664220000000039e-01 -5.144321217788178302e+00
4.728755949999999819e-01 -7.369209802469498527e+00
4.904847689999999871e-01 -8.702348399904785481e+00
5.080939429999999923e-01 -9.100778121107264695e+00
5.257031170000000531e-01 -8.813110314437160753e+00
5.433122900000000310e-01 -8.327985579745362799e+00
5.609214639999999807e-01 -7.902260551002495248e+00
5.785306380000000415e-01 -7.250928977933046582e+00
5.961398110000000194e-01 -6.097786947009186775e+00
6.137489849999999691e-01 -4.952541798710885956e+00
6.313581590000000299e-01 -4.323415375215233780e+00
6.489673329999999796e-01 -4.425005308820960437e+00
6.665765059999999576e-01 -4.804578365839685006e+00
6.841856800000000183e-01 -5.332340628350728196e+00
7.017948539999999680e-01 -5.651854720956393408e+00
7.194040269999999460e-01 -5.428680167067987838e+00
7.370132010000000067e-01 -5.310875119568859049e+00
7.546223749999999564e-01 -5.059608796894561777e+00
7.722315490000000171e-01 -4.692936250171872103e+00
7.898407219999999951e-01 -4.288288539668233312e+00
8.074498959999999448e-01 -3.880956971508098263e+00
8.250590700000000055e-01 -3.390057870320283939e+00
8.426682429999999835e-01 -3.022943887743082314e+00
8.602774170000000442e-01 -2.807321887510457969e+00
8.778865909999999939e-01 -2.729435290797432856e+00
8.954957650000000546e-01 -2.740398127659791072e+00
9.131049380000000326e-01 -2.743287409411095723e+00
9.307141119999999823e-01 -2.717463173160219014e+00
9.483232860000000430e-01 -2.695672045780383996e+00
9.659324590000000210e-01 -2.617221911646677057e+00
9.835416329999999707e-01 -2.506610439220970932e+00
1.001150806999999920e+00 -2.363793403656558212e+00
1.018759981000000092e+00 -2.241615500463101540e+00
1.036369153999999959e+00 -2.047054476286330527e+00
1.053978327999999909e+00 -1.922834975770012278e+00
1.071587502000000081e+00 -1.804760904280371392e+00
1.089196674999999948e+00 -1.783940919297553052e+00
1.106805848999999897e+00 -1.614730606536731727e+00
1.124415023000000069e+00 -1.624394158822624945e+00
1.142024197000000019e+00 -1.475152636230181002e+00
1.159633370000000108e+00 -1.458457050172434322e+00
1.177242544000000057e+00 -1.482256130899799018e+00
1.194851718000000007e+00 -1.357389872458067970e+00
1.212460891000000096e+00 -1.288282973791453401e+00
1.230070065000000046e+00 -1.265377512507647850e+00
1.247679238999999995e+00 -1.164787072608479690e+00
1.265288412999999945e+00 -1.194369876397328056e+00
1.282897586000000034e+00 -1.049660972913198265e+00
1.300506759999999984e+00 -1.045559350048272051e+00
1.318115933999999934e+00 -1.026670588774592829e+00
1.335725107000000023e+00 -9.990023566161596591e-01
1.353334280999999972e+00 -9.497590448558170806e-01
1.370943454999999922e+00 -9.994002313064136445e-01
1.388552629000000094e+00 -1.051904365977673450e+00
1.406161801999999961e+00 -9.078253503098281385e-01
1.423770975999999910e+00 -9.772382861274166999e-01
1.441380150000000082e+00 -9.683739529438213367e-01
1.458989322999999949e+00 -8.918508669208655704e-01
1.476598496999999899e+00 -8.350682161738021136e-01
1.494207671000000071e+00 -8.870253185399619156e-01
1.511816845000000020e+00 -7.705373963175681240e-01
1.529426018000000109e+00 -8.374926279245471505e-01
1.547035192000000059e+00 -7.615713083174604492e-01
1.564644366000000009e+00 -7.784946956600364842e-01
1.582253539000000098e+00 -7.063126562618613491e-01
1.599862713000000047e+00 -6.691688340630044252e-01
1.617471886999999997e+00 -6.831726315528676707e-01
1.635081060999999947e+00 -6.599003481825498341e-01
1.652690234000000036e+00 -6.433910569997962625e-01
1.670299407999999985e+00 -6.142578046670301717e-01
1.687908581999999935e+00 -5.970156557295851485e-01
1.705517755000000024e+00 -5.622683575618800944e-01
1.723126928999999974e+00 -5.734686366765266996e-01
1.740736102999999924e+00 -5.690297298015920546e-01
1.758345277000000095e+00 -5.535753295611520741e-01
1.775954449999999962e+00 -5.509831393590900461e-01
1.793563623999999912e+00 -5.241023830353626067e-01
1.811172798000000084e+00 -5.775721306211529793e-01
1.828781970999999951e+00 -4.899243035399329926e-01
1.846391144999999900e+00 -4.426907930423347182e-01
1.864000319000000072e+00 -4.025302964771277914e-01
1.881609493000000022e+00 -2.934681861011299020e-01
1.899218666000000111e+00 -3.555786788086763295e-01
1.916827840000000061e+00 -2.980057718559869784e-01
1.934437014000000010e+00 -2.651416508755310986e-01
1.952046187000000099e+00 -2.154778790341005390e-01
1.969655361000000049e+00 -3.377085038054197241e-01
1.987264534999999999e+00 -2.171953213118307247e-01
2.004873708999999948e+00 -2.274968867981357334e-01
2.022482881999999815e+00 -2.432077611431324726e-01
2.040092056000000209e+00 -2.601189144904836326e-01
2.057701230000000159e+00 -2.249886713192452703e-01
2.075310403000000026e+00 -2.308988601757846482e-01
2.092919576999999975e+00 -1.569412817369091329e-01
2.110528750999999925e+00 -1.027372666896795295e-01
2.128137924999999875e+00 -5.319513960714772338e-02
2.145747098000000186e+00 -6.555522279105119310e-02
2.163356272000000136e+00 -8.160729145712153354e-02
2.180965446000000085e+00 -3.447378964900593701e-02
2.198574618999999952e+00 -7.899455646727915337e-02
2.216183792999999902e+00 -5.888923831570025413e-03
2.233792966999999852e+00 9.603288643482343900e-02
2.251402140999999801e+00 1.104130294983995952e-01
2.269011314000000112e+00 7.415586268366425315e-02
2.286620488000000062e+00 3.777959379305428911e-02
2.304229662000000012e+00 9.104876020199270670e-02
2.321838834999999879e+00 6.837502767394454395e-02
2.339448008999999828e+00 -1.138060005041907630e-02
2.357057182999999778e+00 1.638372051455974088e-01
2.374666357000000172e+00 1.345243392335682131e-01
2.392275530000000039e+00 1.177109784400904857e-01
2.409884703999999989e+00 1.527626540957065515e-01
2.427493877999999938e+00 1.838417475269054080e-01
2.445103050999999805e+00 1.384906739753546390e-01
2.462712225000000199e+00 1.426399111109510898e-01
2.480321399000000149e+00 1.408144924493832661e-01
2.497930573000000098e+00 1.250580039434687762e-01
2.515539745999999965e+00 9.189148324748686036e-02
2.533148919999999915e+00 5.429421547091095590e-02
2.550758093999999865e+00 5.934630686089192864e-02
2.568367267000000176e+00 -6.833171791718939403e-03
2.585976441000000126e+00 7.389249249086304872e-02
2.603585615000000075e+00 1.205627414410059828e-02
2.621194789000000025e+00 -1.877522333968784096e-02
2.638803961999999892e+00 5.272998163469821975e-02
2.656413135999999842e+00 5.834256167256768322e-02
2.674022309999999791e+00 1.036385335078833236e-01
2.691631483000000102e+00 1.544212245683347362e-01
2.709240657000000052e+00 1.230667823147548745e-01
2.726849831000000002e+00 1.479256001610096405e-01
2.744459004999999951e+00 1.014098987396394591e-01
2.762068177999999818e+00 6.360139719455659701e-02
2.779677352000000212e+00 2.742385741541397692e-02
2.797286526000000162e+00 9.504477994391180573e-02
2.814895699000000029e+00 8.190634930830142935e-02
2.832504872999999979e+00 1.793871350476194948e-02
2.850114046999999928e+00 -1.912019634785906419e-01
2.867723220999999878e+00 -2.324841128434798065e-01
2.885332394000000189e+00 3.031993749821317863e-01
2.902941568000000139e+00 1.404194311556047126e+00
2.920550742000000088e+00 3.662527219503306952e+00
2.938159914999999955e+00 7.813876519439588719e+00
2.955769088999999905e+00 1.790563226171512667e+01
2.973378262999999855e+00 3.737161940245282921e+01
2.990987436999999804e+00 nan
3.008596610000000116e+00 nan
3.026205784000000065e+00 nan
3.043814958000000015e+00 nan
3.061424130999999882e+00 nan
3.079033304999999832e+00 nan
3.096642478999999781e+00 nan
3.114251653000000175e+00 nan
3.131860826000000042e+00 nan
3.149469999999999992e+00 nan
