6.786459999999999715e-02 nan
8.547377400000000236e-02 nan
1.030829469999999942e-01 nan
1.206921209999999994e-01 nan
1.383012949999999908e-01 nan
1.559104689999999960e-01 nan
1.735196420000000017e-01 nan
1.911288160000000069e-01 nan
2.087379900000000121e-01 nan
2.263471629999999901e-01 nan
2.439563369999999953e-01 2.220888367269582986e+01
2.615655109999999728e-01 -7.379965101909839120e+00
2.791746849999999780e-01 -1.843475860816242928e+01
2.967838580000000115e-01 -1.463928493873604886e+01
3.143930320000000167e-01 -1.408813409668925054e+01
3.320022060000000219e-01 -1.950532611843540920e+01
3.496113789999999999e-01 -1.880537870699926017e+01
3.672205530000000051e-01 -1.070319101589477739e+01
3.848297270000000103e-01 3.401085927826841271e-01
4.024389010000000155e-01 3.585005030605380227e+00
4.200480739999999935e-01 8.594652922672914030e-01
4.376572479999999987e-01 -2.423078481582219723e+00
4.552664220000000039e-01 -5.648368411808132095e+00
4.728755949999999819e-01 -7.881869171885696801e+00
4.904847689999999871e-01 -9.158460948328922768e+00
5.080939429999999923e-01 -9.541088827234975867e+00
5.257031170000000531e-01 -9.206390778348229276e+00
5.433122900000000310e-01 -8.714322855056025219e+00
5.609214639999999807e-01 -8.293384717321604427e+00
5.785306380000000415e-01 -7.621685122202435991e+00
5.961398110000000194e-01 -6.511983336101490494e+00
6.137489849999999691e-01 -5.302229735782976405e+00
6.313581590000000299e-01 -4.666012061995211013e+00
6.489673329999999796e-01 -4.749016396564531561e+00
6.665765059999999576e-01 -5.120671997188569691e+00
6.841856800000000183e-01 -5.630521505025978257e+00
7.017948539999999680e-01 -5.929038241083620875e+00
7.194040269999999460e-01 -5.691081720232876506e+00
7.370132010000000067e-01 -5.546483937354214078e+00
7.546223749999999564e-01 -5.343149518597044789e+00
7.722315490000000171e-01 -5.011217735947205654e+00
7.898407219999999951e-01 -4.594375596261240702e+00
8.074498959999999448e-01 -4.203552017844724986e+00
8.250590700000000055e-01 -3.745819014932155966e+00
8.426682429999999835e-01 -3.378747506322664407e+00
8.602774170000000442e-01 -3.185947053531172912e+00
8.778865909999999939e-01 -3.132017725322242541e+00
8.954957650000000546e-01 -3.097776804076950441e+00
9.131049380000000326e-01 -3.074925642064783915e+00
9.307141119999999823e-01 -3.064218684205837206e+00
9.483232860000000430e-01 -3.002037119254215014e+00
9.659324590000000210e-01 -2.889756517259996826e+00
9.835416329999999707e-01 -2.757628506971226301e+00
1.001150806999999920e+00 -2.626747425814855319e+00
1.018759981000000092e+00 -2.498578040627627672e+00
1.036369153999999959e+00 -2.335349954293395314e+00
1.053978327999999909e+00 -2.200308870953946894e+00
1.071587502000000081e+00 -2.125245770869966577e+00
1.089196674999999948e+00 -2.075969633739983777e+00
1.106805848999999897e+00 -1.986490538069851652e+00
1.124415023000000069e+00 -1.974930384351416990e+00
1.142024197000000019e+00 -1.888279876403981206e+00
1.159633370000000108e+00 -1.861691737028564830e+00
1.177242544000000057e+00 -1.872572215506671967e+00
1.194851718000000007e+00 -1.786201762324576947e+00
1.212460891000000096e+00 -1.735999805306310151e+00
1.230070065000000046e+00 -1.688844489114678993e+00
1.247679238999999995e+00 -1.577495091014903039e+00
1.265288412999999945e+00 -1.550835358810406461e+00
1.282897586000000034e+00 -1.453733501727693778e+00
1.300506759999999984e+00 -1.412969669481611845e+00
1.318115933999999934e+00 -1.346579891320899947e+00
1.335725107000000023e+00 -1.260728241337165656e+00
1.353334280999999972e+00 -1.200021317372904406e+00
1.370943454999999922e+00 -1.204799421724082720e+00
1.388552629000000094e+00 -1.215096745909033160e+00
1.406161801999999961e+00 -1.123915764932228001e+00
1.423770975999999910e+00 -1.138647016952742064e+00
1.441380150000000082e+00 -1.083865009874358520e+00
1.458989322999999949e+00 -1.034785808173573685e+00
1.476598496999999899e+00 -9.913106080790434760e-01
1.494207671000000071e+00 -1.023299784809221791e+00
1.511816845000000020e+00 -9.470061054859151284e-01
1.529426018000000109e+00 -9.886970358332938247e-01
1.547035192000000059e+00 -9.069869952005227276e-01
1.564644366000000009e+00 -8.600155775074789233e-01
1.582253539000000098e+00 -8.131019862447921298e-01
1.599862713000000047e+00 -8.026548425075112903e-01
1.617471886999999997e+00 -7.717559631267469911e-01
1.635081060999999947e+00 -7.488298836877582687e-01
1.652690234000000036e+00 -7.304458031416842800e-01
1.670299407999999985e+00 -6.495302002002105723e-01
1.687908581999999935e+00 -6.259725382352172574e-01
1.705517755000000024e+00 -6.237673528668850054e-01
1.723126928999999974e+00 -5.932010872932771406e-01
1.740736102999999924e+00 -5.783374137527701464e-01
1.758345277000000095e+00 -5.845075887099504541e-01
1.775954449999999962e+00 -5.011133450540512513e-01
1.793563623999999912e+00 -5.008977066351683050e-01
1.811172798000000084e+00 -5.080743276971233513e-01
1.828781970999999951e+00 -4.281157383414537776e-01
1.846391144999999900e+00 -3.702025588601820516e-01
1.864000319000000072e+00 -3.611011993742145876e-01
1.881609493000000022e+00 -2.686022554554909902e-01
1.899218666000000111e+00 -3.571096572307368433e-01
1.916827840000000061e+00 -3.087384326791529077e-01
1.934437014000000010e+00 -2.657427516449963889e-01
1.952046187000000099e+00 -2.948727369541863652e-01
1.969655361000000049e+00 -3.039182030330707107e-01
1.987264534999999999e+00 -2.491547288996649456e-01
2.004873708999999948e+00 -2.410048626222085488e-01
2.022482881999999815e+00 -2.074276867874083052e-01
2.040092056000000209e+00 -1.944048424635305139e-01
2.057701230000000159e+00 -1.949212626007899019e-01
2.075310403000000026e+00 -1.544946417164574370e-01
2.092919576999999975e+00 -8.477170162699820821e-02
2.110528750999999925e+00 -6.898114195315585562e-02
2.128137924999999875e+00 -2.384962329836781691e-02
2.145747098000000186e+00 -8.347248135642360012e-03
2.163356272000000136e+00 -8.008249617478924165e-03
2.180965446000000085e+00 -2.117355433634315887e-02
2.198574618999999952e+00 -5.490456804123766688e-02
2.216183792999999902e+00 -6.807793995621835847e-02
2.233792966999999852e+00 5.880888625672398007e-02
2.251402140999999801e+00 5.053408661131086888e-02
2.269011314000000112e+00 2.984234148153319666e-02
2.286620488000000062e+00 2.000455502059494961e-02
2.304229662000000012e+00 3.245054785469392300e-02
2.321838834999999879e+00 2.166814301697428391e-02
2.339448008999999828e+00 3.551553728480527639e-02
2.357057182999999778e+00 1.155880252061365354e-01
2.374666357000000172e+00 1.177292416163489008e-01
2.392275530000000039e+00 9.891234288544481501e-02
2.409884703999999989e+00 1.235057264000261057e-01
2.427493877999999938e+00 1.526089951276112799e-01
2.445103050999999805e+00 1.244543945020701869e-01
2.462712225000000199e+00 8.843271354026782660e-02
2.480321399000000149e+00 1.360176119289455698e-01
2.497930573000000098e+00 1.242941744223706735e-01
2.515539745999999965e+00 1.228434307467800579e-01
2.533148919999999915e+00 1.230777427836251547e-01
2.550758093999999865e+00 1.190705770713229583e-01
2.568367267000000176e+00 9.637844017985486289e-02
2.585976441000000126e+00 1.391065067316290538e-01
2.603585615000000075e+00 1.344314099718388889e-01
2.621194789000000025e+00 8.552559069594067864e-02
2.638803961999999892e+00 1.583697277353977029e-01
2.656413135999999842e+00 1.539054902334981989e-01
2.674022309999999791e+00 1.457471986435798783e-01
2.691631483000000102e+00 1.657800540493248320e-01
2.709240657000000052e+00 1.538809682774662235e-01
2.726849831000000002e+00 1.424267578822302482e-01
2.744459004999999951e+00 1.132272467259305415e-01
2.762068177999999818e+00 6.674832177147393963e-02
2.779677352000000212e+00 8.616572071755257411e-02
2.797286526000000162e+00 1.354038834405884018e-01
2.814895699000000029e+00 1.963842610269388445e-01
2.832504872999999979e+00 2.265809193298622404e-01
2.850114046999999928e+00 1.856813153961667240e-02
2.867723220999999878e+00 6.941648002396050288e-02
2.885332394000000189e+00 5.662131659067064504e-01
2.902941568000000139e+00 1.717669467271242922e+00
2.920550742000000088e+00 3.994433660946977938e+00
2.938159914999999955e+00 8.174333835458536868e+00
2.955769088999999905e+00 1.851495443358573922e+01
2.973378262999999855e+00 3.828623718522025854e+01
2.990987436999999804e+00 nan
3.008596610000000116e+00 nan
3.026205784000000065e+00 nan
3.043814958000000015e+00 nan
3.061424130999999882e+00 nan
3.079033304999999832e+00 nan
3.096642478999999781e+00 nan
3.114251653000000175e+00 nan
3.131860826000000042e+00 nan
3.149469999999999992e+00 nan
