6.786459999999999715e-02 nan
8.547377400000000236e-02 nan
1.030829469999999942e-01 nan
1.206921209999999994e-01 nan
1.383012949999999908e-01 nan
1.559104689999999960e-01 nan
1.735196420000000017e-01 nan
1.911288160000000069e-01 nan
2.087379900000000121e-01 nan
2.263471629999999901e-01 nan
2.439563369999999953e-01 2.289235662467669385e+01
2.615655109999999728e-01 -5.944043746593962396e+00
2.791746849999999780e-01 -1.628146139081479760e+01
2.967838580000000115e-01 -1.231634725349053383e+01
3.143930320000000167e-01 -1.301320959115417075e+01
3.320022060000000219e-01 -1.869100102803921004e+01
3.496113789999999999e-01 -1.827975758109885618e+01
3.672205530000000051e-01 -1.034368951480723808e+01
3.848297270000000103e-01 5.793889292155434134e-01
4.024389010000000155e-01 3.705623114937584006e+00
4.200480739999999935e-01 9.989631014989122093e-01
4.376572479999999987e-01 -2.249048229666648524e+00
4.552664220000000039e-01 -5.579251941712264795e+00
4.728755949999999819e-01 -7.797976519289942843e+00
4.904847689999999871e-01 -9.116788723506806136e+00
5.080939429999999923e-01 -9.475064225207892932e+00
5.257031170000000531e-01 -9.197586568061970169e+00
5.433122900000000310e-01 -8.676775287365082079e+00
5.609214639999999807e-01 -8.184806452975742275e+00
5.785306380000000415e-01 -7.496017633503008426e+00
5.961398110000000194e-01 -6.326640577631646778e+00
6.137489849999999691e-01 -5.223635513517223217e+00
6.313581590000000299e-01 -4.606893968915944271e+00
6.489673329999999796e-01 -4.706434831640809335e+00
6.665765059999999576e-01 -5.135190681138716684e+00
6.841856800000000183e-01 -5.693426092099819869e+00
7.017948539999999680e-01 -5.961351375754613713e+00
7.194040269999999460e-01 -5.740448134473499664e+00
7.370132010000000067e-01 -5.586694650602559875e+00
7.546223749999999564e-01 -5.355899643124509169e+00
7.722315490000000171e-01 -4.907428147384766959e+00
7.898407219999999951e-01 -4.496958733396656527e+00
8.074498959999999448e-01 -4.108877164557647177e+00
8.250590700000000055e-01 -3.562942552603903579e+00
8.426682429999999835e-01 -3.210598241843591438e+00
8.602774170000000442e-01 -2.988122260246928619e+00
8.778865909999999939e-01 -2.901797660698246517e+00
8.954957650000000546e-01 -2.895379634811561687e+00
9.131049380000000326e-01 -2.818187022837779665e+00
9.307141119999999823e-01 -2.805094640428688280e+00
9.483232860000000430e-01 -2.768439070505422706e+00
9.659324590000000210e-01 -2.718735055123332245e+00
9.835416329999999707e-01 -2.627435012722827423e+00
1.001150806999999920e+00 -2.469130724795260079e+00
1.018759981000000092e+00 -2.368919514263712500e+00
1.036369153999999959e+00 -2.196799684432164668e+00
1.053978327999999909e+00 -2.050387324803061517e+00
1.071587502000000081e+00 -1.968491680968966762e+00
1.089196674999999948e+00 -1.923456727292904844e+00
1.106805848999999897e+00 -1.817015199788631463e+00
1.124415023000000069e+00 -1.897949839446450682e+00
1.142024197000000019e+00 -1.660994430506260500e+00
1.159633370000000108e+00 -1.643649005361538684e+00
1.177242544000000057e+00 -1.643166566757592761e+00
1.194851718000000007e+00 -1.474191824851089905e+00
1.212460891000000096e+00 -1.399931703267611738e+00
1.230070065000000046e+00 -1.399705160770068346e+00
1.247679238999999995e+00 -1.191692631903620736e+00
1.265288412999999945e+00 -1.261149070349492973e+00
1.282897586000000034e+00 -1.059741348115895931e+00
1.300506759999999984e+00 -1.100246487323101263e+00
1.318115933999999934e+00 -1.147647672816525244e+00
1.335725107000000023e+00 -1.030773747962783204e+00
1.353334280999999972e+00 -9.803064733187412116e-01
1.370943454999999922e+00 -9.750894556211733288e-01
1.388552629000000094e+00 -1.080009433680800157e+00
1.406161801999999961e+00 -8.658668400962845624e-01
1.423770975999999910e+00 -9.461921684872933724e-01
1.441380150000000082e+00 -8.728759538522155026e-01
1.458989322999999949e+00 -8.013493880428548266e-01
1.476598496999999899e+00 -6.862383182646532020e-01
1.494207671000000071e+00 -7.324187604806517982e-01
1.511816845000000020e+00 -6.989380816260890583e-01
1.529426018000000109e+00 -6.897178570965287747e-01
1.547035192000000059e+00 -5.835252152180068208e-01
1.564644366000000009e+00 -7.154303372183434817e-01
1.582253539000000098e+00 -5.844449035521641633e-01
1.599862713000000047e+00 -5.477974980133772931e-01
1.617471886999999997e+00 -6.153173077765998755e-01
1.635081060999999947e+00 -5.269570298119603535e-01
1.652690234000000036e+00 -5.062431027169367326e-01
1.670299407999999985e+00 -4.639419606204207014e-01
1.687908581999999935e+00 -4.134018134601049610e-01
1.705517755000000024e+00 -3.078885474507480069e-01
1.723126928999999974e+00 -3.843166066857648389e-01
1.740736102999999924e+00 -3.790707502870240830e-01
1.758345277000000095e+00 -4.102211127818584657e-01
1.775954449999999962e+00 -3.611874149580494020e-01
1.793563623999999912e+00 -4.149211539702193363e-01
1.811172798000000084e+00 -4.105501926318133599e-01
1.828781970999999951e+00 -3.548734296968731883e-01
1.846391144999999900e+00 -3.061917369249158583e-01
1.864000319000000072e+00 -3.000921643327743027e-01
1.881609493000000022e+00 -2.070476629997877183e-01
1.899218666000000111e+00 -2.452435024270798181e-01
1.916827840000000061e+00 -2.321506357598224213e-01
1.934437014000000010e+00 -2.387027940244479396e-01
1.952046187000000099e+00 -2.104420199864378560e-01
1.969655361000000049e+00 -3.768883658456338992e-01
1.987264534999999999e+00 -2.672539509129983060e-01
2.004873708999999948e+00 -2.289924660321922545e-01
2.022482881999999815e+00 -1.820358044216199289e-01
2.040092056000000209e+00 -2.698188449978147219e-01
2.057701230000000159e+00 -1.954008315257524941e-01
2.075310403000000026e+00 -2.201819208537330042e-01
2.092919576999999975e+00 -1.435091667413352923e-01
2.110528750999999925e+00 -1.632370882861557959e-01
2.128137924999999875e+00 -1.510237728605652308e-01
2.145747098000000186e+00 -1.159361951311019823e-01
2.163356272000000136e+00 -1.022292188370848010e-01
2.180965446000000085e+00 -1.704188730573292787e-01
2.198574618999999952e+00 -1.027901587225947821e-01
2.216183792999999902e+00 -6.930691798982024920e-02
2.233792966999999852e+00 1.483069018571825382e-02
2.251402140999999801e+00 1.515934932639204646e-01
2.269011314000000112e+00 5.170561321639866037e-02
2.286620488000000062e+00 5.268287071223909379e-02
2.304229662000000012e+00 1.214248982535117705e-01
2.321838834999999879e+00 1.995836810621192114e-01
2.339448008999999828e+00 -3.046174179867477960e-02
2.357057182999999778e+00 2.959629798372205300e-01
2.374666357000000172e+00 2.258450855674212221e-01
2.392275530000000039e+00 1.290655727184955026e-01
2.409884703999999989e+00 1.619007497001980767e-01
2.427493877999999938e+00 1.343296030883784908e-01
2.445103050999999805e+00 1.375237426427595722e-01
2.462712225000000199e+00 1.367296089485705579e-01
2.480321399000000149e+00 1.961589529113325625e-01
2.497930573000000098e+00 1.360054591474977315e-01
2.515539745999999965e+00 1.714958938219126594e-01
2.533148919999999915e+00 2.357574969783406971e-01
2.550758093999999865e+00 2.023330022709970422e-01
2.568367267000000176e+00 1.143717381290159096e-01
2.585976441000000126e+00 1.833787113355924703e-01
2.603585615000000075e+00 8.093938233167108365e-02
2.621194789000000025e+00 2.507936068372629279e-02
2.638803961999999892e+00 6.918149197282374985e-02
2.656413135999999842e+00 3.040153090286068505e-02
2.674022309999999791e+00 8.276545163568727048e-02
2.691631483000000102e+00 1.412645365777969175e-01
2.709240657000000052e+00 1.155108395641164520e-01
2.726849831000000002e+00 1.760416199555727701e-01
2.744459004999999951e+00 7.766321188518077179e-02
2.762068177999999818e+00 7.394066738991966758e-02
2.779677352000000212e+00 1.172278288362313958e-01
2.797286526000000162e+00 1.751825019148007812e-01
2.814895699000000029e+00 1.558940630909759761e-01
2.832504872999999979e+00 7.524654198221014667e-02
2.850114046999999928e+00 -7.793759291099533471e-02
2.867723220999999878e+00 -4.667952323622870381e-02
2.885332394000000189e+00 5.968127466810102533e-01
2.902941568000000139e+00 1.742761165831648640e+00
2.920550742000000088e+00 4.108185116737910647e+00
2.938159914999999955e+00 8.152918915225626506e+00
2.955769088999999905e+00 1.801043971683366607e+01
2.973378262999999855e+00 3.693699977671278134e+01
2.990987436999999804e+00 nan
3.008596610000000116e+00 nan
3.026205784000000065e+00 nan
3.043814958000000015e+00 nan
3.061424130999999882e+00 nan
3.079033304999999832e+00 nan
3.096642478999999781e+00 nan
3.114251653000000175e+00 nan
3.131860826000000042e+00 nan
3.149469999999999992e+00 nan
