6.786459999999999715e-02 nan
8.547377400000000236e-02 nan
1.030829469999999942e-01 nan
1.206921209999999994e-01 nan
1.383012949999999908e-01 nan
1.559104689999999960e-01 nan
1.735196420000000017e-01 nan
1.911288160000000069e-01 nan
2.087379900000000121e-01 nan
2.263471629999999901e-01 nan
2.439563369999999953e-01 2.336544448715912736e+01
2.615655109999999728e-01 -5.372466257376185439e+00
2.791746849999999780e-01 -1.553819910278832239e+01
2.967838580000000115e-01 -1.149865334108578452e+01
3.143930320000000167e-01 -1.246636326834198272e+01
3.320022060000000219e-01 -1.824228718411276517e+01
3.496113789999999999e-01 -1.788344997377640055e+01
3.672205530000000051e-01 -1.007506545871231829e+01
3.848297270000000103e-01 8.465942372202164279e-01
4.024389010000000155e-01 3.918502051954749987e+00
4.200480739999999935e-01 1.239727393685953416e+00
4.376572479999999987e-01 -1.991099291098940682e+00
4.552664220000000039e-01 -5.247847656203489919e+00
4.728755949999999819e-01 -7.443965320483997061e+00
4.904847689999999871e-01 -8.730832945338965700e+00
5.080939429999999923e-01 -9.135129268242579315e+00
5.257031170000000531e-01 -8.800069367937210174e+00
5.433122900000000310e-01 -8.359980187694567633e+00
5.609214639999999807e-01 -7.914516151950572009e+00
5.785306380000000415e-01 -7.255589619735744122e+00
5.961398110000000194e-01 -6.079071295079579329e+00
6.137489849999999691e-01 -5.059637691689399475e+00
6.313581590000000299e-01 -4.486367455755225109e+00
6.489673329999999796e-01 -4.527702304134844979e+00
6.665765059999999576e-01 -4.907225021197060499e+00
6.841856800000000183e-01 -5.513004209642122788e+00
7.017948539999999680e-01 -5.792278799621367824e+00
7.194040269999999460e-01 -5.482755734074281406e+00
7.370132010000000067e-01 -5.331349538367859964e+00
7.546223749999999564e-01 -5.180184570267627464e+00
7.722315490000000171e-01 -4.705657092928507979e+00
7.898407219999999951e-01 -4.273086449904482720e+00
8.074498959999999448e-01 -3.878129958718279369e+00
8.250590700000000055e-01 -3.384158492009415653e+00
8.426682429999999835e-01 -3.037799761366290596e+00
8.602774170000000442e-01 -2.838634665760658038e+00
8.778865909999999939e-01 -2.720933734203597965e+00
8.954957650000000546e-01 -2.789364937126350696e+00
9.131049380000000326e-01 -2.627846729991585306e+00
9.307141119999999823e-01 -2.650175290486124879e+00
9.483232860000000430e-01 -2.568485479003154381e+00
9.659324590000000210e-01 -2.478180497958877737e+00
9.835416329999999707e-01 -2.338302529444696631e+00
1.001150806999999920e+00 -2.176332058286682525e+00
1.018759981000000092e+00 -2.056722218269531055e+00
1.036369153999999959e+00 -1.923765333531939348e+00
1.053978327999999909e+00 -1.652779035273162833e+00
1.071587502000000081e+00 -1.552259146484864516e+00
1.089196674999999948e+00 -1.561722246970148831e+00
1.106805848999999897e+00 -1.516172429995830129e+00
1.124415023000000069e+00 -1.599566341617119747e+00
1.142024197000000019e+00 -1.315902164981654465e+00
1.159633370000000108e+00 -1.342203027385771463e+00
1.177242544000000057e+00 -1.301217095905322196e+00
1.194851718000000007e+00 -1.112579793846613541e+00
1.212460891000000096e+00 -1.042220095947609337e+00
1.230070065000000046e+00 -1.123467813654780656e+00
1.247679238999999995e+00 -9.364319187102800868e-01
1.265288412999999945e+00 -8.764090448395656097e-01
1.282897586000000034e+00 -7.886319395477165983e-01
1.300506759999999984e+00 -8.562464242201137665e-01
1.318115933999999934e+00 -8.623152312456987545e-01
1.335725107000000023e+00 -7.408181922373415773e-01
1.353334280999999972e+00 -7.337311215131130382e-01
1.370943454999999922e+00 -6.259060810196324098e-01
1.388552629000000094e+00 -7.079444418362150770e-01
1.406161801999999961e+00 -5.601462087775104237e-01
1.423770975999999910e+00 -5.233169020887871170e-01
1.441380150000000082e+00 -5.167613103394970153e-01
1.458989322999999949e+00 -4.350930169532247760e-01
1.476598496999999899e+00 -2.841971653162538303e-01
1.494207671000000071e+00 -3.437458777848689806e-01
1.511816845000000020e+00 -3.506632583530588931e-01
1.529426018000000109e+00 -2.766822027164828057e-01
1.547035192000000059e+00 -1.321219429423088343e-01
1.564644366000000009e+00 -3.027006656689898989e-01
1.582253539000000098e+00 -1.617085641643924987e-01
1.599862713000000047e+00 -1.063449593280800798e-01
1.617471886999999997e+00 -2.296306600570297007e-01
1.635081060999999947e+00 -2.223196203000377125e-01
1.652690234000000036e+00 -1.501909999863819678e-01
1.670299407999999985e+00 -1.924862111984566582e-01
1.687908581999999935e+00 -6.379687153743063277e-02
1.705517755000000024e+00 9.900262415900584756e-03
1.723126928999999974e+00 1.090835179279636691e-02
1.740736102999999924e+00 -3.803890005666588081e-02
1.758345277000000095e+00 -1.331906401603504264e-01
1.775954449999999962e+00 -3.938380555526421745e-02
1.793563623999999912e+00 -7.991602262739760931e-02
1.811172798000000084e+00 -6.194942387543633799e-02
1.828781970999999951e+00 3.429636047481565697e-02
1.846391144999999900e+00 4.536925481513520708e-02
1.864000319000000072e+00 8.834630451186598066e-02
1.881609493000000022e+00 1.191577960738854358e-01
1.899218666000000111e+00 6.926966261757527832e-02
1.916827840000000061e+00 3.811019852408747965e-02
1.934437014000000010e+00 1.759446809219795682e-01
1.952046187000000099e+00 1.240218019271281946e-01
1.969655361000000049e+00 -8.275759565305662591e-02
1.987264534999999999e+00 2.601830224833179273e-04
2.004873708999999948e+00 -3.550037482074586137e-02
2.022482881999999815e+00 5.521436268790580471e-02
2.040092056000000209e+00 -1.270194222539160478e-01
2.057701230000000159e+00 -1.057166863380487598e-01
2.075310403000000026e+00 -1.116774634254547038e-01
2.092919576999999975e+00 -1.256962508623438168e-01
2.110528750999999925e+00 -1.234924760642357455e-01
2.128137924999999875e+00 -1.883449246256709841e-01
2.145747098000000186e+00 -2.231931460573832737e-01
2.163356272000000136e+00 -1.901216329797748017e-01
2.180965446000000085e+00 -2.455082231712992780e-01
2.198574618999999952e+00 -1.317400660800736034e-01
2.216183792999999902e+00 -1.358216896768560389e-01
2.233792966999999852e+00 1.132196791003252656e-01
2.251402140999999801e+00 1.939306574665344840e-01
2.269011314000000112e+00 1.487852799296618400e-01
2.286620488000000062e+00 7.739996189522102554e-02
2.304229662000000012e+00 1.388935701747939788e-01
2.321838834999999879e+00 1.866208679134118142e-01
2.339448008999999828e+00 -1.602983167575686707e-01
2.357057182999999778e+00 2.264793751708751302e-01
2.374666357000000172e+00 7.293642890193297035e-02
2.392275530000000039e+00 9.021076678176953578e-02
2.409884703999999989e+00 1.015092766649487999e-01
2.427493877999999938e+00 1.022422909521232270e-01
2.445103050999999805e+00 1.355927179529210491e-01
2.462712225000000199e+00 1.064257342113386073e-01
2.480321399000000149e+00 8.595499204993117814e-02
2.497930573000000098e+00 6.871471125963779514e-02
2.515539745999999965e+00 2.855704352906940358e-02
2.533148919999999915e+00 7.459381060553127440e-02
2.550758093999999865e+00 2.380236460791351760e-02
2.568367267000000176e+00 -4.434093721699028379e-02
2.585976441000000126e+00 3.579057002936991694e-02
2.603585615000000075e+00 7.524932339375567381e-03
2.621194789000000025e+00 -2.789394246283549705e-02
2.638803961999999892e+00 1.159711164419192642e-01
2.656413135999999842e+00 -1.150159210574841495e-02
2.674022309999999791e+00 1.088193955274014968e-01
2.691631483000000102e+00 1.573635184059014591e-01
2.709240657000000052e+00 1.434993307990239941e-01
2.726849831000000002e+00 2.785259969610507369e-01
2.744459004999999951e+00 9.775063429126262804e-02
2.762068177999999818e+00 2.033309340164706214e-01
2.779677352000000212e+00 2.535076458274687639e-01
2.797286526000000162e+00 3.525084418556758692e-01
2.814895699000000029e+00 3.330799179796954945e-01
2.832504872999999979e+00 2.627525503771579451e-01
2.850114046999999928e+00 1.381004340663700702e-01
2.867723220999999878e+00 2.256393457953080883e-01
2.885332394000000189e+00 8.869771556704222348e-01
2.902941568000000139e+00 2.176593897077637507e+00
2.920550742000000088e+00 4.441697927826790959e+00
2.938159914999999955e+00 8.364101071374943075e+00
2.955769088999999905e+00 1.800724366348121563e+01
2.973378262999999855e+00 3.659912136395728055e+01
2.990987436999999804e+00 nan
3.008596610000000116e+00 nan
3.026205784000000065e+00 nan
3.043814958000000015e+00 nan
3.061424130999999882e+00 nan
3.079033304999999832e+00 nan
3.096642478999999781e+00 nan
3.114251653000000175e+00 nan
3.131860826000000042e+00 nan
3.149469999999999992e+00 nan
