6.786459999999999715e-02 nan
8.547377400000000236e-02 nan
1.030829469999999942e-01 nan
1.206921209999999994e-01 nan
1.383012949999999908e-01 nan
1.559104689999999960e-01 nan
1.735196420000000017e-01 nan
1.911288160000000069e-01 nan
2.087379900000000121e-01 nan
2.263471629999999901e-01 nan
2.439563369999999953e-01 2.183450225427275271e+01
2.615655109999999728e-01 -7.294021795921864282e+00
2.791746849999999780e-01 -1.780413373978751679e+01
2.967838580000000115e-01 -1.383337541524403491e+01
3.143930320000000167e-01 -1.404656502833509713e+01
3.320022060000000219e-01 -1.960415325557029931e+01
3.496113789999999999e-01 -1.902670569611477092e+01
3.672205530000000051e-01 -1.100328178001729995e+01
3.848297270000000103e-01 9.049260926045832321e-02
4.024389010000000155e-01 3.466602252098869741e+00
4.200480739999999935e-01 8.721218828008296953e-01
4.376572479999999987e-01 -2.289236204288876309e+00
4.552664220000000039e-01 -5.602249202523157834e+00
4.728755949999999819e-01 -7.814072171163950031e+00
4.904847689999999871e-01 -9.159134304936390691e+00
5.080939429999999923e-01 -9.551997104296948038e+00
5.257031170000000531e-01 -9.279092602667653011e+00
5.433122900000000310e-01 -8.760587708949419294e+00
5.609214639999999807e-01 -8.326115054746452415e+00
5.785306380000000415e-01 -7.633419202301393369e+00
5.961398110000000194e-01 -6.493818925136007891e+00
6.137489849999999691e-01 -5.377789518901646915e+00
6.313581590000000299e-01 -4.740904887734224360e+00
6.489673329999999796e-01 -4.842269165799873321e+00
6.665765059999999576e-01 -5.247080134851845656e+00
6.841856800000000183e-01 -5.739921799054886975e+00
7.017948539999999680e-01 -6.017030058007684090e+00
7.194040269999999460e-01 -5.796772872003717936e+00
7.370132010000000067e-01 -5.664845464387983753e+00
7.546223749999999564e-01 -5.408533004371467001e+00
7.722315490000000171e-01 -5.011371343247084553e+00
7.898407219999999951e-01 -4.593756834215849238e+00
8.074498959999999448e-01 -4.167859758826342187e+00
8.250590700000000055e-01 -3.699047502385823805e+00
8.426682429999999835e-01 -3.334107803088020461e+00
8.602774170000000442e-01 -3.116530096594907207e+00
8.778865909999999939e-01 -3.045592015030614164e+00
8.954957650000000546e-01 -3.050804284822568491e+00
9.131049380000000326e-01 -3.027265202847537751e+00
9.307141119999999823e-01 -3.000675635346507164e+00
9.483232860000000430e-01 -2.966923898966033590e+00
9.659324590000000210e-01 -2.916159713126290853e+00
9.835416329999999707e-01 -2.789797344921044697e+00
1.001150806999999920e+00 -2.618988076331877579e+00
1.018759981000000092e+00 -2.517308343156880568e+00
1.036369153999999959e+00 -2.337009245479350739e+00
1.053978327999999909e+00 -2.231053978756541767e+00
1.071587502000000081e+00 -2.083708560209004190e+00
1.089196674999999948e+00 -2.069076010658342568e+00
1.106805848999999897e+00 -1.919291845612484337e+00
1.124415023000000069e+00 -1.988371066973574131e+00
1.142024197000000019e+00 -1.774063091768834255e+00
1.159633370000000108e+00 -1.816535496859849275e+00
1.177242544000000057e+00 -1.810495759565490914e+00
1.194851718000000007e+00 -1.687925500553085101e+00
1.212460891000000096e+00 -1.579210526331305431e+00
1.230070065000000046e+00 -1.543035314628653509e+00
1.247679238999999995e+00 -1.389963765633783765e+00
1.265288412999999945e+00 -1.404521162323053574e+00
1.282897586000000034e+00 -1.249122114238616632e+00
1.300506759999999984e+00 -1.207160854622163271e+00
1.318115933999999934e+00 -1.219895161162568797e+00
1.335725107000000023e+00 -1.130783466169763329e+00
1.353334280999999972e+00 -1.069873752149824497e+00
1.370943454999999922e+00 -1.077448405046126823e+00
1.388552629000000094e+00 -1.181263492391533276e+00
1.406161801999999961e+00 -9.993431372671608415e-01
1.423770975999999910e+00 -1.085929176967116661e+00
1.441380150000000082e+00 -1.058662431218429845e+00
1.458989322999999949e+00 -1.013292751419111681e+00
1.476598496999999899e+00 -9.425047582176304672e-01
1.494207671000000071e+00 -1.013475731608941999e+00
1.511816845000000020e+00 -9.388782228821455078e-01
1.529426018000000109e+00 -9.719287378854239989e-01
1.547035192000000059e+00 -8.445809923247438178e-01
1.564644366000000009e+00 -9.268681542995231837e-01
1.582253539000000098e+00 -7.898167172471168840e-01
1.599862713000000047e+00 -7.866944244073401649e-01
1.617471886999999997e+00 -8.065429691053829231e-01
1.635081060999999947e+00 -7.276035806452902932e-01
1.652690234000000036e+00 -7.210131674551298886e-01
1.670299407999999985e+00 -6.876273273023798538e-01
1.687908581999999935e+00 -6.279885300894214595e-01
1.705517755000000024e+00 -5.894296162972629816e-01
1.723126928999999974e+00 -6.336854683629198348e-01
1.740736102999999924e+00 -6.077548342447585128e-01
1.758345277000000095e+00 -5.602686660247577777e-01
1.775954449999999962e+00 -5.263142127491455824e-01
1.793563623999999912e+00 -5.697121040278716464e-01
1.811172798000000084e+00 -6.025810240053672828e-01
1.828781970999999951e+00 -5.355477605142269226e-01
1.846391144999999900e+00 -4.681525621173463492e-01
1.864000319000000072e+00 -4.484007963749689907e-01
1.881609493000000022e+00 -3.348765565145335188e-01
1.899218666000000111e+00 -3.801842428749182545e-01
1.916827840000000061e+00 -3.050744655252728421e-01
1.934437014000000010e+00 -3.187278113753642117e-01
1.952046187000000099e+00 -2.575309975774580096e-01
1.969655361000000049e+00 -3.692036395234303825e-01
1.987264534999999999e+00 -2.386276588145967992e-01
2.004873708999999948e+00 -2.157848152997949853e-01
2.022482881999999815e+00 -1.582748636705701983e-01
2.040092056000000209e+00 -2.292270273685552695e-01
2.057701230000000159e+00 -1.979824951420212642e-01
2.075310403000000026e+00 -2.387571612880776684e-01
2.092919576999999975e+00 -1.455581852805210019e-01
2.110528750999999925e+00 -1.383805661826968958e-01
2.128137924999999875e+00 -8.481466761461575743e-02
2.145747098000000186e+00 -8.376211637004260524e-02
2.163356272000000136e+00 -1.118453866148385600e-01
2.180965446000000085e+00 -4.406295958834149928e-02
2.198574618999999952e+00 -3.571907111826533310e-02
2.216183792999999902e+00 1.609780627038759349e-03
2.233792966999999852e+00 7.886440173814790455e-02
2.251402140999999801e+00 1.548680666589561383e-01
2.269011314000000112e+00 9.743590089929554665e-02
2.286620488000000062e+00 6.243846119867058064e-02
2.304229662000000012e+00 1.357702266187885698e-01
2.321838834999999879e+00 1.302286699488810484e-01
2.339448008999999828e+00 -3.518110238739780016e-02
2.357057182999999778e+00 2.374081073096618866e-01
2.374666357000000172e+00 1.541822468377667121e-01
2.392275530000000039e+00 1.153614977755736959e-01
2.409884703999999989e+00 1.738343439797098711e-01
2.427493877999999938e+00 1.253531940487526697e-01
2.445103050999999805e+00 1.003053304407970359e-01
2.462712225000000199e+00 5.043127896799504128e-02
2.480321399000000149e+00 5.396329243131958719e-02
2.497930573000000098e+00 4.729561844426655171e-02
2.515539745999999965e+00 5.609834211453090802e-02
2.533148919999999915e+00 4.418002856220226704e-02
2.550758093999999865e+00 4.521008741972920575e-02
2.568367267000000176e+00 -3.191468383041851098e-02
2.585976441000000126e+00 3.704166713434275948e-02
2.603585615000000075e+00 -5.274566080544573765e-02
2.621194789000000025e+00 -1.325411287436288887e-01
2.638803961999999892e+00 -4.604337336239439082e-02
2.656413135999999842e+00 -7.853343428472214782e-02
2.674022309999999791e+00 -1.928563932187188357e-02
2.691631483000000102e+00 1.321297525862519251e-02
2.709240657000000052e+00 1.266555238930067162e-02
2.726849831000000002e+00 5.186280165614576276e-02
2.744459004999999951e+00 -5.000314893016977180e-02
2.762068177999999818e+00 -6.705985351676702066e-02
2.779677352000000212e+00 -3.395053616240772953e-02
2.797286526000000162e+00 7.348093234498875859e-02
2.814895699000000029e+00 6.786240917308816734e-02
2.832504872999999979e+00 1.349242852754883870e-02
2.850114046999999928e+00 -1.639803327410014333e-01
2.867723220999999878e+00 -1.770569856214549986e-01
2.885332394000000189e+00 4.637106189969451009e-01
2.902941568000000139e+00 1.659328441351672012e+00
2.920550742000000088e+00 3.978271076701915376e+00
2.938159914999999955e+00 8.052553025065801506e+00
2.955769088999999905e+00 1.799350601929305427e+01
2.973378262999999855e+00 3.721265265306865899e+01
2.990987436999999804e+00 nan
3.008596610000000116e+00 nan
3.026205784000000065e+00 nan
3.043814958000000015e+00 nan
3.061424130999999882e+00 nan
3.079033304999999832e+00 nan
3.096642478999999781e+00 nan
3.114251653000000175e+00 nan
3.131860826000000042e+00 nan
3.149469999999999992e+00 nan
