6.786459999999999715e-02 nan
8.547377400000000236e-02 nan
1.030829469999999942e-01 nan
1.206921209999999994e-01 nan
1.383012949999999908e-01 nan
1.559104689999999960e-01 nan
1.735196420000000017e-01 nan
1.911288160000000069e-01 nan
2.087379900000000121e-01 nan
2.263471629999999901e-01 nan
2.439563369999999953e-01 2.318661014517540764e+01
2.615655109999999728e-01 -7.009999779321614000e+00
2.791746849999999780e-01 -1.820924364329714251e+01
2.967838580000000115e-01 -1.445373709586720601e+01
3.143930320000000167e-01 -1.432563169057980623e+01
3.320022060000000219e-01 -1.963685753606226569e+01
3.496113789999999999e-01 -1.879015411062446361e+01
3.672205530000000051e-01 -1.055296978757767512e+01
3.848297270000000103e-01 5.816803805866150867e-01
4.024389010000000155e-01 3.891842533449185737e+00
4.200480739999999935e-01 1.146180881094021942e+00
4.376572479999999987e-01 -2.195396060380240044e+00
4.552664220000000039e-01 -5.589726049216984904e+00
4.728755949999999819e-01 -7.787820839861545608e+00
4.904847689999999871e-01 -9.067303555912918256e+00
5.080939429999999923e-01 -9.400909778823443474e+00
5.257031170000000531e-01 -9.061243350491221094e+00
5.433122900000000310e-01 -8.565157314537103161e+00
5.609214639999999807e-01 -8.157925333815011726e+00
5.785306380000000415e-01 -7.496465729008864542e+00
5.961398110000000194e-01 -6.330925017157543522e+00
6.137489849999999691e-01 -5.181086241025642636e+00
6.313581590000000299e-01 -4.534478884168997581e+00
6.489673329999999796e-01 -4.640161742600756867e+00
6.665765059999999576e-01 -5.011520005136198108e+00
6.841856800000000183e-01 -5.538651194078870077e+00
7.017948539999999680e-01 -5.845043775667953412e+00
7.194040269999999460e-01 -5.627686657678871995e+00
7.370132010000000067e-01 -5.504211776509219334e+00
7.546223749999999564e-01 -5.264031254369285762e+00
7.722315490000000171e-01 -4.889770540176805014e+00
7.898407219999999951e-01 -4.500218139941772222e+00
8.074498959999999448e-01 -4.092435143175553236e+00
8.250590700000000055e-01 -3.629310573426863584e+00
8.426682429999999835e-01 -3.264197781413155752e+00
8.602774170000000442e-01 -3.052836032163469326e+00
8.778865909999999939e-01 -2.991544690983587884e+00
8.954957650000000546e-01 -2.992433801198203014e+00
9.131049380000000326e-01 -3.002369669364878035e+00
9.307141119999999823e-01 -2.955287335206090660e+00
9.483232860000000430e-01 -2.930417915681360341e+00
9.659324590000000210e-01 -2.834401627051576611e+00
9.835416329999999707e-01 -2.716500771823415761e+00
1.001150806999999920e+00 -2.563818997337605765e+00
1.018759981000000092e+00 -2.425371135644017073e+00
1.036369153999999959e+00 -2.264391286212809717e+00
1.053978327999999909e+00 -2.143707141978161701e+00
1.071587502000000081e+00 -2.048891292011372656e+00
1.089196674999999948e+00 -2.022661099588646039e+00
1.106805848999999897e+00 -1.866210922294232688e+00
1.124415023000000069e+00 -1.904308130889901918e+00
1.142024197000000019e+00 -1.749277616116827971e+00
1.159633370000000108e+00 -1.749085163262773079e+00
1.177242544000000057e+00 -1.778808709331077154e+00
1.194851718000000007e+00 -1.664749579269180657e+00
1.212460891000000096e+00 -1.608161795411565009e+00
1.230070065000000046e+00 -1.584161999382622810e+00
1.247679238999999995e+00 -1.454206507263084092e+00
1.265288412999999945e+00 -1.476839025682082251e+00
1.282897586000000034e+00 -1.312635232325661150e+00
1.300506759999999984e+00 -1.290947626973405704e+00
1.318115933999999934e+00 -1.243874511031506813e+00
1.335725107000000023e+00 -1.178046067697042787e+00
1.353334280999999972e+00 -1.115804347881987013e+00
1.370943454999999922e+00 -1.154434641682428264e+00
1.388552629000000094e+00 -1.191871566961690831e+00
1.406161801999999961e+00 -1.043280362621839430e+00
1.423770975999999910e+00 -1.106549139667954762e+00
1.441380150000000082e+00 -1.087727553458798013e+00
1.458989322999999949e+00 -1.018088986920464123e+00
1.476598496999999899e+00 -9.593198998457239668e-01
1.494207671000000071e+00 -9.995105224425202550e-01
1.511816845000000020e+00 -8.935031189772573157e-01
1.529426018000000109e+00 -9.615578224448775302e-01
1.547035192000000059e+00 -8.659991023880557748e-01
1.564644366000000009e+00 -8.867156508349545163e-01
1.582253539000000098e+00 -7.927888541220937668e-01
1.599862713000000047e+00 -7.506846856933933054e-01
1.617471886999999997e+00 -7.537599969939137168e-01
1.635081060999999947e+00 -7.156947092370806729e-01
1.652690234000000036e+00 -6.885978304220863322e-01
1.670299407999999985e+00 -6.423555323728891153e-01
1.687908581999999935e+00 -6.317658118549509538e-01
1.705517755000000024e+00 -5.700090477103536557e-01
1.723126928999999974e+00 -5.793662595842228313e-01
1.740736102999999924e+00 -5.677773752930868056e-01
1.758345277000000095e+00 -5.304148283765712790e-01
1.775954449999999962e+00 -5.227250251109971657e-01
1.793563623999999912e+00 -4.805757413322488958e-01
1.811172798000000084e+00 -5.205185581888542856e-01
1.828781970999999951e+00 -4.346590440310293957e-01
1.846391144999999900e+00 -3.979103697201011869e-01
1.864000319000000072e+00 -3.703213858733107600e-01
1.881609493000000022e+00 -2.584656314502637997e-01
1.899218666000000111e+00 -3.426568171332995405e-01
1.916827840000000061e+00 -3.051245547179455286e-01
1.934437014000000010e+00 -2.877572230601046499e-01
1.952046187000000099e+00 -2.358926171238771019e-01
1.969655361000000049e+00 -3.535166386002792649e-01
1.987264534999999999e+00 -2.245658533361698517e-01
2.004873708999999948e+00 -2.234520741717176406e-01
2.022482881999999815e+00 -2.294509243459081915e-01
2.040092056000000209e+00 -2.358498311838062023e-01
2.057701230000000159e+00 -1.978283551756518932e-01
2.075310403000000026e+00 -1.895161525031738847e-01
2.092919576999999975e+00 -1.327211088490294344e-01
2.110528750999999925e+00 -7.089635396608784390e-02
2.128137924999999875e+00 -1.165316103531921499e-02
2.145747098000000186e+00 -3.154448345161853240e-02
2.163356272000000136e+00 -5.889381247014568999e-02
2.180965446000000085e+00 -2.432788731257673476e-02
2.198574618999999952e+00 -6.656963473141885856e-02
2.216183792999999902e+00 -2.697734599457746185e-02
2.233792966999999852e+00 6.333934997121204447e-02
2.251402140999999801e+00 7.570939620950412063e-02
2.269011314000000112e+00 4.684445770629253047e-02
2.286620488000000062e+00 -3.035949048125985428e-03
2.304229662000000012e+00 6.042434532064433483e-02
2.321838834999999879e+00 6.025410584365786804e-02
2.339448008999999828e+00 -2.653936213807028821e-02
2.357057182999999778e+00 1.707432389680825224e-01
2.374666357000000172e+00 1.240282313396328107e-01
2.392275530000000039e+00 1.162152464929597784e-01
2.409884703999999989e+00 1.407384383384702176e-01
2.427493877999999938e+00 1.761873051594022854e-01
2.445103050999999805e+00 1.234392196009252984e-01
2.462712225000000199e+00 1.259469865290405721e-01
2.480321399000000149e+00 1.331243668498487409e-01
2.497930573000000098e+00 1.122617480474978890e-01
2.515539745999999965e+00 1.022453555976312600e-01
2.533148919999999915e+00 8.208396761663649954e-02
2.550758093999999865e+00 1.136322512720973066e-01
2.568367267000000176e+00 4.239638075386764626e-02
2.585976441000000126e+00 1.452326344389938129e-01
2.603585615000000075e+00 7.422992647761361695e-02
2.621194789000000025e+00 4.741568665054529674e-02
2.638803961999999892e+00 1.092482769653919661e-01
2.656413135999999842e+00 8.633032836279852518e-02
2.674022309999999791e+00 1.357497047683295932e-01
2.691631483000000102e+00 1.740416910357147628e-01
2.709240657000000052e+00 1.385160003549508190e-01
2.726849831000000002e+00 1.568454381683181964e-01
2.744459004999999951e+00 1.059663583435046519e-01
2.762068177999999818e+00 5.198131340398859379e-02
2.779677352000000212e+00 1.787659813927078289e-02
2.797286526000000162e+00 9.560804888958784886e-02
2.814895699000000029e+00 1.258728208199073606e-01
2.832504872999999979e+00 1.458513551351323656e-01
2.850114046999999928e+00 2.908036197846897153e-02
2.867723220999999878e+00 7.816290280182158767e-03
2.885332394000000189e+00 4.703699388822215610e-01
2.902941568000000139e+00 1.437630092713362728e+00
2.920550742000000088e+00 3.629153821039960093e+00
2.938159914999999955e+00 7.903939218606019779e+00
2.955769088999999905e+00 1.841161570678406889e+01
2.973378262999999855e+00 3.851464277041750961e+01
2.990987436999999804e+00 nan
3.008596610000000116e+00 nan
3.026205784000000065e+00 nan
3.043814958000000015e+00 nan
3.061424130999999882e+00 nan
3.079033304999999832e+00 nan
3.096642478999999781e+00 nan
3.114251653000000175e+00 nan
3.131860826000000042e+00 nan
3.149469999999999992e+00 nan
